-1.218230277299880981e-01,-3.108623065054416656e-02,8.856765925884246826e-02,-9.243937581777572632e-02,-1.075777560472488403e-01,5.528045445680618286e-02,-9.910581633448600769e-03,9.591340087354183197e-03,8.766509592533111572e-02,-6.294544320553541183e-03
1.551646888256072998e-01,-8.738172799348831177e-02,-6.545735150575637817e-02,-7.852011919021606445e-02,-4.019627720117568970e-02,-5.804442986845970154e-02,1.031794771552085876e-01,1.468414217233657837e-01,-8.063059300184249878e-02,-6.503479927778244019e-02
1.143422946333885193e-01,-6.177141144871711731e-02,1.277362108230590820e-01,4.434281215071678162e-02,-4.043398797512054443e-02,-1.848601251840591431e-01,-1.935442239046096802e-01,5.312981083989143372e-02,-1.110579594969749451e-01,9.109959751367568970e-02
-2.036332897841930389e-02,8.886809647083282471e-02,1.061629578471183777e-01,1.117572709918022156e-01,8.892352133989334106e-02,-9.773676842451095581e-02,-6.719337403774261475e-02,1.757508963346481323e-01,1.215119510889053345e-01,-3.147974982857704163e-02
1.104617714881896973e-01,6.291177123785018921e-02,7.672705501317977905e-02,1.121994033455848694e-01,8.037664741277694702e-02,3.061898425221443176e-02,-9.843432158231735229e-02,-1.543978452682495117e-01,1.714677214622497559e-01,1.044758688658475876e-02
2.656768076121807098e-02,-5.845776945352554321e-02,-5.217275023460388184e-02,-5.182765051722526550e-02,1.249235421419143677e-01,1.377389580011367798e-01,-5.268792435526847839e-02,-2.570572309195995331e-02,1.761755160987377167e-02,-7.049966603517532349e-02
-7.342769205570220947e-02,8.546507358551025391e-02,-5.227007344365119934e-02,6.040133070200681686e-03,9.478276222944259644e-02,-1.965646594762802124e-01,1.072160229086875916e-01,-6.209723278880119324e-02,-4.418904334306716919e-02,-3.750975057482719421e-02
-1.176165323704481125e-02,-5.237240716814994812e-02,1.400710642337799072e-01,-4.403721541166305542e-02,-9.270028769969940186e-02,1.200632378458976746e-01,-6.477072089910507202e-02,7.859412580728530884e-02,2.788003161549568176e-02,3.349417820572853088e-02
2.999780885875225067e-02,5.026750639081001282e-02,-5.270663183182477951e-03,3.073833882808685303e-02,-7.905402034521102905e-02,6.704326719045639038e-02,-3.593119606375694275e-02,-6.627140194177627563e-02,-4.744267836213111877e-02,1.068913340568542480e-01
1.402122229337692261e-01,-7.073389738798141479e-02,1.336164679378271103e-02,1.470100320875644684e-02,4.297740384936332703e-02,-6.552373617887496948e-02,-6.297342479228973389e-02,-1.685184091329574585e-01,-9.162555634975433350e-02,-7.601958513259887695e-02
-7.600863277912139893e-02,2.276004105806350708e-02,-1.222106441855430603e-01,7.302358746528625488e-02,9.510052949190139771e-02,-7.468431442975997925e-02,-6.403875350952148438e-02,4.309842735528945923e-02,-3.760372847318649292e-02,-1.217061802744865417e-01
4.046007618308067322e-02,-1.186303868889808655e-01,1.893357001245021820e-02,1.236897259950637817e-01,1.009009256958961487e-01,1.328665483742952347e-02,-3.283452615141868591e-02,7.197941839694976807e-02,7.067944854497909546e-02,1.105574294924736023e-01
-1.431589722633361816e-01,1.245209351181983948e-01,-8.073196560144424438e-02,-1.402947958558797836e-02,-1.260972917079925537e-01,6.715171784162521362e-02,1.142580881714820862e-01,-6.451541930437088013e-02,1.881805807352066040e-02,-1.535097323358058929e-02
-1.915637694764882326e-04,2.697700075805187225e-02,-1.482582010794430971e-04,-5.834955722093582153e-02,1.095308884978294373e-01,-1.347941458225250244e-01,6.970985978841781616e-02,-1.286730635911226273e-02,8.299798518419265747e-02,-4.054034501314163208e-02
-1.349910497665405273e-01,-2.281585894525051117e-02,-5.707084387540817261e-02,9.943251311779022217e-02,-8.464954048395156860e-02,1.975551694631576538e-01,-5.794539302587509155e-02,5.968447402119636536e-02,-7.550194114446640015e-02,4.681836348026990891e-03
1.232635155320167542e-01,2.893181703984737396e-02,-4.323990270495414734e-02,-1.738156229257583618e-01,6.270585209131240845e-02,1.202718541026115417e-01,-2.085644453763961792e-01,1.321478039026260376e-01,5.691506341099739075e-02,-2.344598434865474701e-02
7.497068727388978004e-04,-8.988427929580211639e-03,2.119941450655460358e-02,-1.193691864609718323e-01,3.005406819283962250e-02,1.533465981483459473e-01,5.162924528121948242e-02,-1.284882575273513794e-01,-9.505442343652248383e-03,9.861109405755996704e-02
-1.636102646589279175e-01,-1.094847321510314941e-01,-6.988881528377532959e-02,-4.497045651078224182e-03,-3.653152287006378174e-02,8.946512639522552490e-02,-7.494132220745086670e-02,9.705983847379684448e-02,2.708537317812442780e-02,-1.186668202280998230e-01
3.666296601295471191e-02,1.644495427608489990e-01,-8.571975678205490112e-02,1.402545422315597534e-01,-9.141089767217636108e-02,1.858654767274856567e-01,-4.740830045193433762e-03,8.199106901884078979e-03,-6.786017864942550659e-02,-2.088541351258754730e-02
-1.246737316250801086e-02,-1.923686414957046509e-01,-1.369008272886276245e-01,2.723078429698944092e-02,-1.738494075834751129e-02,-6.746822595596313477e-02,6.708043813705444336e-02,-4.832264780998229980e-02,2.100884169340133667e-02,3.747633425518870354e-03
-2.209753170609474182e-02,-7.524361461400985718e-02,-1.743640452623367310e-01,5.727794766426086426e-02,8.250572532415390015e-02,-6.433711200952529907e-02,6.842422485351562500e-02,-5.424991250038146973e-02,-9.776252508163452148e-02,1.920594424009323120e-01
7.952880114316940308e-02,1.743464320898056030e-01,1.255895644426345825e-01,-4.482453316450119019e-02,9.713680297136306763e-02,-7.658736407756805420e-02,1.278631109744310379e-02,9.374056756496429443e-02,-5.108195170760154724e-02,-6.725472956895828247e-02
1.049712076783180237e-01,6.096338387578725815e-03,-3.458749875426292419e-02,-7.015365362167358398e-02,-1.013198718428611755e-01,-1.455913335084915161e-01,1.534752827137708664e-02,1.481838375329971313e-01,-6.122499704360961914e-02,-6.100625917315483093e-02
-9.762946516275405884e-02,3.018112480640411377e-02,6.773014552891254425e-03,-2.944396436214447021e-02,3.201932832598686218e-02,1.575590968132019043e-01,7.440938055515289307e-02,-1.355801969766616821e-01,-3.207262232899665833e-02,4.224246367812156677e-02
-1.077764630317687988e-01,8.058766834437847137e-03,-1.110294554382562637e-02,-1.725712232291698456e-02,7.346083968877792358e-02,-1.772947981953620911e-02,-3.914988040924072266e-02,1.322557181119918823e-01,5.801568552851676941e-02,-4.816203564405441284e-02
-8.737467974424362183e-02,1.107090935111045837e-01,-1.096196696162223816e-01,-4.426371306180953979e-02,-4.526485223323106766e-03,-3.651105565950274467e-03,-7.336338609457015991e-02,-2.001338079571723938e-02,1.571804583072662354e-01,1.655657142400741577e-01
-3.433493152260780334e-02,1.559892743825912476e-01,8.419883251190185547e-02,-7.121074944734573364e-02,1.164073590189218521e-03,7.560294121503829956e-02,1.582918763160705566e-01,2.967471256852149963e-02,2.121008001267910004e-02,1.827871054410934448e-01
3.245500847697257996e-02,1.590373367071151733e-02,-8.490074425935745239e-02,4.360010474920272827e-02,1.725624874234199524e-02,1.015183608978986740e-02,-1.232021395117044449e-02,-6.167103070765733719e-03,1.062126904726028442e-01,3.789951652288436890e-02
-9.924250096082687378e-02,1.033464819192886353e-01,3.863876685500144958e-02,8.153586648404598236e-03,2.597668208181858063e-03,-1.321164220571517944e-01,-3.552765771746635437e-02,-6.199099496006965637e-02,1.125478968024253845e-01,1.422695070505142212e-01
-1.042437106370925903e-01,1.156091094017028809e-01,1.445004940032958984e-01,1.730165928602218628e-01,5.960715934634208679e-02,-3.863925486803054810e-02,-6.496731936931610107e-02,-6.798858940601348877e-02,-1.191960368305444717e-02,4.532386548817157745e-03
1.531627923250198364e-01,-3.801716957241296768e-03,-2.422564662992954254e-02,-1.401791870594024658e-01,2.856279350817203522e-02,6.650014221668243408e-02,6.265800446271896362e-02,2.044325321912765503e-02,-1.901299506425857544e-02,-1.522521078586578369e-01
5.369840189814567566e-02,8.803720027208328247e-02,-2.513736300170421600e-02,-3.252702997997403145e-03,3.591984510421752930e-02,-6.177553534507751465e-02,1.921618133783340454e-01,-7.277017831802368164e-02,-1.199914813041687012e-01,4.242328926920890808e-02
-1.234333887696266174e-01,6.413102895021438599e-02,3.682355582714080811e-02,-2.123483456671237946e-03,9.858474135398864746e-02,4.582558944821357727e-02,-8.539891988039016724e-02,1.822555512189865112e-01,-5.946359038352966309e-02,-1.179066151380538940e-01
-6.671043485403060913e-02,-1.463043540716171265e-01,2.276210486888885498e-02,1.014714762568473816e-01,5.790849402546882629e-02,-5.618938803672790527e-02,-8.036305196583271027e-03,3.288498148322105408e-02,1.368528045713901520e-02,1.122959479689598083e-01
5.502988770604133606e-02,8.954978734254837036e-02,-1.495043337345123291e-01,-7.868488132953643799e-02,-1.014656499028205872e-01,1.500756889581680298e-01,-6.625455617904663086e-02,-1.381990462541580200e-01,4.507786780595779419e-02,1.263281796127557755e-02
1.560856848955154419e-01,-1.403733640909194946e-01,-1.382320672273635864e-01,1.470363140106201172e-01,-5.796902347356081009e-03,3.275997936725616455e-02,8.490749448537826538e-02,-1.014536172151565552e-01,1.030853018164634705e-01,-6.177983060479164124e-02
-1.593963354825973511e-01,6.643796712160110474e-02,1.603395044803619385e-01,-3.048565937206149101e-03,-2.337308824062347412e-01,-1.612494140863418579e-01,2.988803014159202576e-02,-1.711554080247879028e-01,1.472558267414569855e-02,3.208088502287864685e-02
1.934055611491203308e-02,1.117045208811759949e-01,-1.466592699289321899e-01,-2.386141009628772736e-02,3.006554581224918365e-02,-1.240479946136474609e-01,-3.839542344212532043e-02,-1.152114346623420715e-01,-1.519416570663452148e-01,-5.428415909409523010e-02
-1.554156281054019928e-02,1.324541121721267700e-02,4.382435232400894165e-02,-4.691709205508232117e-02,-2.278639972209930420e-01,-1.113681197166442871e-01,-2.568789757788181305e-02,1.149227097630500793e-01,1.469422783702611923e-02,-1.077430024743080139e-01
1.578424312174320221e-02,-1.159225106239318848e-01,-3.490553796291351318e-02,7.583681493997573853e-02,-1.415887176990509033e-01,-1.011192649602890015e-01,-2.670130319893360138e-02,-1.297916620969772339e-01,6.723657995462417603e-02,-1.503552794456481934e-01
-3.389316424727439880e-02,1.531767994165420532e-01,-1.622997671365737915e-01,5.578688159584999084e-02,-3.225644528865814209e-01,-1.919580064713954926e-02,-3.979135770350694656e-03,8.196527510881423950e-02,-7.122268527746200562e-02,-2.790594696998596191e-01
-6.417613476514816284e-02,1.624563336372375488e-02,-2.752909362316131592e-01,-8.974073082208633423e-02,-1.486862301826477051e-01,-3.959608823060989380e-02,6.758385151624679565e-02,-9.457857906818389893e-02,-1.365861743688583374e-01,3.484072908759117126e-02
-2.074863016605377197e-01,1.360602676868438721e-01,-8.377864211797714233e-02,8.866397291421890259e-02,1.977425441145896912e-02,-1.045880839228630066e-01,-1.013345569372177124e-01,-1.295209582895040512e-02,-1.631368324160575867e-02,5.825028941035270691e-02
-1.283415500074625015e-02,1.295711994171142578e-01,-1.112110763788223267e-01,-4.579525813460350037e-02,-1.519893202930688858e-02,-1.376002281904220581e-01,1.591155380010604858e-01,-9.503621608018875122e-02,1.515772566199302673e-02,-1.578696221113204956e-01
-2.942990064620971680e-01,-1.566110551357269287e-01,-8.725797384977340698e-02,-4.953114688396453857e-02,-5.073917284607887268e-02,-3.401025384664535522e-02,-1.194276139140129089e-01,2.373156696557998657e-02,-1.240258221514523029e-03,-2.080559432506561279e-01
-1.489514857530593872e-01,-6.723409891128540039e-02,-1.575894095003604889e-02,-2.504182280972599983e-03,-1.799413114786148071e-01,-9.443794190883636475e-02,1.793210022151470184e-02,1.251204460859298706e-01,-7.538091391324996948e-02,-1.594981253147125244e-01
3.175936639308929443e-02,1.009682938456535339e-01,-5.681522563099861145e-02,-9.881399571895599365e-02,-1.076514795422554016e-01,-2.022476196289062500e-01,2.051622718572616577e-01,-4.945515841245651245e-02,-1.221125349402427673e-01,-1.601558178663253784e-01
-1.457396894693374634e-01,-7.832238078117370605e-02,-2.701559066772460938e-01,6.745050102472305298e-02,-3.148478865623474121e-01,-7.211952656507492065e-02,1.871613860130310059e-01,-9.193309233523905277e-04,-8.287987112998962402e-02,-9.868980199098587036e-02
1.169097726233303547e-03,-1.555794179439544678e-01,-2.194960974156856537e-02,-4.566790163516998291e-02,-7.229384034872055054e-02,-1.288230121135711670e-01,3.713360801339149475e-02,2.062642015516757965e-02,-3.244953602552413940e-02,-1.094581908546388149e-03
-7.074704766273498535e-02,-8.180087804794311523e-02,-1.139653995633125305e-01,-5.790850147604942322e-02,-7.918815314769744873e-02,1.066685840487480164e-01,-4.207129031419754028e-02,-1.839943230152130127e-01,-2.287257164716720581e-01,-5.597124807536602020e-03
7.294982671737670898e-02,3.711599856615066528e-02,-1.666597872972488403e-01,-4.595107864588499069e-03,-1.541613638401031494e-01,-1.420982480049133301e-01,6.310115754604339600e-02,1.549146790057420731e-02,5.060766264796257019e-02,5.513483285903930664e-02
5.335358902812004089e-03,-3.119279816746711731e-02,5.582652240991592407e-02,7.765984535217285156e-02,-1.200995296239852905e-01,9.472842514514923096e-02,-5.077003315091133118e-02,-1.254615336656570435e-01,7.375589013099670410e-02,-1.854202002286911011e-01
1.839215457439422607e-01,9.348175674676895142e-02,-9.785182774066925049e-02,7.201402634382247925e-02,1.471852511167526245e-01,-6.816411763429641724e-02,-1.304103732109069824e-01,-8.025456964969635010e-02,-7.709814701229333878e-03,-6.284555792808532715e-02
2.301165461540222168e-02,5.656522512435913086e-02,-4.163575172424316406e-02,-1.803281754255294800e-01,-6.097474321722984314e-02,6.593098491430282593e-02,-2.900034748017787933e-02,1.313853859901428223e-01,-1.259919106960296631e-01,3.208988532423973083e-02
4.387538507580757141e-02,1.998030580580234528e-02,1.876023113727569580e-01,-6.405816227197647095e-02,-8.143024146556854248e-02,6.531833112239837646e-02,3.341919183731079102e-02,5.176811292767524719e-02,-9.770926088094711304e-02,-5.549972876906394958e-02
3.644933924078941345e-02,-1.443150788545608521e-01,4.059439525008201599e-02,1.132288202643394470e-01,-9.784383699297904968e-03,1.021719723939895630e-01,1.186555549502372742e-01,-8.478058129549026489e-02,-1.099576950073242188e-01,-1.097380295395851135e-01
6.906503438949584961e-02,1.254903059452772141e-02,8.147999644279479980e-02,3.574858233332633972e-02,-3.890549018979072571e-02,3.468849509954452515e-02,-4.687411710619926453e-02,-1.308853831142187119e-02,8.467969298362731934e-02,-1.719700247049331665e-01
1.478870864957571030e-02,-1.195227131247520447e-01,-1.042607352137565613e-01,1.474121809005737305e-01,9.018287807703018188e-02,1.869184523820877075e-02,-4.991908371448516846e-02,5.749705433845520020e-02,1.604521125555038452e-01,6.715536117553710938e-03
-2.040549069643020630e-01,1.141955237835645676e-02,9.145217388868331909e-02,6.537627428770065308e-02,-3.608584031462669373e-02,4.661853611469268799e-02,-1.131266281008720398e-01,8.352816104888916016e-02,-6.151973083615303040e-02,-1.383613198995590210e-01
2.281387802213430405e-03,-1.463769841939210892e-02,-9.765065461397171021e-02,1.354256179183721542e-02,-2.766674198210239410e-02,9.469599276781082153e-02,6.911857426166534424e-02,-1.846312582492828369e-01,1.697707027196884155e-01,2.013317868113517761e-02
-1.573674827814102173e-01,6.392543017864227295e-02,-2.167325764894485474e-01,7.410173863172531128e-02,1.915779151022434235e-02,7.763378322124481201e-02,-8.786317706108093262e-02,2.964953333139419556e-02,-9.468154609203338623e-02,-1.264068414457142353e-03
-1.983985304832458496e-02,7.335148751735687256e-02,1.583606302738189697e-01,7.737731095403432846e-03,-1.008527576923370361e-01,-4.272929206490516663e-02,-2.376839146018028259e-02,-1.085693612694740295e-01,7.545305788516998291e-02,-1.711291670799255371e-01
-1.833591051399707794e-02,-1.779870241880416870e-01,3.681387379765510559e-02,-1.207206174731254578e-01,-1.680916696786880493e-01,-3.804891929030418396e-02,8.162346482276916504e-02,-7.448744773864746094e-02,-7.836053846403956413e-04,-4.143951460719108582e-02
-4.523193091154098511e-02,-1.561744213104248047e-01,-3.053973801434040070e-02,9.667591750621795654e-02,-3.440798223018646240e-01,-6.441053003072738647e-02,5.989620834589004517e-02,1.594161428511142731e-02,8.230162411928176880e-02,-1.971416324377059937e-01
-2.175596505403518677e-01,-1.924366503953933716e-01,-1.487628370523452759e-01,-7.320575416088104248e-02,-3.065800964832305908e-01,2.509557455778121948e-02,1.405267864465713501e-01,5.208648741245269775e-02,-7.623018231242895126e-03,-2.837784588336944580e-02
-1.142039671540260315e-01,-1.848825812339782715e-02,-4.010141268372535706e-02,-1.282439976930618286e-01,-2.687302827835083008e-01,-1.051987931132316589e-01,1.446586102247238159e-01,-1.939450055360794067e-01,-1.479871477931737900e-02,-1.287003606557846069e-01
-1.951414793729782104e-01,-1.423150151968002319e-01,-1.198444887995719910e-01,-1.034744754433631897e-01,-3.920850753784179688e-01,-9.452106058597564697e-02,9.937716275453567505e-02,-1.099927350878715515e-01,-1.261777579784393311e-01,-5.290490016341209412e-02
-1.114003658294677734e-01,-1.178970411419868469e-01,-3.162591159343719482e-02,-1.115413457155227661e-01,-2.031951397657394409e-01,-9.533170610666275024e-02,1.367858648300170898e-01,-3.114113807678222656e-01,-1.111940145492553711e-01,-1.793932616710662842e-01
-3.059900104999542236e-01,-8.262149989604949951e-02,-9.030639380216598511e-02,-6.133022904396057129e-02,-2.984591424465179443e-01,-2.064566612243652344e-01,1.347818076610565186e-01,6.008088961243629456e-02,-1.160179153084754944e-01,-3.439902663230895996e-01
-1.479625701904296875e-01,-2.545677311718463898e-02,-3.308502584695816040e-02,-2.352813482284545898e-01,-4.038898646831512451e-01,-3.434819281101226807e-01,1.877202689647674561e-01,-1.284948885440826416e-01,-3.415432199835777283e-02,-2.400131225585937500e-01
-1.415458768606185913e-01,-6.991390138864517212e-02,-1.651612222194671631e-01,-6.328620016574859619e-02,-3.280214071273803711e-01,-3.148050606250762939e-01,8.956986665725708008e-02,-8.467356860637664795e-02,-4.976181685924530029e-02,-1.779329925775527954e-01
-3.655455410480499268e-01,-3.946184366941452026e-02,-5.083614960312843323e-02,1.952045410871505737e-02,-4.021458625793457031e-01,-1.133766397833824158e-01,-1.303232740610837936e-02,-6.611602753400802612e-02,-3.140592575073242188e-01,-2.387523949146270752e-01
-1.881346255540847778e-01,-4.787443578243255615e-02,-2.174955159425735474e-01,-2.309814393520355225e-01,-3.142253458499908447e-01,-2.106229364871978760e-01,1.552070081233978271e-01,-4.161659628152847290e-02,-1.520548015832901001e-01,-2.980299592018127441e-01
-3.022184669971466064e-01,-4.302525892853736877e-02,-1.250218600034713745e-01,-1.236782297492027283e-01,-1.554429084062576294e-01,-1.035495623946189880e-01,1.444759815931320190e-01,-5.922066629864275455e-04,-8.793371729552745819e-03,-2.623394727706909180e-01
-3.648800253868103027e-01,-7.879685610532760620e-02,-1.444777399301528931e-01,-1.692833155393600464e-01,-1.733953356742858887e-01,-1.394342184066772461e-01,-7.021383941173553467e-02,-2.546119503676891327e-02,-2.188985496759414673e-01,-2.523010373115539551e-01
-1.979654133319854736e-01,-5.944327265024185181e-02,-6.114211678504943848e-02,-1.416051983833312988e-01,-1.999536603689193726e-01,-1.768224388360977173e-01,1.662724316120147705e-01,8.119977265596389771e-02,-1.854469925165176392e-01,-5.653635412454605103e-02
-3.348788022994995117e-01,-1.491073966026306152e-01,-9.131316095590591431e-02,-1.072105206549167633e-02,-1.890500485897064209e-01,-1.032446473836898804e-01,-5.473079159855842590e-02,-7.792135328054428101e-02,-1.371342688798904419e-01,-1.701743751764297485e-01
-2.928913235664367676e-01,-1.119744628667831421e-01,-1.715147793292999268e-01,-9.015274792909622192e-02,-2.355441749095916748e-01,-4.803316295146942139e-02,1.223193705081939697e-01,2.882068743929266930e-03,-1.792962290346622467e-02,-1.972453296184539795e-01
-1.614774465560913086e-01,-1.021388918161392212e-01,-1.129858121275901794e-01,2.691797353327274323e-02,5.388491228222846985e-02,-1.571322381496429443e-01,1.115221977233886719e-01,5.475847050547599792e-03,2.821156010031700134e-02,-1.614119112491607666e-01
3.850842639803886414e-02,-1.749085187911987305e-01,-1.480011641979217529e-01,-1.699410527944564819e-01,-2.497221231460571289e-01,4.390228167176246643e-02,1.363322287797927856e-01,-1.980086229741573334e-02,1.116324332542717457e-03,-1.013567522168159485e-01
3.887573257088661194e-02,-1.842375993728637695e-01,5.080710723996162415e-02,-4.586910828948020935e-02,-6.264644674956798553e-03,-2.065482139587402344e-01,-6.313195824623107910e-02,-1.200276836752891541e-01,3.856857866048812866e-02,3.128729760646820068e-02
-1.504963785409927368e-01,-1.139086559414863586e-01,-8.867207914590835571e-02,-9.861326776444911957e-03,3.719555912539362907e-03,-8.797322958707809448e-02,-6.648793816566467285e-02,5.399921536445617676e-02,-1.016076207160949707e-01,3.921198844909667969e-02
-5.877614021301269531e-02,2.861393056809902191e-02,1.212083920836448669e-01,-1.332791894674301147e-01,-9.047506004571914673e-02,-6.887394934892654419e-02,6.227489188313484192e-02,1.433515399694442749e-01,6.465683877468109131e-02,1.794635690748691559e-02
1.226765513420104980e-01,-7.442666590213775635e-02,1.060963701456785202e-02,4.287092760205268860e-02,9.848598856478929520e-04,2.164442650973796844e-02,-1.303577870130538940e-01,-1.002118457108736038e-02,-2.568550221621990204e-02,7.095566485077142715e-03
9.652868658304214478e-02,-1.456835120916366577e-01,-9.009718894958496094e-02,-8.478551357984542847e-02,-5.893138051033020020e-02,3.533151373267173767e-02,-6.492602080106735229e-02,1.488394588232040405e-01,1.452500969171524048e-01,-1.213442813605070114e-02
2.355882525444030762e-02,7.923679426312446594e-03,-7.876922935247421265e-02,1.289734393358230591e-01,1.989508233964443207e-02,-2.359218895435333252e-02,-3.305448964238166809e-02,-1.445471644401550293e-01,8.739975094795227051e-02,3.270976245403289795e-02
-1.059171482920646667e-01,3.655176609754562378e-02,3.474796563386917114e-02,-1.453756447881460190e-02,-8.715089410543441772e-02,-1.175697427242994308e-02,1.305255889892578125e-01,1.783777214586734772e-02,-1.448178589344024658e-01,-8.412101119756698608e-02
3.707924112677574158e-02,6.355461478233337402e-02,-5.681512877345085144e-02,4.116711392998695374e-02,-3.852999582886695862e-02,-6.061666086316108704e-02,-8.447415381669998169e-02,-1.009644865989685059e-01,-4.265160486102104187e-02,1.562457531690597534e-01
-1.118776202201843262e-01,-5.318601801991462708e-02,-2.674855478107929230e-02,-4.695836827158927917e-02,-1.064913943409919739e-01,2.827564254403114319e-03,-5.020751804113388062e-02,-2.362646535038948059e-02,-1.533529758453369141e-01,7.623497396707534790e-02
-7.553838938474655151e-02,1.141228154301643372e-01,5.203118920326232910e-02,1.200456693768501282e-01,1.037053912878036499e-01,-1.063121482729911804e-01,6.637322716414928436e-03,7.569263875484466553e-02,-8.601421862840652466e-02,-1.106175407767295837e-01
-1.230602338910102844e-01,-5.222618952393531799e-02,9.521637856960296631e-02,1.624614745378494263e-01,-2.482729107141494751e-01,-1.000291779637336731e-01,1.834938526153564453e-01,3.642782941460609436e-02,-4.204668477177619934e-02,-5.949717760086059570e-02
-2.048557996749877930e-01,-1.639706045389175415e-01,-1.374790221452713013e-01,-6.412135064601898193e-02,-1.903535303426906466e-04,-2.497785836458206177e-01,1.834450364112854004e-01,-1.607706695795059204e-01,-1.075673196464776993e-02,-2.303875535726547241e-01
-6.120367348194122314e-02,-2.413642108440399170e-01,-2.656772918999195099e-02,-8.814635872840881348e-02,-1.739380657672882080e-01,-9.575753659009933472e-02,4.054754972457885742e-02,-1.621284186840057373e-01,-6.644783914089202881e-02,-6.900922954082489014e-02
-2.827281691133975983e-02,-7.185854017734527588e-02,2.050734758377075195e-01,1.972692646086215973e-02,-4.052258431911468506e-01,-2.522049248218536377e-01,6.766381859779357910e-02,3.319485485553741455e-02,-6.849191337823867798e-02,-2.895925045013427734e-01
-2.428814619779586792e-01,-1.192893609404563904e-01,1.185282319784164429e-01,-8.029497228562831879e-03,-3.211382627487182617e-01,-1.641024798154830933e-01,4.017938673496246338e-02,-2.191251665353775024e-01,-2.981387451291084290e-02,-1.481085550040006638e-03
-4.856269806623458862e-02,-2.418006807565689087e-01,1.854394525289535522e-01,5.302802845835685730e-02,-3.166069984436035156e-01,-1.820650398731231689e-01,1.119584068655967712e-01,-2.946822047233581543e-01,1.311982609331607819e-02,-4.524815827608108521e-02
1.738120988011360168e-02,-1.908885240554809570e-01,5.109292641282081604e-02,-6.526394188404083252e-02,-3.332229256629943848e-01,-9.532224386930465698e-02,-2.550503611564636230e-02,-1.513533145189285278e-01,-2.053773999214172363e-01,-2.039376050233840942e-01
-3.252574941143393517e-03,-2.691111564636230469e-01,2.022348642349243164e-01,8.347121626138687134e-02,-4.026994407176971436e-01,-1.461871117353439331e-01,9.407743066549301147e-02,-1.465118825435638428e-01,-2.230724096298217773e-01,-2.433150708675384521e-01
1.057310216128826141e-02,-1.434603780508041382e-01,1.619537733495235443e-02,5.269610881805419922e-02,-4.032126069068908691e-01,-1.149647235870361328e-01,2.011777907609939575e-01,-2.033264189958572388e-01,-2.217845469713211060e-01,-4.027749598026275635e-01
-2.976907491683959961e-01,-1.023158878087997437e-01,5.765286460518836975e-02,6.187302246689796448e-02,-1.804850846529006958e-01,-1.145012155175209045e-01,-9.639048017561435699e-03,-1.375185698270797729e-01,-2.402997463941574097e-01,-3.083150386810302734e-01
-2.904271781444549561e-01,-9.059601277112960815e-02,-1.156980767846107483e-01,5.944963544607162476e-02,-3.318274319171905518e-01,-1.721144318580627441e-01,2.010162472724914551e-01,-1.114168837666511536e-01,-2.117033451795578003e-01,-1.305856555700302124e-01
-4.430146515369415283e-02,-2.114239633083343506e-01,7.569650560617446899e-02,-5.811724811792373657e-02,-1.698936820030212402e-01,-1.983481347560882568e-01,7.442229986190795898e-02,-1.321189999580383301e-01,-1.190603300929069519e-01,-2.980016767978668213e-01
-2.161685973405838013e-01,-3.107783794403076172e-01,-1.631844639778137207e-01,4.861580580472946167e-02,-1.606245040893554688e-01,-1.010414361953735352e-01,2.025132030248641968e-01,-9.034444391727447510e-02,-3.342168629169464111e-01,-2.544942498207092285e-01
-2.890061438083648682e-01,-2.854807376861572266e-01,-2.335725277662277222e-01,-1.523079723119735718e-01,-1.135669872164726257e-01,4.047294147312641144e-03,1.053565144538879395e-01,4.887579753994941711e-02,-1.155041456222534180e-01,-3.242044746875762939e-01
-2.291935682296752930e-01,-1.679382771253585815e-01,-1.461209803819656372e-01,-1.057368963956832886e-01,-1.300049126148223877e-01,-3.109003882855176926e-03,2.011272311210632324e-01,6.711307168006896973e-02,-2.529495954513549805e-01,-2.350862026214599609e-01
-8.441720157861709595e-02,-1.289396435022354126e-01,-2.095321267843246460e-01,-7.840112596750259399e-02,-2.373860962688922882e-02,-1.099946200847625732e-01,1.408630460500717163e-01,4.660555347800254822e-02,2.614506892859935760e-02,-8.428516238927841187e-02
-3.552208542823791504e-01,-1.738288849592208862e-01,6.697899103164672852e-02,-1.269820332527160645e-01,-1.537456922233104706e-02,-3.464680165052413940e-02,2.031318396329879761e-01,-1.834248453378677368e-01,-7.761970162391662598e-02,-7.434721291065216064e-02
-2.646269276738166809e-02,-5.591574311256408691e-02,-1.388740688562393188e-01,-1.885347068309783936e-01,-8.965950459241867065e-02,-8.876500278711318970e-02,2.037473171949386597e-01,-7.021892815828323364e-02,-6.015319377183914185e-02,-1.152869760990142822e-01
-1.922540552914142609e-02,-1.463349461555480957e-01,-5.601445958018302917e-02,-1.893145143985748291e-01,-6.912345439195632935e-02,4.721112549304962158e-02,2.006524354219436646e-01,3.694128990173339844e-02,3.405020013451576233e-02,-7.813472300767898560e-02
-1.031651198863983154e-01,3.151742741465568542e-02,-1.508745551109313965e-01,1.521048843860626221e-01,-6.699761003255844116e-02,1.224435120820999146e-01,8.167202025651931763e-02,-1.421198248863220215e-01,-8.228036016225814819e-02,6.474874168634414673e-02
-6.458170711994171143e-02,5.095214024186134338e-02,-1.852539032697677612e-01,-8.023757487535476685e-02,-4.994242265820503235e-02,1.019474565982818604e-01,-4.080256447196006775e-02,-1.842622458934783936e-02,7.082921266555786133e-02,-6.665422767400741577e-02
1.255710273981094360e-01,2.247969433665275574e-02,3.684408217668533325e-02,-6.613899767398834229e-02,-1.154399383813142776e-02,3.663608059287071228e-02,-5.509021878242492676e-02,-1.954167149960994720e-02,4.936827346682548523e-02,1.883409172296524048e-01
3.859346732497215271e-02,4.476163536310195923e-02,-4.452787339687347412e-02,-2.855538763105869293e-02,3.112202882766723633e-02,6.909759342670440674e-02,3.820931911468505859e-02,9.665744751691818237e-02,-4.123021662235260010e-02,1.266994047909975052e-02
-1.102146729826927185e-01,1.053634211421012878e-01,-1.598425209522247314e-01,5.599410086870193481e-02,4.463456198573112488e-02,5.178588256239891052e-02,-4.792071413248777390e-03,-9.392608888447284698e-03,1.297408938407897949e-01,3.109678067266941071e-02
-1.003880705684423447e-02,-2.869899012148380280e-02,-1.514061838388442993e-01,1.104673296213150024e-01,-1.152415126562118530e-01,-1.152773946523666382e-01,-1.170576363801956177e-01,-8.546905219554901123e-02,-6.947486847639083862e-02,8.672361820936203003e-02
-8.786795288324356079e-02,9.548248350620269775e-02,-1.764512658119201660e-01,6.206397712230682373e-02,-6.831033527851104736e-02,-2.868160903453826904e-01,-8.627407252788543701e-02,2.141978591680526733e-02,-9.935546666383743286e-02,-2.038025110960006714e-01
-1.024656966328620911e-01,2.344067394733428955e-02,-1.145821437239646912e-01,6.558136641979217529e-02,-4.308731853961944580e-02,5.035144463181495667e-02,9.898155927658081055e-02,-6.364274770021438599e-02,-1.033760011196136475e-01,8.925180882215499878e-02
6.792225688695907593e-02,-3.812749683856964111e-02,9.196105599403381348e-02,1.337028443813323975e-01,-9.635709226131439209e-02,-4.164235200732946396e-03,-8.987424522638320923e-02,7.225503772497177124e-02,-4.092952609062194824e-02,-1.728753149509429932e-01
-3.277379274368286133e-01,-8.843657374382019043e-02,1.382866650819778442e-01,4.243812337517738342e-02,-2.580323219299316406e-01,-2.789910435676574707e-01,-2.256460301578044891e-02,-2.020703256130218506e-01,-1.340397298336029053e-01,-6.834049522876739502e-02
-3.984166681766510010e-02,-2.949866056442260742e-01,2.034614980220794678e-01,4.982778802514076233e-02,-1.994344405829906464e-02,-7.857228070497512817e-02,5.890234559774398804e-02,-2.866263985633850098e-01,-1.065868362784385681e-01,-2.037396468222141266e-02
-2.054273337125778198e-01,-3.883158788084983826e-02,1.508619040250778198e-01,1.144714802503585815e-01,-1.941865384578704834e-01,-1.627298295497894287e-01,-9.880521893501281738e-02,-2.619767487049102783e-01,-1.184132173657417297e-01,-2.450330406427383423e-01
-1.401412039995193481e-01,-1.836210042238235474e-01,5.502822250127792358e-02,1.259968429803848267e-01,-5.276989564299583435e-02,-1.937017291784286499e-01,5.211590230464935303e-02,-2.209943383932113647e-01,-3.028204739093780518e-01,-1.972856372594833374e-01
-1.264241188764572144e-01,-1.474579274654388428e-01,-1.339285820722579956e-02,1.086140722036361694e-01,-2.224504053592681885e-01,-9.726677089929580688e-02,6.254274398088455200e-02,-3.547381460666656494e-01,-2.868848145008087158e-01,-1.092155426740646362e-01
2.451956830918788910e-02,2.230768650770187378e-02,5.300837382674217224e-02,-2.603946812450885773e-02,-2.045109421014785767e-01,-3.271420300006866455e-02,-9.417992085218429565e-02,-1.368679851293563843e-01,-1.134063303470611572e-01,-2.662853002548217773e-01
-1.778989881277084351e-01,3.839819878339767456e-02,1.963175088167190552e-01,-3.506199689581990242e-03,-2.119675874710083008e-01,-2.374228835105895996e-01,-2.013492286205291748e-01,-1.416634321212768555e-01,4.990170896053314209e-02,-3.200025558471679688e-01
-8.516339585185050964e-03,5.335562676191329956e-02,1.778424084186553955e-01,1.395106166601181030e-01,-1.159919775091111660e-03,-1.500990539789199829e-01,2.094766199588775635e-01,-2.955228984355926514e-01,8.548221737146377563e-02,-3.364735543727874756e-01
-1.596768200397491455e-01,1.413863003253936768e-01,-6.371088325977325439e-02,2.070187404751777649e-02,-2.298311591148376465e-01,-1.638422533869743347e-02,-7.411371171474456787e-02,-1.632012128829956055e-01,-9.803348779678344727e-02,-3.158699870109558105e-01
-1.001005545258522034e-01,-9.826990216970443726e-02,1.022035777568817139e-01,1.114333271980285645e-01,-1.926928609609603882e-01,-5.201312527060508728e-02,7.489003986120223999e-02,-1.493399888277053833e-01,-3.110022470355033875e-02,-2.281588762998580933e-01
-4.752843081951141357e-02,2.443227730691432953e-02,1.360011845827102661e-01,-2.892202697694301605e-02,4.383589699864387512e-02,5.236793309450149536e-02,1.518907099962234497e-01,-2.078307420015335083e-01,-9.726647287607192993e-02,-3.624197542667388916e-01
-1.439515352249145508e-01,3.462066873908042908e-02,8.853467553853988647e-02,-3.738007694482803345e-02,-4.809934645891189575e-02,-8.779494464397430420e-02,6.049310415983200073e-02,-7.951851189136505127e-02,-1.796671152114868164e-01,-2.757319211959838867e-01
2.059730514883995056e-02,-2.097696438431739807e-02,-1.562490761280059814e-01,-1.035159155726432800e-01,-1.471194624900817871e-01,-4.622317850589752197e-02,1.328328996896743774e-01,-1.707475185394287109e-01,-2.026837617158889771e-01,-3.638738691806793213e-01
-3.245505690574645996e-02,-8.748713135719299316e-02,-9.547416120767593384e-02,4.330436885356903076e-02,-1.649406738579273224e-02,-1.091237440705299377e-01,2.006469219923019409e-01,-1.861152797937393188e-01,-2.322345525026321411e-01,-2.151413261890411377e-01
-6.614209711551666260e-02,5.701080709695816040e-02,-8.122814819216728210e-03,-1.613161861896514893e-01,9.325376898050308228e-02,9.954343736171722412e-02,2.033115476369857788e-01,-6.708088517189025879e-02,-1.021246984601020813e-01,-1.063008829951286316e-01
-2.628029286861419678e-01,1.399301439523696899e-01,-1.843339800834655762e-01,-7.356964796781539917e-02,1.578939259052276611e-01,9.966871887445449829e-02,2.031060308218002319e-01,-1.683338582515716553e-01,9.600454941391944885e-03,-3.957178294658660889e-01
-6.077577173709869385e-02,1.361450701951980591e-01,-6.979794800281524658e-02,-1.530857533216476440e-01,-2.900470048189163208e-02,1.721382290124893188e-01,2.020294070243835449e-01,-6.826844811439514160e-02,-1.969136148691177368e-01,-1.991542428731918335e-01
-3.007663786411285400e-01,3.757143765687942505e-02,-3.355760574340820312e-01,-3.616487979888916016e-01,2.052952200174331665e-01,3.917015716433525085e-02,1.538441926240921021e-01,-1.815732419490814209e-01,-1.012620478868484497e-01,-5.014469102025032043e-02
-1.399368047714233398e-01,-1.931740045547485352e-01,-2.704874873161315918e-01,-1.575121730566024780e-01,7.832329720258712769e-02,1.406930536031723022e-01,1.946314238011837006e-03,1.627664454281330109e-02,-2.283273786306381226e-01,4.387460649013519287e-04
-1.227052211761474609e-01,-2.623836994171142578e-01,-1.248992010951042175e-01,-1.280451864004135132e-01,1.451284140348434448e-01,1.513688117265701294e-01,9.418583661317825317e-02,1.328536588698625565e-02,4.659882187843322754e-02,-5.768417380750179291e-03
7.018255535513162613e-03,-9.132062643766403198e-02,-1.202663481235504150e-01,-5.891939252614974976e-02,-6.183099746704101562e-02,6.846856325864791870e-02,-7.606999576091766357e-02,6.199030578136444092e-02,-1.122290343046188354e-01,-7.536403834819793701e-02
-7.054547965526580811e-02,1.319209337234497070e-01,-5.488375201821327209e-02,1.059933975338935852e-01,-2.223016917705535889e-01,-3.266884759068489075e-02,2.157532982528209686e-02,-2.891726791858673096e-02,5.055778194218873978e-03,-1.206944212317466736e-01
-2.192151360213756561e-02,1.260081380605697632e-01,5.964708328247070312e-02,3.055807319469749928e-04,-5.086255073547363281e-02,5.553895141929388046e-03,-3.717306628823280334e-02,5.040894076228141785e-02,-5.314790084958076477e-02,-5.896424874663352966e-02
5.578510835766792297e-02,3.066270612180233002e-02,7.466330379247665405e-02,1.117080003023147583e-01,-6.635543704032897949e-02,-1.574018895626068115e-01,-4.938011616468429565e-02,-1.467752754688262939e-01,-6.295755039900541306e-03,1.589898914098739624e-01
-2.674076240509748459e-04,-6.635533645749092102e-03,-4.096380993723869324e-02,4.218018054962158203e-02,-8.195444196462631226e-02,1.217560004442930222e-02,4.799513146281242371e-03,-1.479966491460800171e-01,-9.728480875492095947e-02,2.785929478704929352e-02
-2.065060287714004517e-01,4.553118720650672913e-02,-9.707911312580108643e-02,6.414411216974258423e-02,7.709616422653198242e-02,-1.404100358486175537e-01,-4.911663942039012909e-03,-1.353080421686172485e-01,-2.068205475807189941e-01,4.339403286576271057e-02
-2.001864016056060791e-01,3.403803333640098572e-02,-3.623263165354728699e-02,1.319603472948074341e-01,-2.035897783935070038e-02,-2.095765173435211182e-01,1.682077348232269287e-02,1.857206597924232483e-02,-2.416519522666931152e-01,-1.076148003339767456e-01
-8.722959458827972412e-02,-1.257263273000717163e-01,8.365944027900695801e-02,9.971635043621063232e-02,-9.640822559595108032e-02,-1.034874990582466125e-01,-3.734276816248893738e-02,1.519279181957244873e-01,-1.161445304751396179e-01,-1.935692578554153442e-01
-6.333906948566436768e-02,1.773516833782196045e-02,-2.004724740982055664e-02,1.031475290656089783e-01,1.426154561340808868e-02,-3.849366307258605957e-02,-1.477226018905639648e-01,1.001444458961486816e-01,-1.966246813535690308e-01,-1.644066423177719116e-01
-2.244309186935424805e-01,-1.463826447725296021e-01,-3.685420751571655273e-02,1.525127440690994263e-01,9.290886670351028442e-02,-1.710339337587356567e-01,1.273673027753829956e-01,-1.078036129474639893e-01,-1.312159597873687744e-01,-1.611576229333877563e-01
-1.571805924177169800e-01,-3.234819471836090088e-01,1.358057856559753418e-01,1.014052182435989380e-01,-2.948610484600067139e-02,-6.820017937570810318e-03,6.729406118392944336e-02,-9.486313164234161377e-02,-2.258502095937728882e-01,-3.132823407649993896e-01
-8.591436594724655151e-02,-2.500727772712707520e-01,2.083469629287719727e-01,6.956320255994796753e-02,-3.670864552259445190e-02,-1.114270687103271484e-01,8.026856184005737305e-02,-1.630952060222625732e-01,-1.455094963312149048e-01,-2.207435369491577148e-01
-9.918056428432464600e-02,-2.799021080136299133e-02,1.048872694373130798e-01,1.065085604786872864e-01,-6.410699337720870972e-02,7.624427229166030884e-02,5.511434376239776611e-02,-2.562838196754455566e-01,-1.020304188132286072e-01,-3.419336080551147461e-01
-9.860733896493911743e-02,1.207796335220336914e-01,1.351497322320938110e-01,1.169504150748252869e-01,-9.420234709978103638e-02,-1.081211343407630920e-01,-1.112521812319755554e-01,-2.281478792428970337e-01,-9.232093393802642822e-02,-2.280807122588157654e-02
-1.652067340910434723e-02,-3.170121833682060242e-02,2.030216455459594727e-01,9.795022755861282349e-02,-9.541650116443634033e-02,-2.732609026134014130e-02,-1.118048578500747681e-01,-2.956781983375549316e-01,-2.850323170423507690e-02,-4.134923219680786133e-02
-8.100716769695281982e-02,-8.623027242720127106e-03,8.178791403770446777e-02,9.637895971536636353e-02,-9.187639504671096802e-02,-1.754119992256164551e-02,-1.426233500242233276e-01,-1.600729376077651978e-01,-1.463027787394821644e-03,-1.011903211474418640e-01
1.560809165239334106e-01,1.100832503288984299e-02,1.332105100154876709e-01,2.390322089195251465e-02,-1.839584559202194214e-01,-3.882913291454315186e-02,-1.242379769682884216e-01,-2.236297875642776489e-01,6.365771591663360596e-02,-3.335768878459930420e-01
1.034711524844169617e-01,-1.269118040800094604e-01,2.019374817609786987e-01,-6.467742379754781723e-03,-4.387539252638816833e-02,9.908757172524929047e-03,7.159423083066940308e-02,-1.644488126039505005e-01,1.096404045820236206e-01,-2.285756617784500122e-01
4.734037816524505615e-02,9.476359188556671143e-02,1.336954534053802490e-01,-3.738959878683090210e-02,-1.217570751905441284e-01,-9.988959133625030518e-02,-1.148397028446197510e-01,-2.633907794952392578e-01,4.765050485730171204e-02,-2.041416466236114502e-01
-2.114710211753845215e-02,-1.527184844017028809e-01,1.019734814763069153e-01,-1.019909083843231201e-01,4.721121490001678467e-02,-1.079577654600143433e-01,3.629533946514129639e-02,-1.486313045024871826e-01,1.019045263528823853e-01,-4.016249477863311768e-01
4.126579314470291138e-02,7.761698216199874878e-02,1.484034210443496704e-01,4.001837223768234253e-02,1.333752870559692383e-01,-4.438253492116928101e-02,1.030040532350540161e-01,-2.790885567665100098e-01,1.359726488590240479e-01,-3.360181450843811035e-01
-8.418400585651397705e-02,-3.497671708464622498e-02,1.820628158748149872e-02,-3.949716687202453613e-02,1.090678870677947998e-01,9.679637849330902100e-02,5.594551935791969299e-02,-3.634552359580993652e-01,7.240076363086700439e-02,-1.463745534420013428e-01
-7.350977510213851929e-02,1.211127787828445435e-01,-1.630633324384689331e-01,-1.836853288114070892e-02,-8.263003081083297729e-02,9.216024726629257202e-02,1.841213554143905640e-01,-9.336920082569122314e-02,-1.430494338274002075e-01,-1.889203339815139771e-01
-9.960018843412399292e-02,1.125103607773780823e-01,7.085932791233062744e-02,-1.405256986618041992e-01,2.443446964025497437e-02,9.894348680973052979e-02,1.142501756548881531e-01,-1.239408478140830994e-01,-1.545300148427486420e-02,-2.283920049667358398e-01
-8.409054577350616455e-02,1.629277616739273071e-01,-1.787281036376953125e-01,-3.011619746685028076e-01,1.028427407145500183e-01,1.014165878295898438e-01,1.857282966375350952e-02,-2.221418321132659912e-01,-1.419605314731597900e-01,-2.328800708055496216e-01
-1.729034930467605591e-01,6.674728542566299438e-02,-5.213860794901847839e-02,-2.763817012310028076e-01,-1.125103048980236053e-02,2.058175802230834961e-01,-1.020884886384010315e-02,-2.612106502056121826e-01,-1.070354729890823364e-01,-3.647526204586029053e-01
-9.915740787982940674e-02,-4.838693421334028244e-03,-1.821398138999938965e-01,-2.004696875810623169e-01,2.013213932514190674e-01,1.704590022563934326e-01,-8.610200881958007812e-02,-1.403065621852874756e-01,-1.766068041324615479e-01,-2.754485607147216797e-01
-1.237492114305496216e-01,-2.920818626880645752e-01,-4.790555313229560852e-02,-1.329026073217391968e-01,6.425318121910095215e-02,3.943696618080139160e-02,5.131308734416961670e-02,2.690486982464790344e-02,-3.108746744692325592e-02,-6.892237812280654907e-02
-2.009921967983245850e-01,-7.375703752040863037e-02,-5.874454602599143982e-02,-1.958570927381515503e-01,6.730835884809494019e-02,2.015312165021896362e-01,-1.854767948389053345e-01,-8.466812968254089355e-02,3.387852013111114502e-02,2.893135882914066315e-02
8.251857012510299683e-02,-1.783465594053268433e-01,-1.704956144094467163e-01,-8.486691862344741821e-02,4.073412343859672546e-02,3.442938625812530518e-02,-9.808150678873062134e-02,-3.974522650241851807e-02,6.582795828580856323e-02,-9.675833582878112793e-02
8.827996999025344849e-02,-1.034562569111585617e-02,1.753568835556507111e-02,5.933277681469917297e-02,-1.803783886134624481e-02,1.200544834136962891e-01,-1.521479189395904541e-01,3.282737359404563904e-02,1.318192631006240845e-01,6.747739762067794800e-02
-1.078363284468650818e-01,-6.067205220460891724e-03,1.222646757960319519e-01,7.289468497037887573e-02,-6.728591769933700562e-02,-7.660984247922897339e-02,-1.173970848321914673e-01,9.915655106306076050e-02,-5.483768507838249207e-02,-1.556626409292221069e-01
1.006728969514369965e-03,-4.640080779790878296e-02,-1.324809622019529343e-02,8.930014073848724365e-02,-9.966900944709777832e-02,4.171747714281082153e-02,2.625941531732678413e-03,-1.215916424989700317e-01,-1.150154545903205872e-01,-7.547400891780853271e-02
4.520616028457880020e-03,-3.456711024045944214e-02,-7.583378814160823822e-03,1.411813050508499146e-01,-3.427215665578842163e-02,-2.281119972467422485e-01,-1.172086223959922791e-01,5.509637296199798584e-02,-2.318737804889678955e-01,8.607991039752960205e-03
-1.084284558892250061e-01,-6.006296724081039429e-02,6.276258081197738647e-02,2.014687210321426392e-01,5.868283566087484360e-03,-3.355720937252044678e-01,-5.027798935770988464e-03,-5.953966639935970306e-03,8.566618710756301880e-02,-3.597081601619720459e-01
-1.207588762044906616e-01,-1.802444458007812500e-01,9.257883578538894653e-02,2.010571658611297607e-01,1.252610683441162109e-01,-2.684433758258819580e-01,-4.815745353698730469e-02,-1.160154342651367188e-01,-1.775495857000350952e-01,-1.281250864267349243e-01
-1.495991796255111694e-01,-2.508165836334228516e-01,4.893005639314651489e-02,7.978195697069168091e-02,1.119456812739372253e-02,-1.228400766849517822e-01,-1.578927487134933472e-01,1.803902089595794678e-01,-1.415065140463411808e-03,-1.713880598545074463e-01
-1.856169290840625763e-02,-2.224263846874237061e-01,2.015965580940246582e-01,1.016990840435028076e-01,-9.920593351125717163e-03,-6.772813200950622559e-02,-3.518283367156982422e-02,7.176307588815689087e-02,5.421683937311172485e-02,-3.803822398185729980e-01
-6.191764399409294128e-02,-1.389089971780776978e-01,1.385552585124969482e-01,5.183981359004974365e-02,7.238240540027618408e-02,5.821084603667259216e-02,-4.847816377878189087e-02,4.022419452667236328e-03,-1.206634864211082458e-01,-3.493620157241821289e-01
-5.951148271560668945e-02,-2.568249106407165527e-01,1.701524667441844940e-02,-3.407138958573341370e-02,3.223227337002754211e-02,-2.029980272054672241e-01,-1.186874359846115112e-01,1.878362298011779785e-01,1.825080253183841705e-02,-2.588778734207153320e-01
-1.220401600003242493e-01,-3.613945245742797852e-01,1.862175613641738892e-01,3.093908168375492096e-02,-1.350883245468139648e-01,1.015272885560989380e-01,-1.225604042410850525e-01,1.052432283759117126e-01,9.086062759160995483e-02,-1.218254417181015015e-01
-2.889132127165794373e-02,1.360057853162288666e-02,1.605003029108047485e-01,1.477670073509216309e-01,-1.410617530345916748e-01,-3.507403284311294556e-02,-1.015004813671112061e-01,6.867320090532302856e-02,2.954355068504810333e-02,-1.070262715220451355e-01
8.131679147481918335e-02,-8.268051594495773315e-02,7.184498012065887451e-02,8.363733440637588501e-02,-1.543246791698038578e-03,8.264922350645065308e-02,8.406004309654235840e-02,-9.816407412290573120e-02,9.122754633426666260e-02,-5.659905262291431427e-03
1.244317181408405304e-02,2.673321217298507690e-02,3.501374647021293640e-02,2.049252390861511230e-02,-1.405606269836425781e-01,-1.146657913923263550e-01,-2.759816646575927734e-01,-1.161536276340484619e-01,1.445363461971282959e-02,1.335863396525382996e-02
3.483863919973373413e-02,-1.015416979789733887e-01,-2.325866185128688812e-02,1.872646063566207886e-01,-2.146043032407760620e-01,8.447761088609695435e-02,-1.117191910743713379e-01,-9.675216674804687500e-02,2.040170431137084961e-01,2.056623548269271851e-01
7.803267240524291992e-02,-1.021506711840629578e-01,-4.048969969153404236e-02,3.695021197199821472e-02,-2.662021517753601074e-01,-1.983396112918853760e-01,-2.235279791057109833e-02,-1.293058395385742188e-01,-6.879324465990066528e-02,1.008937656879425049e-01
-6.411672569811344147e-03,-1.278892904520034790e-01,9.919820725917816162e-02,-2.782037481665611267e-02,-1.177316382527351379e-01,2.469224296510219574e-02,1.198954414576292038e-02,-2.082784771919250488e-01,5.682220682501792908e-02,1.458442658185958862e-01
1.079251337796449661e-02,-5.071467533707618713e-02,7.968092709779739380e-02,-9.080607444047927856e-02,5.405113846063613892e-02,-9.426105767488479614e-02,-1.831437945365905762e-01,-8.299020677804946899e-02,4.275425523519515991e-02,2.527364529669284821e-02
1.088954806327819824e-01,-9.900793433189392090e-02,-2.067008055746555328e-02,-9.511898458003997803e-02,-1.054520159959793091e-01,9.875584393739700317e-02,9.860326349735260010e-02,-2.291917800903320312e-01,-5.345216020941734314e-02,7.286370545625686646e-02
1.019518729299306870e-02,2.037669718265533447e-01,7.855361700057983398e-02,-8.948261383920907974e-04,3.493081405758857727e-02,-1.550580374896526337e-03,7.751962542533874512e-02,-7.279081642627716064e-02,7.368141412734985352e-02,-1.299303621053695679e-01
1.006640791893005371e-01,1.013266742229461670e-01,-3.633874654769897461e-02,-8.196649700403213501e-02,1.206707283854484558e-01,4.625393077731132507e-02,-3.071624413132667542e-02,-1.452164947986602783e-01,-1.060532312840223312e-02,8.735898882150650024e-03
-9.189645200967788696e-02,1.420128047466278076e-01,1.911034248769283295e-02,-2.444515526294708252e-01,1.106551289558410645e-02,2.020870894193649292e-01,-9.728040546178817749e-02,-6.780285388231277466e-02,1.256233602762222290e-01,-1.900193393230438232e-01
-1.652942411601543427e-02,-4.808336496353149414e-02,-6.582561135292053223e-02,5.270522553473711014e-03,2.027759104967117310e-01,8.353923261165618896e-02,-4.604443907737731934e-02,-1.784725934267044067e-01,3.384996578097343445e-02,-3.213356137275695801e-01
-1.043431684374809265e-01,6.055522710084915161e-02,-2.994171082973480225e-01,-1.975319236516952515e-01,2.071649134159088135e-01,1.460010707378387451e-01,-3.186217695474624634e-02,-1.118077114224433899e-01,8.141897618770599365e-02,-3.964656293392181396e-01
-2.523078620433807373e-01,-9.984116256237030029e-02,-1.338285505771636963e-01,-3.307380080223083496e-01,4.566742479801177979e-02,2.098914235830307007e-01,-1.224367544054985046e-01,-2.096023261547088623e-01,-9.428142756223678589e-02,-3.723829388618469238e-01
-2.684372961521148682e-01,-2.011814713478088379e-01,2.617569174617528915e-03,-1.389430165290832520e-01,4.717990756034851074e-02,1.138314604759216309e-01,-1.465222984552383423e-01,-2.197173833847045898e-01,-1.512156054377555847e-02,-1.622626334428787231e-01
-8.963061124086380005e-02,7.614741474390029907e-02,-1.551897227764129639e-01,6.023442000150680542e-02,-1.234388947486877441e-01,2.069700360298156738e-01,-1.077962517738342285e-01,-1.554871648550033569e-01,-7.861832529306411743e-02,-1.192976310849189758e-01
-4.301544278860092163e-02,7.157963514328002930e-02,1.299619227647781372e-01,4.582437127828598022e-02,-1.171915456652641296e-01,1.166131570935249329e-01,-9.505732916295528412e-03,-3.936885669827461243e-02,-8.576471358537673950e-02,5.367615725845098495e-03
-5.084689334034919739e-02,1.222439575940370560e-02,5.708871036767959595e-02,9.041760116815567017e-02,8.007971197366714478e-02,8.268918842077255249e-02,1.225026845932006836e-01,-4.866551235318183899e-02,-7.286479324102401733e-02,-1.334145199507474899e-02
1.364471465349197388e-01,-3.673597797751426697e-02,-1.479723453521728516e-01,-1.537567004561424255e-02,1.191296577453613281e-01,-1.173496767878532410e-01,-1.266215741634368896e-01,1.231873929500579834e-01,-3.179027512669563293e-02,-5.130710452795028687e-02
-7.084662467241287231e-02,5.753358453512191772e-02,-9.514833986759185791e-02,-1.415784358978271484e-01,-4.804849624633789062e-02,7.403742522001266479e-02,1.321651488542556763e-01,1.816098242998123169e-01,-3.939400985836982727e-02,1.124523356556892395e-01
-9.413582831621170044e-02,-3.539355471730232239e-02,2.010071873664855957e-01,-1.085086092352867126e-01,-9.076090157032012939e-02,-3.238637745380401611e-01,-2.089560627937316895e-01,9.920536726713180542e-02,-2.414384186267852783e-01,-1.591844260692596436e-01
-2.436923086643218994e-01,5.344238877296447754e-02,-5.708466283977031708e-03,1.515410095453262329e-01,9.903718531131744385e-02,-3.627510070800781250e-01,-1.268868744373321533e-01,-1.313557755202054977e-02,-1.718077212572097778e-01,-2.556666731834411621e-01
-1.953415721654891968e-01,-2.588449604809284210e-02,-5.681023746728897095e-02,2.023520767688751221e-01,-4.508998617529869080e-02,-2.433573901653289795e-01,-2.004540860652923584e-01,2.023222446441650391e-01,3.450834006071090698e-02,-4.058198630809783936e-01
-1.992608457803726196e-01,-2.687802910804748535e-01,1.834874153137207031e-01,7.492564618587493896e-02,-1.527743041515350342e-01,-1.514594852924346924e-01,8.741659671068191528e-02,1.000108569860458374e-01,-1.212372258305549622e-01,-2.419390529394149780e-01
-2.731788456439971924e-01,-4.893921315670013428e-02,4.570566490292549133e-02,-8.560019731521606445e-02,-1.399953663349151611e-02,3.473729267716407776e-02,-1.578014492988586426e-01,1.938492208719253540e-01,-1.286662966012954712e-01,-2.089112102985382080e-01
-9.331642091274261475e-02,-2.976430356502532959e-01,-4.344375059008598328e-02,-8.639807254076004028e-02,-1.662046648561954498e-02,-3.848296124488115311e-03,-7.286497205495834351e-02,1.233735829591751099e-01,-7.919418811798095703e-02,-2.981218993663787842e-01
-1.723897308111190796e-01,-1.342614889144897461e-01,2.594558708369731903e-02,1.026039123535156250e-01,1.084691956639289856e-01,1.279170215129852295e-01,-1.452801842242479324e-02,7.672312855720520020e-02,1.037217155098915100e-01,-1.241707131266593933e-01
-1.017212793231010437e-01,-1.123161688446998596e-01,1.222263574600219727e-01,1.003555655479431152e-01,-1.019090414047241211e-01,-2.613099291920661926e-02,1.730191335082054138e-02,7.129175215959548950e-02,-7.490846514701843262e-02,4.757415875792503357e-02
5.820051301270723343e-03,-2.219645977020263672e-01,9.058106690645217896e-02,-1.502735912799835205e-02,2.424130402505397797e-02,7.725778967142105103e-02,-1.023120656609535217e-01,1.977021843194961548e-01,1.221243944019079208e-02,1.061500906944274902e-01
-1.882419176399707794e-02,-6.315522640943527222e-02,1.034453064203262329e-01,-8.350710570812225342e-02,-1.871288418769836426e-01,2.956178970634937286e-02,8.301083743572235107e-02,3.164141625165939331e-02,4.080193582922220230e-03,8.867620490491390228e-03
1.311498135328292847e-01,1.559937931597232819e-02,5.213503539562225342e-02,1.458666771650314331e-01,-2.220469564199447632e-01,4.128170385956764221e-02,2.296708896756172180e-02,1.016340106725692749e-01,-1.495044976472854614e-01,1.858273595571517944e-01
-1.007045656442642212e-01,-1.312068384140729904e-02,1.092118471860885620e-01,2.016701400279998779e-01,-2.602953016757965088e-01,-2.883324027061462402e-02,-1.790336519479751587e-01,-8.635488152503967285e-02,-9.160631150007247925e-02,2.088816314935684204e-01
3.341083414852619171e-03,-6.803590804338455200e-02,3.684103861451148987e-02,-9.735710918903350830e-02,-1.226770728826522827e-01,-1.078457832336425781e-01,-2.981687895953655243e-02,-1.122133433818817139e-01,5.993183702230453491e-03,2.016052752733230591e-01
1.375600099563598633e-01,4.039841145277023315e-02,3.648757562041282654e-02,1.260222941637039185e-01,-2.644378244876861572e-01,-1.067108288407325745e-01,-8.410470932722091675e-02,1.017354726791381836e-01,-9.997602552175521851e-02,2.037186175584793091e-01
1.187711879611015320e-01,-1.483846753835678101e-01,3.747962787747383118e-02,1.328320801258087158e-01,-1.392671763896942139e-01,-6.608527153730392456e-02,-1.697222888469696045e-01,-1.588941365480422974e-01,-6.824553757905960083e-02,1.389522701501846313e-01
2.027352154254913330e-01,-1.424148678779602051e-01,-1.105599030852317810e-01,6.619736552238464355e-02,-2.232723683118820190e-01,7.194473408162593842e-03,-2.788289487361907959e-01,6.627716869115829468e-02,4.393103066831827164e-03,9.402030706405639648e-02
-1.892159134149551392e-02,-7.698911428451538086e-02,6.063064932823181152e-02,8.067353069782257080e-02,-1.361143440008163452e-01,2.326421812176704407e-02,-3.663432300090789795e-01,-5.365709587931632996e-02,-1.628679037094116211e-01,-9.996035695075988770e-02
-2.458017505705356598e-02,-1.020585373044013977e-01,-4.830778390169143677e-02,-2.446220256388187408e-02,2.072833925485610962e-01,2.059147357940673828e-01,-1.870734393596649170e-01,-5.614765454083681107e-03,-5.616712570190429688e-02,-2.110736519098281860e-01
-9.944989532232284546e-02,1.755131036043167114e-02,-3.595809638500213623e-02,-4.611516743898391724e-02,-1.016447320580482483e-01,9.186347946524620056e-03,-1.488338261842727661e-01,-1.665218360722064972e-02,1.018414199352264404e-01,-1.040313988924026489e-01
1.028166189789772034e-01,2.401140704751014709e-02,-3.515180200338363647e-02,-2.131657451391220093e-01,1.994825899600982666e-01,2.002389580011367798e-01,-2.159166932106018066e-01,2.350254170596599579e-02,-9.716917574405670166e-02,-3.738544285297393799e-01
-9.196305274963378906e-02,4.674470424652099609e-02,-2.943199276924133301e-01,-2.056529521942138672e-01,8.119109272956848145e-02,2.022585719823837280e-01,-2.858125865459442139e-01,-5.844847485423088074e-02,8.885232359170913696e-02,-2.474293708801269531e-01
-1.386876106262207031e-01,-9.828659892082214355e-02,-3.226010799407958984e-01,-2.460231333971023560e-01,1.543860435485839844e-01,2.021890431642532349e-01,-1.935561001300811768e-01,-2.200200706720352173e-01,-6.126736104488372803e-02,-2.969865500926971436e-01
-4.036673903465270996e-01,-4.024291932582855225e-01,-5.905801430344581604e-02,-1.515147984027862549e-01,-9.713931381702423096e-02,2.063914388418197632e-01,-1.055253222584724426e-01,-3.414767980575561523e-01,5.454087257385253906e-02,-2.072225064039230347e-01
-2.039371281862258911e-01,-4.293753579258918762e-02,-1.478541195392608643e-01,-1.050211414694786072e-01,2.159316837787628174e-02,1.656150519847869873e-01,-2.530832588672637939e-01,-5.094934254884719849e-02,-1.122164055705070496e-01,-9.601606428623199463e-02
-4.708649963140487671e-02,-7.338014245033264160e-02,2.355465106666088104e-02,-4.578536748886108398e-02,-2.354974597692489624e-01,2.034855484962463379e-01,-1.355023682117462158e-01,-5.769306793808937073e-02,-8.294701576232910156e-02,-3.140861168503761292e-03
7.256507128477096558e-02,4.884369298815727234e-02,5.207844078540802002e-02,1.852933876216411591e-02,-8.295231312513351440e-02,1.028709951788187027e-02,-4.696791246533393860e-02,7.677475363016128540e-02,1.129406597465276718e-02,-1.328994631767272949e-01
-7.946286350488662720e-03,-3.706593438982963562e-02,-1.824739426374435425e-01,-2.791211195290088654e-02,-4.239141196012496948e-02,-2.806489542126655579e-02,6.446976214647293091e-02,-1.363127380609512329e-01,-9.828938543796539307e-02,-1.560696810483932495e-01
2.884204871952533722e-02,-1.271214634180068970e-01,-1.772303692996501923e-02,-2.091648727655410767e-01,-1.146970316767692566e-01,-1.512475162744522095e-01,8.222398906946182251e-02,9.385884553194046021e-02,-5.386639013886451721e-02,-8.997164666652679443e-02
-4.489014297723770142e-02,-3.587721288204193115e-02,-2.527907956391572952e-03,2.014696747064590454e-01,-1.213092952966690063e-01,-2.338851690292358398e-01,-2.577007114887237549e-01,9.381780028343200684e-02,5.640929192304611206e-02,-2.010011225938796997e-01
-1.649619191884994507e-01,-8.663670718669891357e-02,1.363744884729385376e-01,1.718326210975646973e-01,-4.880949109792709351e-02,-2.573483288288116455e-01,-1.210618242621421814e-01,2.079595476388931274e-01,5.633641406893730164e-02,-2.079818099737167358e-01
-7.831645011901855469e-02,-1.302072405815124512e-01,3.757282858714461327e-03,-4.755627363920211792e-02,2.286736853420734406e-02,-3.070959746837615967e-01,-8.457658439874649048e-02,1.694705337285995483e-01,-2.692691236734390259e-02,-3.128901720046997070e-01
3.641757369041442871e-02,-1.909401416778564453e-01,1.215273737907409668e-01,5.478159524500370026e-03,9.293282777070999146e-02,-2.091570645570755005e-01,-7.485284656286239624e-02,1.786529719829559326e-01,3.271058946847915649e-02,-2.888422906398773193e-01
-1.040425002574920654e-01,-2.904801070690155029e-01,1.150304600596427917e-01,6.215121969580650330e-02,-1.219639331102371216e-01,-1.190202906727790833e-01,-9.796122461557388306e-02,4.638025909662246704e-02,-1.568285515531897545e-03,-1.597477793693542480e-01
-4.487929865717887878e-02,-8.132340013980865479e-02,1.154260486364364624e-01,7.386969774961471558e-02,-1.097173243761062622e-01,-4.153577610850334167e-02,-1.001201942563056946e-01,1.012878268957138062e-01,5.815548077225685120e-02,-1.339930444955825806e-01
6.967390328645706177e-02,-1.634305566549301147e-01,1.135236471891403198e-01,-2.815864048898220062e-02,-1.167208254337310791e-01,6.953559815883636475e-02,-1.207669526338577271e-01,1.041206046938896179e-01,-1.285939244553446770e-03,-7.890793681144714355e-02
-3.151079639792442322e-02,-7.300291955471038818e-02,-2.050133794546127319e-02,4.554648324847221375e-02,-1.619696617126464844e-01,1.091594398021697998e-01,4.018893931061029434e-03,2.015590071678161621e-01,-3.568135574460029602e-02,-1.042741313576698303e-01
-1.448866724967956543e-01,-1.059567332267761230e-01,-3.526826947927474976e-02,-6.468331813812255859e-02,-1.203713417053222656e-01,1.166115179657936096e-01,-1.520275771617889404e-01,1.013960465788841248e-01,1.834277436137199402e-02,-3.836460644379258156e-03
-9.763950109481811523e-02,4.376830533146858215e-02,1.231473088264465332e-01,-1.008356437087059021e-01,-2.732298076152801514e-01,7.841612398624420166e-02,2.166809979826211929e-03,1.090442687273025513e-01,1.415651589632034302e-01,1.167098507285118103e-01
-9.244173020124435425e-02,-5.292443931102752686e-02,-9.827274084091186523e-02,-7.598564773797988892e-02,-1.018379181623458862e-01,9.625797718763351440e-02,-1.301735788583755493e-01,-9.993102401494979858e-02,-3.525675088167190552e-02,6.936468929052352905e-02
9.894967824220657349e-02,-2.287730574607849121e-02,-5.835876986384391785e-02,-8.368822187185287476e-02,-3.213225305080413818e-01,-1.435064077377319336e-01,-1.822075992822647095e-01,-3.648207709193229675e-02,-1.069626510143280029e-01,1.515148133039474487e-01
9.594350308179855347e-02,-3.045633248984813690e-02,-5.811536312103271484e-02,3.481989353895187378e-02,-2.833121120929718018e-01,-8.374346047639846802e-02,-2.541572041809558868e-02,1.115687936544418335e-01,-9.500648826360702515e-02,1.393226981163024902e-01
1.122959405183792114e-01,1.130736712366342545e-02,-8.576748659834265709e-04,8.247991651296615601e-02,-3.509226441383361816e-01,-1.327809691429138184e-01,-3.082132637500762939e-01,-1.008504182100296021e-01,2.421563863754272461e-02,1.626303493976593018e-01
9.915326535701751709e-02,-7.436704635620117188e-02,3.149244561791419983e-02,9.674389660358428955e-02,-4.224273562431335449e-02,7.166549563407897949e-02,-3.111230432987213135e-01,1.691816002130508423e-01,-2.134667485952377319e-01,-7.912882417440414429e-02
3.069634549319744110e-02,-3.947751224040985107e-02,-1.127455290406942368e-02,-1.350651727989315987e-03,-1.018229797482490540e-01,-5.190204828977584839e-02,-1.710491776466369629e-01,1.917412579059600830e-01,1.006423309445381165e-01,-5.576200038194656372e-02
1.018610894680023193e-01,-9.972751140594482422e-02,5.464227870106697083e-03,3.620587661862373352e-02,-1.146631315350532532e-02,6.001273542642593384e-02,-1.687690615653991699e-01,1.203743368387222290e-02,-5.693961307406425476e-02,-7.419665157794952393e-02
1.435808688402175903e-01,6.809111684560775757e-02,6.991571933031082153e-02,2.013297080993652344e-01,-5.201079696416854858e-02,9.039491415023803711e-02,-3.339551687240600586e-01,8.046486228704452515e-02,1.225268691778182983e-01,-1.078488305211067200e-01
7.004448026418685913e-02,1.381332799792289734e-02,-1.880075633525848389e-01,1.403394639492034912e-01,-6.613968312740325928e-02,1.070671528577804565e-01,-2.380786389112472534e-01,1.529544964432716370e-02,9.701016545295715332e-02,6.722893565893173218e-02
-7.307603955268859863e-02,5.702535435557365417e-02,-1.308280136436223984e-02,5.406880751252174377e-02,6.860595941543579102e-02,2.024704068899154663e-01,-1.737589389085769653e-01,-1.653719544410705566e-01,1.656005233526229858e-01,-9.340302646160125732e-02
-9.417107701301574707e-02,-1.920806467533111572e-01,-1.272504776716232300e-01,-2.776569724082946777e-01,-1.837833039462566376e-02,2.017004042863845825e-01,-2.407466620206832886e-01,-8.571399748325347900e-02,1.715142428874969482e-01,-3.028856515884399414e-01
-3.425118029117584229e-01,-1.368132829666137695e-01,-2.662596106529235840e-01,-4.026777148246765137e-01,1.029675006866455078e-01,2.053151130676269531e-01,-3.189517259597778320e-01,-1.004250347614288330e-01,-1.109262928366661072e-01,-3.223453760147094727e-01
-2.218593060970306396e-01,-2.100161314010620117e-01,-1.480069160461425781e-01,-3.695273995399475098e-01,-2.918395698070526123e-01,2.070854008197784424e-01,-3.466510176658630371e-01,-1.850959360599517822e-01,-6.273564696311950684e-02,-2.581151425838470459e-01
-2.066023349761962891e-01,-1.887353956699371338e-01,-8.129514753818511963e-02,-1.460876911878585815e-01,-1.838954240083694458e-01,2.042563259601593018e-01,-3.285634517669677734e-02,-1.201468408107757568e-01,-6.125986576080322266e-02,-2.887983620166778564e-01
-1.201611682772636414e-01,1.636755652725696564e-02,-1.379832923412322998e-01,-5.372304469347000122e-02,-4.555855318903923035e-02,1.666675321757793427e-02,-1.479202788323163986e-02,8.123496919870376587e-02,7.896258682012557983e-02,-1.073543801903724670e-01
6.444514542818069458e-02,-1.474571228027343750e-02,-4.635578766465187073e-02,-1.731306314468383789e-01,-1.244982928037643433e-01,-1.268005967140197754e-01,-3.180777654051780701e-02,7.668669521808624268e-02,-6.504493206739425659e-02,-1.010939627885818481e-01
-2.720038592815399170e-02,-6.549416482448577881e-02,2.694149501621723175e-02,-3.149176482111215591e-03,-9.431219846010208130e-02,2.057260274887084961e-02,7.792786508798599243e-02,2.034038901329040527e-01,5.083075910806655884e-02,-1.216700673103332520e-01
-1.151903346180915833e-01,-1.104592680931091309e-01,-9.594503045082092285e-02,-9.023784846067428589e-02,-1.102589145302772522e-01,-2.052829973399639130e-02,-1.615287177264690399e-02,1.441920101642608643e-01,-2.762777805328369141e-01,-2.453442811965942383e-01
-1.449679434299468994e-01,-5.250405520200729370e-02,-6.350889056921005249e-02,1.109338328242301941e-01,-6.224052608013153076e-02,-1.047572344541549683e-01,-2.428203970193862915e-01,1.976496130228042603e-01,-8.899899199604988098e-03,-1.800133734941482544e-01
-2.162676304578781128e-01,9.247090667486190796e-02,4.023138433694839478e-02,1.735288500785827637e-01,-9.061784297227859497e-02,-1.360034644603729248e-01,-2.132222987711429596e-02,3.874694928526878357e-02,-2.035776376724243164e-01,-2.841867804527282715e-01
6.843256205320358276e-02,-2.020928859710693359e-01,7.034213840961456299e-02,1.284306123852729797e-02,-2.301994897425174713e-02,-2.894704416394233704e-02,-1.801540851593017578e-01,8.815064281225204468e-02,-5.199608206748962402e-02,-1.070179045200347900e-01
-1.533626765012741089e-01,-8.019395917654037476e-02,1.058335304260253906e-01,2.015644013881683350e-01,-1.407249597832560539e-03,2.853049151599407196e-02,-1.211503818631172180e-01,1.068785563111305237e-01,1.510495841503143311e-01,-2.607750892639160156e-01
-3.904804214835166931e-02,-6.322367489337921143e-02,-1.213238388299942017e-01,-9.407972544431686401e-02,-6.242233142256736755e-02,1.234190613031387329e-01,9.477365761995315552e-03,3.647249191999435425e-02,1.425747871398925781e-01,-5.044952407479286194e-02
5.715607106685638428e-02,-2.036784589290618896e-02,8.622670918703079224e-02,-1.742460876703262329e-01,-1.864482611417770386e-01,8.476595580577850342e-02,1.132883056998252869e-01,1.782132834196090698e-01,-2.528958395123481750e-02,-1.238210648298263550e-01
1.544275600463151932e-02,-2.370071262121200562e-01,-1.232300326228141785e-01,-1.750751435756683350e-01,-5.365521460771560669e-02,-9.145245701074600220e-02,-8.866905234754085541e-03,5.362611636519432068e-02,2.010043561458587646e-01,-1.443193554878234863e-01
1.403165161609649658e-01,-8.052452653646469116e-02,1.253237426280975342e-01,-2.622462213039398193e-01,3.762856498360633850e-02,1.015278175473213196e-01,-3.033627942204475403e-02,7.186003774404525757e-02,1.014695540070533752e-01,9.482546150684356689e-02
-4.591330513358116150e-02,-4.299670085310935974e-02,-1.044496074318885803e-01,-2.628125250339508057e-01,-1.858278810977935791e-01,1.146745905280113220e-01,-1.340784877538681030e-01,-3.710826858878135681e-02,-5.203542858362197876e-02,-1.015708222985267639e-01
-1.073574945330619812e-01,-1.771322637796401978e-01,-9.391282498836517334e-02,-8.943558484315872192e-02,-1.284135878086090088e-01,9.464713186025619507e-02,-9.610231965780258179e-02,2.047167271375656128e-01,-5.866076797246932983e-02,1.570069417357444763e-02
5.073130130767822266e-02,-7.168237119913101196e-02,1.633014762774109840e-03,-1.965807229280471802e-01,-1.190388426184654236e-01,4.137408360838890076e-02,-1.135914847254753113e-01,9.574386477470397949e-02,-5.625210236757993698e-03,-4.006459936499595642e-02
1.716904714703559875e-02,2.027951553463935852e-02,3.357450291514396667e-02,7.397330552339553833e-02,-1.347919404506683350e-01,-7.990360260009765625e-03,-1.070318184792995453e-02,2.021882981061935425e-01,-3.323023319244384766e-01,-3.170225769281387329e-02
2.505185827612876892e-02,2.072438150644302368e-01,2.049328573048114777e-02,1.720658242702484131e-01,-2.126117199659347534e-01,-2.232240587472915649e-01,-2.298777997493743896e-01,2.024708539247512817e-01,-2.210934311151504517e-01,-5.964498594403266907e-02
1.054278314113616943e-01,6.672095507383346558e-02,-7.428749650716781616e-02,1.004156246781349182e-01,4.614613205194473267e-02,-5.750732123851776123e-02,-3.619808554649353027e-01,1.105225607752799988e-01,-1.412037163972854614e-01,-1.127448081970214844e-01
2.023613750934600830e-01,-3.145881742238998413e-02,-2.122970670461654663e-02,8.396358042955398560e-02,-5.452331528067588806e-02,-1.397566795349121094e-01,-2.354210168123245239e-01,1.738924384117126465e-01,-2.773496508598327637e-01,3.418049216270446777e-02
1.438669115304946899e-01,4.439566284418106079e-02,7.917033135890960693e-02,1.550131142139434814e-01,-1.352669391781091690e-02,-9.998057037591934204e-02,-1.684200763702392578e-01,9.951530396938323975e-02,4.273466393351554871e-02,-1.445373445749282837e-01
1.330917794257402420e-02,-1.630723476409912109e-01,6.193890795111656189e-02,5.683338642120361328e-02,7.435371726751327515e-02,-1.341866850852966309e-01,-2.891170978546142578e-01,-1.943870447576045990e-02,1.413196921348571777e-01,4.087646305561065674e-02
6.141197308897972107e-02,-1.221066191792488098e-01,-1.947175264358520508e-01,1.457916945219039917e-01,-6.389775872230529785e-02,1.179618015885353088e-02,-2.224859446287155151e-01,2.252198942005634308e-02,-2.867847494781017303e-02,-1.067240014672279358e-01
9.672103822231292725e-02,-1.505933254957199097e-01,4.677709564566612244e-02,9.716342389583587646e-02,5.012504756450653076e-03,1.430778503417968750e-01,-2.899788618087768555e-01,1.556517183780670166e-01,1.281108707189559937e-01,-1.585205197334289551e-01
9.625699371099472046e-02,-1.006722748279571533e-01,2.087999694049358368e-02,1.315525546669960022e-02,1.062787324190139771e-01,2.026145011186599731e-01,-1.755354106426239014e-01,3.306842967867851257e-02,1.195134595036506653e-01,-6.342815607786178589e-02
2.014092355966567993e-01,-3.136313855648040771e-01,-9.707740694284439087e-02,-1.062478795647621155e-01,-1.747501268982887268e-02,2.067760080099105835e-01,-1.158602163195610046e-01,-1.000965163111686707e-01,1.898893415927886963e-01,-3.914078474044799805e-01
-1.607379466295242310e-01,-3.175957202911376953e-01,-4.026685655117034912e-01,-4.010644853115081787e-01,-2.614073753356933594e-01,2.036016136407852173e-01,-2.542266547679901123e-01,-1.374334841966629028e-01,-1.143124327063560486e-02,-1.522698402404785156e-01
-2.359916120767593384e-01,-3.286786973476409912e-01,-2.484899759292602539e-01,-3.274435400962829590e-01,-2.225566506385803223e-01,2.064138352870941162e-01,-2.137821465730667114e-01,-3.181569874286651611e-01,-1.334167718887329102e-01,-2.808003723621368408e-01
-1.946147978305816650e-01,-1.356512773782014847e-03,-3.398204687982797623e-03,-1.190658062696456909e-01,-1.033535897731781006e-01,1.417531073093414307e-01,-2.271726429462432861e-01,-9.125004708766937256e-02,2.755254879593849182e-02,-1.262125521898269653e-01
4.934209212660789490e-02,-1.275452375411987305e-01,6.692692637443542480e-02,-2.671360783278942108e-02,-8.892985433340072632e-02,-2.379626501351594925e-03,-9.570505470037460327e-02,-1.141993328928947449e-02,4.821573849767446518e-03,-5.159560963511466980e-02
-6.379115581512451172e-02,-9.629913419485092163e-02,-6.993476301431655884e-03,-1.018195673823356628e-01,1.010727584362030029e-01,6.608687341213226318e-02,8.790932595729827881e-02,7.070223242044448853e-02,3.160789608955383301e-02,-5.344863235950469971e-02
-2.783157676458358765e-02,3.759733214974403381e-02,-1.133457720279693604e-01,-1.577172279357910156e-01,-6.343633681535720825e-02,-5.347437039017677307e-02,-9.861373156309127808e-02,-7.981757074594497681e-02,-1.728415787220001221e-01,-1.551393568515777588e-01
-1.557023376226425171e-01,-1.433287858963012695e-01,-7.512723654508590698e-02,-1.073711514472961426e-01,-1.296384930610656738e-01,-1.420204639434814453e-01,-2.335181981325149536e-01,7.590346783399581909e-02,-3.667925298213958740e-01,-2.827904224395751953e-01
-5.825492367148399353e-02,-1.116454005241394043e-01,-1.720767654478549957e-02,3.474549576640129089e-02,-2.610637247562408447e-01,-1.600796133279800415e-01,-2.528656423091888428e-01,-4.433616250753402710e-02,2.422616817057132721e-02,-2.479048632085323334e-02
-2.087907046079635620e-01,-1.287914365530014038e-01,-1.381843537092208862e-01,1.305906921625137329e-01,-1.375492513179779053e-01,-1.218344941735267639e-01,-1.346858888864517212e-01,2.021527737379074097e-01,3.605313971638679504e-02,-1.553879231214523315e-01
-6.736792623996734619e-02,-2.886525988578796387e-01,6.364589184522628784e-02,-1.527287811040878296e-01,2.134469896554946899e-02,-2.480997145175933838e-02,-7.794233411550521851e-02,8.421281725168228149e-02,-4.268857091665267944e-02,-5.147542059421539307e-02
-1.180279254913330078e-01,-1.727167367935180664e-01,5.798331275582313538e-02,3.641962260007858276e-02,-1.470014154911041260e-01,1.081578955054283142e-01,3.800902515649795532e-02,-5.545009672641754150e-02,1.984294801950454712e-01,-6.655569374561309814e-02
3.099034912884235382e-02,-5.038536339998245239e-02,7.357532158493995667e-04,-1.513279378414154053e-01,8.948057144880294800e-02,-7.175027579069137573e-02,1.418338064104318619e-02,9.779507666826248169e-02,2.048174291849136353e-01,5.835668742656707764e-02
-1.819160394370555878e-02,-7.282897830009460449e-02,-1.064081266522407532e-01,-5.713385716080665588e-02,-5.279929190874099731e-02,2.008408755064010620e-01,-3.498393669724464417e-02,-9.383349120616912842e-02,1.801796853542327881e-01,1.658308207988739014e-01
-1.980453580617904663e-01,-2.028796523809432983e-01,-1.782690733671188354e-01,-4.010804295539855957e-01,1.748627983033657074e-02,1.589273959398269653e-01,-1.160023063421249390e-01,9.985914081335067749e-02,1.727666407823562622e-01,3.965287283062934875e-02
1.876434683799743652e-02,-2.498816698789596558e-01,-1.380261927843093872e-01,-3.262624740600585938e-01,-8.304237574338912964e-02,1.466966718435287476e-01,-1.082352828234434128e-02,1.073673646897077560e-02,-1.364573184400796890e-02,5.559856072068214417e-02
5.190687999129295349e-02,-1.399146765470504761e-01,-2.750683128833770752e-01,-2.853331267833709717e-01,1.445688605308532715e-01,2.025113701820373535e-01,7.224078476428985596e-02,1.572825131006538868e-03,1.110242456197738647e-01,1.011016145348548889e-01
1.184833720326423645e-01,-3.440703079104423523e-02,-1.195626780390739441e-01,-1.379899978637695312e-01,6.139007210731506348e-02,1.238119676709175110e-01,-6.908406317234039307e-02,5.123737081885337830e-02,1.547608375549316406e-01,6.859321892261505127e-02
1.135771125555038452e-01,1.749577224254608154e-01,-5.385713651776313782e-02,9.776113927364349365e-02,-1.052220836281776428e-01,1.157631725072860718e-01,1.943908818066120148e-02,1.038433015346527100e-01,-7.938068360090255737e-02,-9.744018316268920898e-02
3.332114964723587036e-02,1.473020166158676147e-01,-1.783712059259414673e-01,-2.552019432187080383e-02,-2.807263135910034180e-01,7.393875718116760254e-02,6.959843449294567108e-03,2.025848627090454102e-01,-1.430378854274749756e-01,9.019520133733749390e-03
3.315142914652824402e-02,1.756448596715927124e-01,-1.218431368470191956e-01,3.406212478876113892e-02,-9.322886914014816284e-02,-1.389999091625213623e-01,-1.505843698978424072e-01,1.225223913788795471e-01,-2.576188147068023682e-01,-2.290570139884948730e-01
-8.603046834468841553e-02,1.710567623376846313e-01,4.481149092316627502e-02,1.337476074695587158e-01,6.603658199310302734e-02,-2.243110239505767822e-01,-1.883824616670608521e-01,2.052449285984039307e-01,-8.165521919727325439e-02,-8.651848882436752319e-03
-9.323257207870483398e-02,-2.066089771687984467e-02,9.706825762987136841e-02,7.818148285150527954e-02,-1.262104231864213943e-02,-1.405549496412277222e-01,-2.585350275039672852e-01,2.881216071546077728e-02,-2.783705294132232666e-01,-1.027887389063835144e-01
2.752449735999107361e-02,-3.486408293247222900e-02,1.253304816782474518e-02,-9.331405162811279297e-02,-1.004534065723419189e-01,-1.478719264268875122e-01,-3.882763981819152832e-01,2.011817246675491333e-01,-9.552410244941711426e-02,-1.081671491265296936e-01
2.028833776712417603e-01,-1.290695518255233765e-01,9.998442232608795166e-02,8.673939108848571777e-02,-6.350775808095932007e-02,-2.561071515083312988e-01,-2.061685323715209961e-01,7.483540475368499756e-02,-8.540426194667816162e-02,-2.079808525741100311e-02
1.232637166976928711e-01,-5.157496407628059387e-02,-5.716202035546302795e-02,1.491384357213973999e-01,-1.000690907239913940e-01,-1.212229505181312561e-01,-1.925790607929229736e-01,7.703521847724914551e-02,-3.582292702049016953e-03,-7.329285889863967896e-02
1.677714288234710693e-01,-2.129902690649032593e-01,-4.868783056735992432e-02,4.866325482726097107e-02,-3.605723008513450623e-02,-3.489409983158111572e-01,5.885893106460571289e-02,1.438645273447036743e-01,8.789452165365219116e-02,3.218563273549079895e-02
-6.264549493789672852e-02,-1.448774933815002441e-01,-9.937687963247299194e-02,-3.626724332571029663e-02,-1.023091673851013184e-01,-1.082813963294029236e-01,-4.349765926599502563e-02,-6.177626922726631165e-02,9.874414652585983276e-02,-9.985539317131042480e-02
1.089805886149406433e-01,-3.125748336315155029e-01,-1.831468790769577026e-01,-2.355341911315917969e-01,-1.020300611853599548e-01,4.435045644640922546e-02,-1.499938964843750000e-01,-3.032543659210205078e-01,1.481922715902328491e-01,-1.266804337501525879e-01
-1.329117417335510254e-01,-2.019325047731399536e-01,-5.011154711246490479e-02,-1.895364820957183838e-01,-5.183766037225723267e-02,1.726419925689697266e-01,-1.765476167201995850e-01,-4.505339637398719788e-02,1.091528013348579407e-01,-3.331609964370727539e-01
-2.805342972278594971e-01,-9.436221420764923096e-02,-1.809964776039123535e-01,7.827595807611942291e-03,-2.634525001049041748e-01,2.045018523931503296e-01,-1.133607327938079834e-01,-2.728905081748962402e-01,-8.424834161996841431e-02,-2.202071249485015869e-01
-1.603159159421920776e-01,-8.716548793017864227e-03,-9.711004793643951416e-02,-2.388120591640472412e-01,-1.619627326726913452e-01,2.062134146690368652e-01,-1.956969499588012695e-01,-2.000687420368194580e-01,2.043755799531936646e-01,-3.462072610855102539e-01
-1.310718804597854614e-01,-5.038637667894363403e-02,9.687609225511550903e-02,-3.245881199836730957e-02,1.300405263900756836e-01,-5.874354392290115356e-02,-1.674934625625610352e-01,-1.065999735146760941e-02,8.389111608266830444e-02,4.345047101378440857e-02
1.496505439281463623e-01,7.659358531236648560e-02,-1.773785203695297241e-01,-1.722949929535388947e-02,-1.071809232234954834e-01,2.174758911132812500e-02,-1.504631787538528442e-01,-1.858165115118026733e-02,-5.842008069157600403e-02,-9.249202162027359009e-02
-2.544687502086162567e-02,7.329766452312469482e-02,5.002267286181449890e-02,-1.083426177501678467e-01,-1.041694581508636475e-01,-2.339866161346435547e-01,-1.586446724832057953e-02,9.541307389736175537e-02,-1.909653246402740479e-01,-2.006191164255142212e-01
-2.843737974762916565e-02,1.102654561400413513e-01,-8.870697021484375000e-02,-8.754380047321319580e-02,-8.159456402063369751e-02,-1.196265146136283875e-01,-8.471640199422836304e-02,2.011842578649520874e-01,-1.662249416112899780e-01,-2.045999169349670410e-01
-1.051482558250427246e-01,-8.147990703582763672e-02,-1.139372140169143677e-01,-2.251868508756160736e-02,-9.044240415096282959e-02,-3.664423823356628418e-01,5.248830653727054596e-03,1.675105392932891846e-01,-3.186908066272735596e-01,-1.149853840470314026e-01
-1.244953367859125137e-02,4.029818996787071228e-02,-4.265411943197250366e-02,-5.238219350576400757e-02,-1.703672260046005249e-01,-1.286215484142303467e-01,-1.430924981832504272e-01,3.275524824857711792e-02,-1.236864700913429260e-01,-9.535241127014160156e-02
4.973996803164482117e-02,-1.841314733028411865e-01,-5.301435291767120361e-02,8.423358947038650513e-02,-1.161190718412399292e-01,-2.443126589059829712e-02,-3.056513704359531403e-02,2.034028917551040649e-01,1.063755303621292114e-01,-9.390083700418472290e-02
9.507006406784057617e-02,6.835424900054931641e-02,-1.643870174884796143e-01,-1.362303942441940308e-01,-2.319207601249217987e-02,7.369177788496017456e-02,1.259195655584335327e-01,8.490951359272003174e-02,5.704400315880775452e-02,4.550154879689216614e-02
9.668412059545516968e-02,-2.090208083391189575e-01,-4.028088748455047607e-01,-1.942515969276428223e-01,-6.826138496398925781e-02,1.176757961511611938e-01,-2.656085044145584106e-02,-1.498903520405292511e-02,1.601563841104507446e-01,6.343752890825271606e-02
5.784222111105918884e-02,-7.405070215463638306e-02,-4.029915630817413330e-01,-2.079218626022338867e-01,-1.500551309436559677e-02,3.711378201842308044e-02,9.120887517929077148e-02,-5.654936283826828003e-02,8.197370916604995728e-02,1.008081957697868347e-01
-9.319684468209743500e-04,-7.604171335697174072e-02,-1.199730560183525085e-01,-1.904513239860534668e-01,2.035708427429199219e-01,9.048224240541458130e-02,1.061852946877479553e-01,-1.201220527291297913e-01,8.795200288295745850e-02,1.014450192451477051e-01
-2.067428268492221832e-02,-3.392691165208816528e-02,-2.751498222351074219e-01,-2.743034362792968750e-01,2.200606279075145721e-02,1.169532909989356995e-01,7.969862967729568481e-02,1.635043025016784668e-01,1.632323265075683594e-01,6.361005455255508423e-02
-1.397800352424383163e-02,-2.909437716007232666e-01,-2.132713794708251953e-01,-1.504951417446136475e-01,2.026113271713256836e-01,1.103428825736045837e-01,9.866131842136383057e-02,-2.974016219377517700e-02,7.533621042966842651e-02,1.272483319044113159e-01
-1.349235624074935913e-01,-2.101733386516571045e-01,-3.038269281387329102e-01,-9.930232912302017212e-02,2.044077366590499878e-01,2.033464908599853516e-01,1.516948789358139038e-01,-2.221911214292049408e-02,1.096588820219039917e-01,-6.824658811092376709e-02
-1.285396665334701538e-01,1.116601601243019104e-01,-3.261011242866516113e-01,1.952571123838424683e-01,-1.065008491277694702e-01,1.964290291070938110e-01,6.689236499369144440e-03,-2.818269422277808189e-03,1.395624279975891113e-01,-2.295594066381454468e-01
-1.326322108507156372e-01,2.072198688983917236e-01,-2.457183301448822021e-01,-1.696517318487167358e-02,-3.442884683609008789e-01,9.703467786312103271e-02,-1.086389124393463135e-01,-8.065105974674224854e-02,-3.151568397879600525e-02,3.085955232381820679e-02
-1.172085702419281006e-01,2.027110606431961060e-01,-1.938442587852478027e-01,2.015432864427566528e-01,-9.442612528800964355e-02,-7.585521787405014038e-02,-2.898102104663848877e-01,1.364120095968246460e-01,-1.252336204051971436e-01,-1.244938150048255920e-01
-1.250797361135482788e-01,1.323386281728744507e-01,-8.327597379684448242e-02,5.885718390345573425e-02,2.022155672311782837e-01,-1.936810165643692017e-01,-2.462893426418304443e-01,6.480696797370910645e-02,-1.078361049294471741e-01,3.345099836587905884e-02
-5.357149615883827209e-02,-1.440317183732986450e-01,-3.523019701242446899e-02,2.080952674150466919e-01,1.962448358535766602e-01,-2.269506305456161499e-01,-2.889050841331481934e-01,1.559986621141433716e-01,9.948158264160156250e-02,1.184589266777038574e-01
1.061323750764131546e-02,-1.180740222334861755e-01,-6.794840842485427856e-02,1.200421005487442017e-01,1.282856464385986328e-01,-2.028343975543975830e-01,-1.027932837605476379e-01,8.910138905048370361e-02,9.036578238010406494e-02,-4.963435605168342590e-02
9.100942313671112061e-02,-1.476203054189682007e-01,3.075230866670608521e-02,-5.088232830166816711e-02,-1.230109184980392456e-01,-4.034427404403686523e-01,-5.302266404032707214e-02,1.026582345366477966e-01,6.809937208890914917e-02,1.082629635930061340e-01
-2.820256724953651428e-02,-1.249964982271194458e-01,-9.028112888336181641e-02,-1.443996131420135498e-01,2.763554640114307404e-02,-2.831225395202636719e-01,-9.417797625064849854e-02,9.828113764524459839e-02,1.364616900682449341e-01,1.279477775096893311e-01
6.431274116039276123e-02,-1.414614170789718628e-01,8.234662003815174103e-03,-2.470572143793106079e-01,-7.542221248149871826e-02,-3.148137032985687256e-01,5.993949994444847107e-02,-9.945975244045257568e-02,1.172030046582221985e-01,9.525224566459655762e-02
1.502493768930435181e-01,-1.166359856724739075e-01,2.848251909017562866e-02,-2.102549672126770020e-01,-1.544870287179946899e-01,-4.043036103248596191e-01,1.957067986950278282e-03,1.280401349067687988e-01,1.970975995063781738e-01,3.476785123348236084e-02
-5.908949766308069229e-03,1.178414560854434967e-02,-2.049292176961898804e-01,-3.099826276302337646e-01,-5.151949077844619751e-02,-2.926892638206481934e-01,1.986995488405227661e-01,-1.404262632131576538e-01,2.023548632860183716e-01,-9.577925503253936768e-02
1.110402643680572510e-01,-2.804930806159973145e-01,-9.677579253911972046e-02,-6.353498250246047974e-02,-3.036478459835052490e-01,-9.437902271747589111e-02,-1.029663905501365662e-01,-2.803442478179931641e-01,1.174628660082817078e-01,-2.400599122047424316e-01
-1.642840206623077393e-01,-1.360730528831481934e-01,1.291603296995162964e-01,-1.925957351922988892e-01,-1.782822981476783752e-02,2.000128477811813354e-01,-8.576616644859313965e-03,-1.842452883720397949e-01,1.082811579108238220e-01,-2.517082691192626953e-01
-1.107568964362144470e-01,-6.924988329410552979e-02,-9.932185709476470947e-02,-9.744064509868621826e-02,-2.452051639556884766e-02,2.014314383268356323e-01,5.210259463638067245e-03,-1.456502974033355713e-01,7.679415494203567505e-02,-2.413303554058074951e-01
1.196754723787307739e-01,2.293606847524642944e-02,-3.646156564354896545e-02,3.620966896414756775e-02,-5.110934376716613770e-02,1.144142150878906250e-01,1.012792065739631653e-01,-1.201542764902114868e-01,-9.281274676322937012e-02,-9.092811495065689087e-03
-1.859066933393478394e-01,1.082207933068275452e-01,-5.508300289511680603e-02,-1.336854249238967896e-01,-6.416315585374832153e-02,7.333046197891235352e-02,-1.056583598256111145e-01,-7.487234473228454590e-02,4.281675070524215698e-02,-6.433362513780593872e-02
2.283068560063838959e-02,1.418223697692155838e-02,1.264540106058120728e-01,-8.393819630146026611e-02,-2.424326539039611816e-01,-8.772747963666915894e-02,8.644635975360870361e-02,1.663630753755569458e-01,-3.777508437633514404e-02,-1.681802421808242798e-01
2.204804681241512299e-02,-1.376077234745025635e-01,-7.677745074033737183e-02,-2.754302918910980225e-01,-1.544243693351745605e-01,-8.489436656236648560e-02,-2.676617540419101715e-02,5.902662500739097595e-02,-7.564080506563186646e-02,-5.352147854864597321e-04
-1.542672961950302124e-01,-1.423451155424118042e-01,-1.253693550825119019e-01,3.996488079428672791e-02,-1.249972637742757797e-02,-1.518007218837738037e-01,-2.107785269618034363e-02,2.008714228868484497e-01,3.993161022663116455e-02,-8.193571865558624268e-02
-1.466880887746810913e-01,-1.667713522911071777e-01,-1.146684587001800537e-01,-1.484438180923461914e-01,-1.711636930704116821e-01,7.695151027292013168e-03,-4.649609327316284180e-03,1.627179980278015137e-01,-6.328887492418289185e-02,1.206039264798164368e-01
-3.073111176490783691e-02,-7.129877060651779175e-02,-1.876204609870910645e-01,-1.585029661655426025e-01,-3.306039422750473022e-02,1.553038060665130615e-01,7.768567651510238647e-03,1.317290812730789185e-01,4.984665662050247192e-02,2.013001441955566406e-01
9.538444876670837402e-02,-1.348643451929092407e-01,-4.045185148715972900e-01,-1.795873194932937622e-01,8.652079850435256958e-02,7.379536330699920654e-02,-3.279074653983116150e-02,-2.990646660327911377e-02,9.192167967557907104e-02,1.280288547277450562e-01
-1.161980479955673218e-01,-1.937070339918136597e-01,-3.857194781303405762e-01,-3.059919178485870361e-01,-1.001677140593528748e-01,3.288655728101730347e-02,1.037827581167221069e-01,1.278111897408962250e-02,1.048445776104927063e-01,2.031794935464859009e-01
9.402371197938919067e-02,-2.525905370712280273e-01,-1.678571552038192749e-01,-2.994647920131683350e-01,1.015412732958793640e-01,1.190099492669105530e-01,-5.420329049229621887e-02,-4.571356996893882751e-02,1.973013393580913544e-02,1.881202310323715210e-02
6.897247582674026489e-02,-1.592469960451126099e-01,-1.180055215954780579e-01,-1.810758113861083984e-01,9.914226084947586060e-02,2.067011296749114990e-01,-4.775963257998228073e-03,-3.309915214776992798e-02,1.029814779758453369e-01,2.035589814186096191e-01
-9.876960515975952148e-02,-8.623185008764266968e-02,-2.612954378128051758e-01,-1.530560851097106934e-01,9.139327704906463623e-02,7.734956592321395874e-02,-5.367865413427352905e-02,-1.536420285701751709e-01,-1.271597743034362793e-01,8.899383246898651123e-02
1.140202879905700684e-01,-1.923721581697463989e-01,-2.309586703777313232e-01,1.775958016514778137e-02,2.050959020853042603e-01,1.937032192945480347e-01,-2.188643813133239746e-02,-1.370495408773422241e-01,-7.525017112493515015e-02,2.621754817664623260e-02
-8.564650267362594604e-02,-1.705360114574432373e-01,-4.023186564445495605e-01,1.015425622463226318e-01,8.773368597030639648e-02,2.022254168987274170e-01,2.964944392442703247e-02,-5.019633471965789795e-02,1.036865264177322388e-01,-1.028539091348648071e-01
-4.089701548218727112e-02,1.213866248726844788e-01,-2.964626252651214600e-01,1.085307896137237549e-01,-4.238286055624485016e-03,2.043801546096801758e-01,-1.013104571029543877e-03,-3.954651951789855957e-01,2.046192586421966553e-01,5.042308941483497620e-02
-1.377639472484588623e-01,2.026235759258270264e-01,-3.542807400226593018e-01,-3.979797661304473877e-02,-5.280606076121330261e-02,-1.083264574408531189e-01,-9.525328874588012695e-02,-3.334167301654815674e-01,-9.891547262668609619e-02,-4.713074862957000732e-02
-1.769425719976425171e-01,2.047515809535980225e-01,-1.754398494958877563e-01,1.120691075921058655e-01,-1.464193314313888550e-01,-1.166623532772064209e-01,-1.125362515449523926e-01,-2.173300236463546753e-01,-6.546078622341156006e-02,3.800930455327033997e-02
-3.155111670494079590e-01,1.200808659195899963e-01,-1.662527620792388916e-01,2.014428526163101196e-01,2.020519822835922241e-01,-2.029284089803695679e-01,2.046730369329452515e-01,2.057474553585052490e-01,4.863550886511802673e-03,1.520988941192626953e-01
-2.265428006649017334e-01,9.938990324735641479e-02,-2.161744283512234688e-03,2.403161488473415375e-02,2.190087921917438507e-02,-1.241771727800369263e-01,-1.353828310966491699e-01,1.463626623153686523e-01,-2.875180728733539581e-02,2.427382953464984894e-02
-1.826968416571617126e-02,1.410922501236200333e-02,2.358116768300533295e-02,8.053186535835266113e-02,6.971629709005355835e-02,-2.429440468549728394e-01,-9.258782863616943359e-02,9.298004955053329468e-02,9.802787005901336670e-02,2.009594142436981201e-01
1.054319739341735840e-01,-1.287004798650741577e-01,-6.928034126758575439e-02,1.683684624731540680e-02,9.284483641386032104e-02,-2.727051675319671631e-01,9.502141177654266357e-02,-5.959565937519073486e-02,7.229901850223541260e-02,1.176722645759582520e-01
9.019550681114196777e-02,-1.109741851687431335e-01,-8.855291455984115601e-02,-2.689312584698200226e-02,7.312909513711929321e-02,-2.442449182271957397e-01,8.061981946229934692e-02,-5.779329314827919006e-02,6.276518851518630981e-02,2.019024342298507690e-01
-4.368376359343528748e-02,-9.400128573179244995e-02,-1.222825348377227783e-01,-1.604447662830352783e-01,1.793584600090980530e-02,-4.023140668869018555e-01,2.011243700981140137e-01,8.040978014469146729e-02,2.002742290496826172e-01,1.253640949726104736e-01
1.027988046407699585e-01,-1.981164664030075073e-01,-1.544918585568666458e-02,-1.247423738241195679e-01,-1.061500310897827148e-01,-4.042962491512298584e-01,2.024562358856201172e-01,-1.083461418747901917e-01,1.782283782958984375e-01,2.029000073671340942e-01
1.470676362514495850e-01,2.738682925701141357e-02,-1.547000706195831299e-01,-2.198271453380584717e-01,-8.130083978176116943e-02,-4.044806063175201416e-01,1.678854674100875854e-01,-5.369668453931808472e-02,1.378799229860305786e-01,1.106001883745193481e-01
7.810104638338088989e-02,-1.148829981684684753e-01,-1.175815388560295105e-01,-6.871798634529113770e-02,-1.011685803532600403e-01,-3.716583251953125000e-01,2.028307616710662842e-01,-2.249421477317810059e-01,1.351945698261260986e-01,-8.083606511354446411e-02
-2.248927019536495209e-02,-9.668670594692230225e-02,1.101569458842277527e-01,9.137225896120071411e-02,-1.036264449357986450e-01,1.496352907270193100e-02,-9.801083058118820190e-02,-9.088163822889328003e-02,8.860147744417190552e-02,-2.805439233779907227e-01
-8.406167034991085529e-04,-1.466149389743804932e-01,1.373801827430725098e-01,-3.366148471832275391e-02,7.779564708471298218e-02,1.419104784727096558e-01,-1.154843494296073914e-01,-1.299829632043838501e-01,3.333190828561782837e-02,-2.003344148397445679e-02
4.221318662166595459e-02,-5.074765533208847046e-02,7.916219532489776611e-02,8.746632933616638184e-02,-1.587503850460052490e-01,3.294660523533821106e-02,-1.079144179821014404e-01,-4.498410224914550781e-02,-7.219233363866806030e-02,-5.895807594060897827e-02
-4.310282692313194275e-02,-1.018646135926246643e-01,9.515891224145889282e-02,5.615893751382827759e-02,2.462607435882091522e-02,-1.199552342295646667e-01,3.351377323269844055e-02,1.162668410688638687e-02,-1.464397013187408447e-01,-1.507416367530822754e-01
6.611414253711700439e-02,-1.130202189087867737e-01,8.985628932714462280e-02,-1.819600313901901245e-01,3.706290572881698608e-02,-9.487107396125793457e-02,-5.824642255902290344e-02,6.989146769046783447e-02,-8.730832487344741821e-03,-1.710352450609207153e-01
-4.322237148880958557e-02,-1.469082832336425781e-01,1.749858558177947998e-01,-4.676351323723793030e-02,-1.864165961742401123e-01,-1.061593592166900635e-01,-1.548884436488151550e-02,3.562613576650619507e-02,-1.876358985900878906e-01,-2.112349420785903931e-01
-1.515084356069564819e-01,2.589163370430469513e-02,-1.458999067544937134e-01,-1.012690141797065735e-01,-8.050623536109924316e-02,-8.446297608315944672e-03,-2.004839777946472168e-01,9.199082106351852417e-02,-1.947083771228790283e-01,3.297766298055648804e-02
-9.933694452047348022e-02,4.079756513237953186e-02,-3.651073575019836426e-01,-9.447861462831497192e-02,-1.710045896470546722e-02,1.186051815748214722e-01,-1.190236136317253113e-01,1.364755034446716309e-01,-1.434954702854156494e-01,6.034863367676734924e-02
6.514519453048706055e-02,-8.854751475155353546e-03,-3.760251402854919434e-01,-1.487549394369125366e-01,5.718092247843742371e-02,5.316906049847602844e-02,6.758710741996765137e-02,1.924598217010498047e-02,-1.650927811861038208e-01,2.032514959573745728e-01
5.116736888885498047e-02,-1.036541536450386047e-01,-3.891277313232421875e-01,-1.567763835191726685e-01,-3.684266284108161926e-02,4.810290411114692688e-03,-3.820579126477241516e-02,3.054768592119216919e-02,-2.543453276157379150e-01,1.396480053663253784e-01
9.790245443582534790e-02,6.855615973472595215e-02,-2.296978235244750977e-01,-1.481525003910064697e-01,1.050963029265403748e-01,-1.251958757638931274e-01,5.263398587703704834e-02,-5.825599655508995056e-02,-2.180196791887283325e-01,8.406399190425872803e-02
9.858989715576171875e-02,5.871731415390968323e-02,-2.000883221626281738e-01,-1.183690652251243591e-01,1.813459545373916626e-01,-7.263001985847949982e-03,2.433411404490470886e-02,-1.005287170410156250e-01,-2.362169176340103149e-01,1.211070120334625244e-01
-6.249123439192771912e-02,-1.766864806413650513e-01,-3.881567120552062988e-01,-1.094641610980033875e-01,9.978698939085006714e-02,9.982968866825103760e-02,2.580690942704677582e-02,-8.428602665662765503e-02,4.016036912798881531e-02,9.668768942356109619e-02
1.995632052421569824e-02,-1.659546494483947754e-01,-2.485071271657943726e-01,-1.404907405376434326e-01,2.031343281269073486e-01,1.897344291210174561e-01,1.175342202186584473e-01,-2.304026037454605103e-01,5.124123767018318176e-02,1.182860061526298523e-01
-5.234315618872642517e-02,-2.726190388202667236e-01,-1.335011869668960571e-01,1.003948152065277100e-01,2.034522145986557007e-01,2.037186026573181152e-01,1.945922225713729858e-01,-3.068752884864807129e-01,9.709540009498596191e-02,1.430856287479400635e-01
-1.370898932218551636e-01,-6.123386323451995850e-02,-2.197131365537643433e-01,1.568123996257781982e-01,2.023940831422805786e-01,1.269569844007492065e-01,1.715773195028305054e-01,-1.528367102146148682e-01,2.055752575397491455e-01,6.237838789820671082e-02
-2.087111473083496094e-01,1.463056951761245728e-01,-2.252995520830154419e-01,1.446124464273452759e-01,6.812024861574172974e-02,1.683400124311447144e-01,-7.837545126676559448e-02,-3.045783340930938721e-01,1.287444680929183960e-01,1.134513914585113525e-01
-3.156962990760803223e-01,2.028966248035430908e-01,-9.509125351905822754e-02,9.650644659996032715e-02,-9.732149541378021240e-02,-6.498718634247779846e-03,-6.624320894479751587e-02,-2.709092497825622559e-01,-8.001776784658432007e-02,1.274056881666183472e-01
-2.913580834865570068e-01,1.177214756608009338e-01,-2.734289765357971191e-01,-2.266586758196353912e-02,5.313980579376220703e-02,-5.225439369678497314e-02,-7.715453207492828369e-02,-1.079315319657325745e-01,1.223599985241889954e-01,1.073395311832427979e-01
-1.642563194036483765e-01,-1.008353233337402344e-01,-6.761110387742519379e-03,2.421278320252895355e-02,1.871898770332336426e-01,-1.674441695213317871e-01,9.855441749095916748e-02,1.787079498171806335e-02,-2.244664588943123817e-03,1.753446459770202637e-01
-2.115192711353302002e-01,-9.478607028722763062e-02,-1.365673542022705078e-01,7.129209488630294800e-02,1.179004386067390442e-01,-5.859964713454246521e-02,5.565172061324119568e-02,2.008698582649230957e-01,-3.311223164200782776e-02,1.733783185482025146e-01
-2.040681391954421997e-01,-6.386630237102508545e-02,-1.007717922329902649e-01,-9.915059059858322144e-02,-3.610718622803688049e-02,1.074970886111259460e-02,-5.680848658084869385e-02,6.364889442920684814e-02,1.700980775058269501e-02,2.006212919950485229e-01
9.046039730310440063e-02,-8.593858778476715088e-02,-7.942564785480499268e-02,-1.039443984627723694e-01,1.465881019830703735e-01,-1.220876649022102356e-01,-5.444658175110816956e-02,1.306984126567840576e-01,-5.494390428066253662e-02,-8.126510307192802429e-03
9.745233505964279175e-02,-1.406511068344116211e-01,-8.992689102888107300e-02,-1.032771915197372437e-01,-1.145180091261863708e-01,2.577354386448860168e-02,-3.307380527257919312e-02,7.573468238115310669e-02,1.995106600224971771e-02,1.561513054184615612e-03
1.115123406052589417e-01,1.832722499966621399e-02,-3.014214634895324707e-01,-2.175118029117584229e-01,1.412262767553329468e-01,-2.252913713455200195e-01,5.835302919149398804e-02,1.550686359405517578e-02,1.045700684189796448e-01,7.967967540025711060e-02
2.055282294750213623e-01,-1.608181744813919067e-01,-3.776573240756988525e-01,-3.105000257492065430e-01,-4.400738701224327087e-02,-2.348762005567550659e-01,1.028097793459892273e-01,-2.308699339628219604e-01,-1.105734407901763916e-01,1.049611642956733704e-01
1.227910593152046204e-01,-1.893631555140018463e-02,-1.303845942020416260e-01,-2.489024549722671509e-01,-1.002008616924285889e-01,-2.542958259582519531e-01,1.748213768005371094e-01,-5.036364495754241943e-02,1.433650730177760124e-03,-1.427952796220779419e-01
2.011348307132720947e-01,-9.484720230102539062e-02,-2.059860825538635254e-01,-7.263711839914321899e-02,5.060962960124015808e-02,-4.033337831497192383e-01,1.016524881124496460e-01,-6.872177124023437500e-02,-3.188102319836616516e-02,-3.525371849536895752e-01
8.418118953704833984e-02,6.279210001230239868e-02,3.337544202804565430e-02,-1.088690310716629028e-01,-8.280078321695327759e-02,-1.760699301958084106e-01,-1.066645793616771698e-02,-1.647240817546844482e-01,6.177369505167007446e-03,-3.323914110660552979e-01
