-0.051151,-0.114537,0.013644,0.097941,0.109512,0.057995,0.102023,-0.108749,-0.001848,-0.113965
0.016399,0.011849,0.029343,-0.075696,0.082574,0.123470,0.031088,-0.077662,0.051727,-0.055863
0.120369,-0.113031,-0.079310,-0.064718,0.187009,-0.059521,-0.067981,0.021999,-0.089662,-0.022160
-0.010917,-0.019422,-0.039392,0.148524,-0.085343,-0.047267,0.090267,-0.105760,0.006671,-0.038716
-0.031892,0.018468,-0.009469,0.018534,-0.013630,-0.015885,-0.075742,0.105334,0.148933,0.033907
0.091176,0.089592,0.082282,0.012898,0.018078,0.066161,0.023535,0.105475,-0.075488,0.020877
-0.039833,-0.023958,0.004476,-0.183006,-0.119638,-0.127344,-0.180575,0.111147,-0.095660,0.118599
0.152024,-0.052750,0.051735,-0.015792,-0.033118,-0.034760,-0.013032,-0.062311,0.040829,-0.024273
-0.064118,0.191775,-0.072858,0.122580,0.116869,-0.054128,0.074843,-0.040231,0.154798,-0.007719
-0.122301,-0.104565,-0.059469,-0.051735,0.043578,-0.042083,-0.056019,-0.019221,-0.084460,-0.182473
0.069160,0.090970,-0.076332,0.054610,-0.130196,-0.056074,0.135939,-0.093747,0.145054,0.009122
0.014651,0.170587,0.085587,0.177793,0.082938,0.028684,-0.047545,-0.112914,-0.022053,-0.041469
-0.035291,0.095644,0.042972,-0.150016,-0.146394,-0.166300,0.019543,0.123463,0.023256,-0.186318
-0.066100,-0.112841,-0.128201,0.004322,-0.003989,0.128516,0.110589,-0.135180,0.101902,-0.113337
0.054276,-0.042224,0.083478,-0.063434,-0.011282,0.124596,0.106037,0.074726,-0.134037,0.013893
-0.011995,-0.008088,-0.029675,0.090338,-0.078265,0.009754,-0.059950,0.085165,0.105687,0.097827
0.033677,0.146029,0.133399,0.029994,-0.012189,0.061245,0.093739,0.080136,0.078364,0.181574
0.069797,0.024123,0.118161,-0.021640,-0.024320,-0.115998,-0.004536,0.024938,0.061568,-0.035681
0.119423,-0.083652,-0.095095,0.072282,0.166874,0.087901,0.011627,0.000205,0.031759,0.134051
-0.036700,0.097950,-0.067900,-0.059932,-0.098588,0.186711,-0.025499,0.059245,-0.080305,0.065248
-0.093730,-0.001951,-0.151647,-0.183107,0.054935,0.053676,0.098455,0.060847,0.002338,-0.086180
0.047251,0.025903,0.169513,-0.133295,-0.007675,0.156397,-0.114295,0.043493,0.068658,-0.009954
0.013008,-0.000838,0.036618,-0.043855,0.070144,-0.002247,-0.108729,0.117866,0.161735,0.019207
0.095149,0.036030,-0.004091,0.037503,0.066319,-0.036293,0.187303,-0.071337,-0.132480,-0.137276
-0.075954,0.065831,-0.096821,-0.058891,0.040653,-0.046930,0.152239,-0.084754,-0.100098,0.018785
-0.044313,0.041424,0.032912,0.047497,-0.024879,0.061995,0.008498,-0.091456,0.053149,-0.063150
0.180547,-0.109665,-0.065489,-0.098771,0.072168,-0.007621,0.108101,-0.086419,-0.190371,-0.070578
0.132186,-0.089057,0.071222,-0.079549,0.181121,-0.046264,-0.051733,-0.050027,0.046786,0.041210
-0.035441,-0.036878,-0.020028,-0.103866,0.150342,-0.034308,-0.004963,0.047393,0.158093,-0.154559
0.058509,0.192324,0.066839,-0.009099,-0.119557,0.183998,-0.144516,-0.052930,-0.121857,-0.106627
0.014830,-0.009899,0.021870,-0.034246,0.108292,0.082971,-0.001384,0.006747,0.029495,-0.052951
-0.174153,0.034265,0.112405,-0.078731,-0.077685,-0.011024,0.102153,0.006302,-0.097550,0.176714
0.158222,0.058102,-0.153755,-0.145528,-0.119735,-0.020880,0.132957,-0.082098,0.077551,-0.135826
0.086813,0.119378,0.046142,0.080034,0.040846,0.072422,-0.002204,-0.047439,-0.158741,-0.019098
0.000724,-0.071325,-0.258267,0.088066,-0.160177,-0.051394,-0.003846,-0.036854,0.002663,-0.059776
0.014273,0.077237,-0.081079,0.000883,-0.169408,0.112596,0.013770,-0.050502,-0.104139,-0.001249
0.049342,-0.161029,-0.055570,0.030564,-0.080282,0.043325,-0.054764,-0.077439,0.003330,0.058233
-0.212729,-0.057490,-0.114127,-0.088389,-0.296461,0.025786,-0.001807,-0.233062,-0.211956,-0.203134
-0.144640,-0.092927,-0.239894,-0.082747,-0.321411,-0.142679,0.027433,-0.048889,0.018612,-0.175060
0.117997,-0.052351,-0.246577,0.081021,-0.324925,-0.085502,0.177138,-0.007677,-0.141984,-0.092894
-0.016006,0.084137,-0.322887,-0.051232,-0.324695,0.088622,0.236840,-0.336106,0.099709,-0.329007
-0.134940,-0.079194,-0.247944,0.042505,-0.325715,-0.086224,0.232358,-0.123636,0.018707,-0.175099
-0.071030,0.211869,-0.114059,-0.121789,-0.241192,-0.253277,0.024910,0.023618,0.003516,-0.134173
-0.071191,0.113867,-0.260278,-0.079469,-0.271466,0.005287,0.005652,-0.175819,-0.152062,-0.301824
-0.021411,-0.271921,-0.087243,-0.136629,-0.328266,-0.169950,-0.201584,-0.166247,-0.164800,-0.262439
-0.199885,-0.222584,0.053695,-0.141328,-0.328554,0.073313,0.137941,-0.068475,-0.033400,-0.333785
-0.189079,-0.193519,-0.286938,-0.116970,-0.331522,0.028679,0.166550,0.000996,-0.104154,-0.235943
0.059106,0.062660,-0.250359,0.048352,-0.267737,-0.045230,0.162018,0.003421,-0.186181,-0.307884
-0.121092,0.054836,-0.142815,-0.079852,-0.243509,-0.092083,-0.005716,-0.021532,-0.205499,-0.046517
0.020398,-0.096083,-0.251995,-0.116219,-0.295614,0.055198,0.238282,0.078802,-0.165383,-0.257616
0.081537,-0.121619,-0.061884,0.079152,-0.024553,-0.052012,0.014232,-0.028756,-0.069274,-0.017406
-0.068604,0.058078,0.093973,0.097626,-0.081154,-0.031302,-0.101773,-0.083619,-0.031522,-0.295120
-0.025087,-0.031012,0.037755,-0.050111,0.035173,0.027486,0.050469,-0.074634,-0.023436,0.032899
-0.055634,0.018789,0.026327,-0.097463,-0.093423,0.105523,0.068474,0.024013,0.013571,0.004146
-0.108587,0.012034,-0.125845,-0.049733,-0.104600,0.155185,-0.124048,-0.005877,0.143793,0.037963
-0.000074,-0.175046,0.151966,-0.076665,-0.196145,-0.011253,0.073342,-0.062637,-0.039366,0.119031
0.010306,0.191593,-0.059755,-0.024446,-0.029167,0.107582,0.076423,0.019183,-0.008781,0.037506
-0.066369,0.019396,0.052797,0.068150,0.143595,-0.054333,0.060586,0.012687,-0.031972,0.082227
0.012396,0.071145,0.015039,-0.157312,-0.016563,-0.014716,0.011250,0.011292,-0.026574,-0.096375
0.196139,0.069128,0.043761,-0.033694,-0.196778,-0.169057,0.024538,0.004647,-0.088631,-0.192192
0.187273,0.031842,-0.026786,-0.131716,-0.162093,0.137687,-0.083317,-0.027640,0.185360,-0.144294
-0.183866,0.111868,0.099690,-0.186663,-0.071832,-0.050336,0.167714,-0.090493,0.053325,-0.102820
-0.306820,-0.108168,-0.171982,-0.148150,-0.195430,-0.006280,0.099861,0.108966,-0.083477,-0.110347
-0.074092,-0.047647,-0.156559,0.057184,-0.321161,-0.259347,0.078783,-0.124517,0.152477,-0.045412
-0.069040,-0.084496,-0.026197,-0.244577,-0.326622,-0.191276,0.282519,-0.112314,-0.118320,-0.154435
-0.228534,-0.188546,-0.034703,-0.320307,-0.321753,-0.146645,0.098613,-0.171739,-0.021093,-0.053394
-0.321645,-0.333437,-0.085597,-0.311627,-0.321953,-0.119691,0.284274,-0.106062,-0.261922,-0.217854
-0.319620,-0.255479,-0.051776,-0.321475,-0.327814,-0.279701,0.141584,-0.150416,-0.250401,-0.257269
-0.234651,-0.185596,-0.139486,-0.168245,-0.322406,-0.323126,0.252671,-0.064067,-0.179617,-0.291780
-0.320147,0.078646,-0.134940,-0.091910,-0.322401,-0.328629,0.126746,-0.026634,-0.324617,-0.262269
-0.321715,0.184638,-0.152669,-0.081930,-0.323399,-0.323192,0.138639,-0.086149,-0.321214,-0.296694
-0.322063,0.158088,-0.100331,-0.217617,-0.321558,-0.321539,0.036468,-0.172985,-0.322756,-0.322735
-0.321255,0.054536,-0.321952,-0.321135,-0.322124,-0.255900,0.083563,-0.119554,-0.324206,-0.320814
-0.320946,-0.061766,-0.133048,-0.321854,-0.322960,-0.251979,0.069608,-0.190415,-0.321864,-0.323786
-0.321453,-0.124823,-0.256832,-0.327754,-0.322225,-0.163651,0.227151,-0.031071,-0.149330,-0.322733
-0.321166,-0.321103,-0.222567,-0.265825,-0.261398,-0.089511,0.060569,-0.073087,-0.320779,-0.322770
-0.321275,-0.160779,-0.320968,-0.140291,-0.187758,-0.144755,0.172137,-0.117723,-0.320771,-0.325678
-0.211615,-0.184688,-0.156827,0.037295,-0.321550,-0.183638,0.254954,0.071372,-0.231803,-0.115315
-0.261817,-0.123155,-0.309371,-0.102453,-0.253793,-0.272920,0.282724,0.124176,-0.278444,-0.176191
-0.196007,-0.205551,-0.205975,-0.097273,-0.194276,-0.103711,0.081834,-0.091571,-0.062370,-0.248711
-0.136494,-0.227061,-0.085049,-0.133947,-0.235002,-0.331692,0.195610,-0.004122,0.004584,0.022596
-0.013986,-0.041844,0.224858,-0.035812,-0.113484,-0.082588,0.056942,0.099762,-0.010806,-0.079598
0.049122,-0.067512,-0.017714,-0.108116,-0.016806,-0.026906,-0.013538,0.114853,-0.018533,-0.082788
-0.064639,-0.003545,0.156351,0.058675,0.007489,0.060320,0.186738,-0.031543,0.074998,0.001814
0.005143,0.056216,0.046538,0.048932,0.063400,-0.004336,0.037445,-0.078498,0.084571,0.013733
0.131389,-0.037801,-0.017104,-0.037539,0.049481,0.002080,0.155063,0.062222,0.122764,0.031580
-0.090477,0.055926,-0.021350,-0.007020,-0.123166,0.035132,0.037622,0.043788,-0.075774,-0.129686
-0.168514,0.043383,0.105900,-0.052039,-0.021748,0.069021,0.019658,-0.147479,-0.147735,-0.095859
-0.002371,-0.128611,-0.020727,-0.092437,-0.194200,-0.158856,-0.004567,-0.006432,0.021831,-0.241507
-0.092292,-0.009387,-0.028649,0.050371,-0.103652,-0.097624,-0.102649,-0.062731,-0.075470,-0.038422
-0.232440,-0.194612,-0.082088,-0.072575,-0.214128,-0.200771,0.185149,-0.023834,-0.050932,-0.040934
-0.142290,-0.130660,-0.081991,0.078456,-0.320431,-0.292926,0.165515,-0.275881,-0.045752,-0.207460
-0.045717,-0.322827,0.166207,0.034797,-0.326036,-0.203385,0.053798,-0.127570,-0.137250,-0.115163
-0.323086,-0.110807,0.141888,0.010343,-0.321406,-0.321875,0.192044,-0.214075,-0.320659,-0.321937
-0.250924,-0.281314,0.172710,-0.116166,-0.322019,-0.321460,0.085888,-0.316427,-0.323413,-0.319037
-0.107138,-0.325482,0.087875,0.001136,-0.323634,-0.321746,0.129390,-0.322912,-0.324375,-0.322559
-0.069515,-0.236254,0.133210,0.057427,-0.322153,-0.216707,-0.060508,-0.302985,-0.322181,-0.321259
-0.150068,-0.324446,0.102385,0.055998,-0.323808,-0.161978,-0.019539,-0.277449,-0.321875,-0.322269
-0.188400,-0.142981,0.052234,0.208724,-0.323275,-0.192227,0.111648,-0.185326,-0.323089,-0.320894
-0.176438,0.035247,0.034559,0.103559,-0.322273,-0.131510,0.029167,-0.189856,-0.321685,-0.323316
-0.174605,-0.164498,-0.011590,0.095872,-0.321001,-0.184494,0.090392,-0.303624,-0.322259,-0.321785
-0.111699,-0.206658,-0.227452,0.166183,-0.322266,-0.220034,0.049418,-0.292218,-0.323701,-0.320242
-0.230588,-0.316445,-0.127284,0.022777,-0.304455,-0.126099,0.171217,-0.161800,-0.321386,-0.320700
-0.317033,-0.321657,-0.221587,0.002466,-0.131278,-0.216964,0.222431,-0.196653,-0.321505,-0.203188
-0.283587,-0.299179,-0.086001,0.063061,-0.179319,0.060767,0.195456,-0.133253,-0.289226,-0.175064
-0.141874,-0.184719,-0.170711,-0.292455,-0.155414,-0.022643,0.283416,-0.098869,0.056120,-0.212274
-0.323470,-0.324339,-0.178557,-0.188278,-0.082078,0.062758,0.280422,0.026076,-0.115571,-0.208861
-0.177130,-0.321698,-0.214987,-0.323553,-0.122765,-0.162563,0.283283,-0.029228,0.007979,-0.073698
-0.166518,-0.284796,-0.137335,-0.073368,-0.099394,-0.078724,0.282046,-0.026844,0.101209,-0.141550
-0.162422,-0.231424,0.064644,-0.015928,-0.276836,-0.002782,0.044092,-0.136935,-0.069920,0.023253
-0.254281,0.046616,-0.072843,0.014098,0.120151,0.116908,0.043721,-0.005232,0.007737,0.081562
0.062600,-0.060738,0.046249,0.144366,0.079135,-0.044708,0.003448,-0.033248,0.096217,0.143541
-0.059601,0.074099,0.059897,0.093136,0.103851,0.045516,-0.087011,-0.082057,-0.035440,-0.030883
0.110394,0.128810,-0.016099,0.137556,0.074338,-0.136934,0.002137,0.033733,-0.011362,0.071814
0.024190,-0.081667,-0.056063,-0.010018,-0.102001,-0.148133,-0.080696,0.141413,0.004083,-0.178343
-0.013395,0.101717,-0.183711,0.090859,0.001514,-0.128908,-0.148921,0.112285,-0.181270,-0.009772
-0.213370,-0.140008,-0.117490,0.175747,0.079365,-0.335612,0.056017,-0.216493,-0.237905,-0.056988
-0.237772,-0.138084,0.124073,0.091823,0.079469,-0.327554,0.098479,-0.122985,-0.325878,-0.287900
-0.310922,-0.160386,0.012903,0.169647,-0.173542,-0.155171,-0.049579,-0.322057,-0.320891,-0.104545
-0.289952,-0.266009,-0.002136,0.025109,-0.257765,-0.320841,0.036328,-0.294410,-0.260042,-0.274458
-0.077201,-0.303959,0.119856,0.188852,-0.195175,-0.321939,-0.090575,-0.258444,-0.321257,-0.178445
-0.093089,-0.134971,0.112280,0.106633,-0.269180,-0.173610,-0.046265,-0.308839,-0.140680,-0.257564
-0.095866,-0.089871,0.181922,0.182939,-0.221942,-0.208055,-0.115087,-0.317985,-0.049444,-0.240100
-0.258236,0.008043,0.224826,0.130146,-0.321572,-0.121805,-0.151920,-0.259657,-0.058190,-0.320638
-0.065096,-0.158895,0.121870,0.068784,-0.320754,-0.109355,-0.035909,-0.227719,-0.043305,-0.322660
-0.052436,-0.108007,0.065390,0.144547,-0.321849,-0.222040,-0.080060,-0.320538,-0.146058,-0.322423
-0.144477,0.068577,0.040470,0.064480,-0.322947,-0.109056,-0.123833,-0.320960,0.054363,-0.321507
-0.021334,-0.003918,0.178599,0.020498,-0.269866,-0.005602,0.063445,-0.240076,-0.053833,-0.322444
-0.096848,-0.127873,0.003075,-0.029280,-0.202301,-0.018976,-0.124619,-0.320878,-0.138302,-0.321584
-0.107528,-0.128523,0.057850,0.030137,-0.277464,0.090550,0.175229,-0.322464,-0.147822,-0.321417
-0.284811,-0.098029,-0.049689,-0.096218,-0.259411,0.013430,0.165940,-0.320390,-0.192679,-0.320766
-0.073933,0.002083,-0.141859,-0.015757,-0.009424,-0.026919,0.204060,-0.320588,-0.250961,-0.322708
-0.179941,0.064624,-0.140202,-0.154175,0.033074,0.011517,0.183623,-0.321114,-0.150678,-0.320614
-0.169903,-0.086926,-0.208116,-0.188747,0.070409,0.014988,0.283357,-0.155409,-0.175694,-0.320724
-0.071547,0.120944,-0.291578,-0.312408,-0.012326,0.184083,0.284683,-0.256395,-0.241744,-0.320695
-0.105005,-0.065389,-0.323008,-0.325364,0.112002,0.095123,0.285727,-0.195809,-0.214521,-0.320309
-0.281074,-0.107423,-0.241312,-0.322874,-0.006961,0.233011,0.098212,-0.040954,-0.030894,-0.049228
-0.168301,-0.333296,-0.143167,-0.137800,-0.119333,0.032354,0.122764,0.026020,-0.037407,-0.181498
-0.150816,-0.170846,0.005124,-0.016025,-0.009431,-0.120487,-0.075232,0.016364,-0.059783,-0.075676
-0.032069,-0.107448,-0.018115,-0.045534,-0.162586,-0.086012,0.068304,0.068791,0.034197,-0.082458
0.047190,0.140543,0.006465,0.009396,-0.068913,0.172213,0.017259,-0.122727,0.117098,-0.069782
0.093236,-0.044636,-0.054532,-0.080127,-0.040318,-0.021327,0.091381,0.045951,-0.045678,0.037307
-0.207330,-0.096556,-0.181019,0.036555,0.003695,-0.270899,-0.040454,-0.148072,-0.052486,-0.062312
-0.049147,0.191851,-0.073833,0.228763,-0.135776,-0.296506,-0.040902,-0.117751,-0.295693,-0.015815
-0.201853,-0.135711,-0.052691,0.042629,-0.153898,-0.257114,0.039668,-0.218248,-0.171972,-0.296060
-0.321913,-0.293637,0.087991,0.147833,0.041643,-0.293728,0.020590,-0.044214,-0.217575,-0.325786
-0.195680,-0.038179,-0.093598,0.126531,-0.005288,-0.230109,-0.051067,-0.079737,-0.321769,-0.321765
-0.068529,-0.253872,0.143953,0.034301,0.023618,-0.179560,-0.230363,-0.150334,-0.321380,-0.328694
-0.002896,-0.325396,0.096208,0.059161,0.025704,-0.214841,0.096806,-0.072387,-0.226356,-0.321959
-0.214682,-0.323940,0.068910,0.016267,-0.041227,-0.026378,-0.107432,-0.244674,-0.113892,-0.323511
-0.146663,-0.172477,0.238195,0.210312,-0.085312,-0.048149,0.020433,-0.210742,-0.119619,-0.283466
0.005752,-0.058753,0.092352,-0.005014,-0.173732,-0.068749,-0.291524,-0.299007,-0.064167,-0.156677
-0.159782,-0.139741,0.218655,0.093987,-0.075314,-0.167772,-0.139947,-0.237840,0.107741,-0.261920
0.092303,-0.088887,0.221374,-0.028039,-0.144854,-0.096300,-0.140763,-0.287046,-0.007825,-0.098350
0.138902,-0.138989,0.238319,-0.036753,-0.009878,-0.119128,-0.231804,-0.197258,0.095131,-0.309105
0.061043,-0.086562,0.026291,0.023578,0.070531,-0.091398,-0.122472,-0.321392,-0.017516,-0.321379
-0.031816,-0.124126,0.150696,-0.005274,0.049496,-0.062294,-0.042430,-0.322545,0.009902,-0.322411
0.136974,-0.233854,0.222446,-0.123733,0.036894,-0.045272,0.040552,-0.321904,0.134484,-0.323253
0.097060,-0.026036,-0.007289,-0.095909,-0.012805,-0.054135,0.007192,-0.321981,-0.064196,-0.323490
0.065316,-0.104022,-0.094055,-0.058351,0.092762,0.074992,0.158139,-0.321045,0.125613,-0.323063
-0.017515,0.043232,-0.135112,-0.167575,-0.017305,0.008030,0.190733,-0.321587,-0.084586,-0.321297
-0.031509,0.118328,-0.032699,-0.190304,0.087607,0.147881,0.197455,-0.286835,-0.224476,-0.323493
-0.050144,0.198875,-0.144977,-0.322767,0.056673,0.212235,-0.031234,-0.320900,0.009122,-0.321405
-0.059534,0.120831,-0.298654,-0.322991,0.282044,0.145015,0.143885,-0.313119,-0.147864,-0.321840
-0.321242,0.066839,-0.285240,-0.321440,0.096021,0.282444,0.147094,-0.189823,-0.188484,-0.321283
-0.320412,-0.325384,-0.322740,-0.228653,-0.025835,0.286049,-0.034553,-0.007132,-0.012535,-0.295969
-0.322944,-0.325462,-0.267845,-0.051249,-0.244063,0.097823,-0.092003,-0.154408,0.086831,-0.152710
-0.300277,-0.010687,-0.106952,0.057522,-0.078398,-0.076254,0.063864,-0.131885,0.100961,0.123346
0.038279,0.055264,0.009516,0.180953,0.060193,0.184777,0.018031,-0.066152,-0.016014,0.030151
-0.008391,0.021876,0.058434,0.143318,-0.026773,0.033388,0.143977,0.049194,-0.099972,-0.049035
-0.054363,-0.086625,0.042525,0.156197,-0.148052,0.020547,-0.183895,0.194997,-0.231196,-0.245278
-0.033939,0.110470,0.028408,0.271762,-0.190688,-0.271867,-0.311700,0.083576,-0.320675,-0.293357
-0.237644,-0.006651,-0.165592,0.202377,0.003794,-0.322664,-0.234108,0.165088,-0.109297,-0.259645
-0.026949,-0.234935,-0.064454,0.164045,0.055735,-0.314811,-0.252912,0.120735,-0.129949,-0.322263
-0.074670,-0.323022,0.100067,0.278749,0.097591,-0.179254,-0.045044,0.095430,-0.260267,-0.323967
-0.116824,-0.263788,0.113486,0.060819,0.045846,0.017877,-0.064893,0.145924,-0.101869,-0.321256
-0.236450,-0.320962,0.072017,0.009017,0.010984,-0.109241,-0.040414,0.074533,-0.077154,-0.321916
-0.033526,-0.320795,0.130029,0.121682,-0.125016,0.141615,-0.149012,-0.006734,-0.035184,-0.272426
-0.099074,-0.046905,-0.054847,0.033957,-0.049630,-0.046880,-0.215545,0.111542,-0.033600,-0.224419
0.013132,-0.027000,0.062815,0.099531,-0.095145,-0.010917,-0.212247,0.084203,-0.065992,0.097416
-0.094835,0.013678,0.093658,0.108726,-0.186969,0.079262,-0.174773,-0.040473,0.121658,0.028100
-0.016721,-0.143401,0.097972,0.063074,-0.206561,-0.129983,-0.174804,-0.189818,-0.113419,0.282637
0.052557,-0.040058,0.084591,-0.018570,-0.323164,0.017532,-0.088197,-0.159859,0.005804,0.172221
0.059212,-0.234279,0.034281,0.097357,-0.281862,-0.163427,-0.214058,-0.166167,0.145215,0.285307
0.012551,-0.196188,0.093716,0.128268,-0.320818,-0.016738,-0.171707,-0.072912,0.062241,0.211702
0.119513,-0.179054,0.002513,0.112532,-0.004441,-0.076694,0.019792,-0.066387,0.117479,0.119248
0.077092,-0.179393,0.018580,-0.120052,-0.118804,0.089026,-0.271906,-0.129385,-0.117011,-0.003105
0.030859,-0.096465,0.011936,0.017520,0.035381,-0.050727,-0.118789,-0.118848,-0.007909,-0.133269
0.058935,-0.075174,-0.145089,-0.061296,-0.051488,0.114292,-0.010248,-0.079508,-0.023670,-0.034577
0.049377,0.076188,-0.066412,-0.234340,0.038167,0.017905,-0.038449,-0.013837,0.009995,-0.317073
0.057493,0.079764,-0.134951,-0.322644,0.223539,0.107326,0.031744,-0.192262,-0.160643,-0.322711
-0.180556,0.026379,-0.321246,-0.325009,0.249322,0.282211,-0.263813,-0.150777,-0.163110,-0.322420
-0.321954,0.018483,-0.323631,-0.322139,0.017896,0.282732,-0.321665,-0.312797,-0.167158,-0.326257
-0.321611,-0.320654,-0.327127,-0.319095,-0.044181,0.282299,-0.314463,-0.322004,-0.176243,-0.321304
-0.321979,-0.305800,-0.115049,0.025835,-0.077093,0.284410,-0.244650,-0.174564,-0.109742,-0.198900
-0.132660,-0.121874,-0.067967,-0.009611,-0.158149,0.077135,0.010233,-0.144536,-0.140288,0.066588
-0.148155,-0.032822,-0.061960,0.023076,-0.045103,0.044189,-0.092313,0.033460,0.079893,0.082552
-0.117831,-0.243221,-0.257814,-0.107604,-0.106136,-0.256304,-0.119580,0.045797,-0.034100,-0.224395
-0.065806,-0.018323,0.047821,-0.030503,-0.166519,-0.172392,0.102128,0.064277,-0.278399,-0.233805
-0.122262,0.043846,-0.104594,0.002649,0.107284,-0.321331,-0.213968,0.113867,-0.321829,-0.321572
-0.056716,-0.022039,0.136558,0.274462,0.078829,-0.321879,-0.207630,0.093616,-0.110770,-0.324237
-0.108430,-0.108969,0.118927,0.176995,0.153294,-0.321457,-0.053794,0.144843,-0.084052,-0.325590
0.049377,-0.320362,0.152590,-0.052772,-0.028199,-0.145830,-0.164605,0.155680,-0.246127,-0.322277
-0.171031,-0.270465,-0.052307,-0.036505,0.015329,-0.118783,0.014088,-0.031155,-0.087655,-0.321101
-0.024707,-0.323840,0.122776,0.074768,-0.019412,-0.145094,-0.154640,0.181005,-0.067166,-0.192426
-0.185007,-0.317207,0.043288,0.052550,-0.076698,-0.067378,0.011926,0.284822,-0.031210,-0.232314
-0.183271,-0.320785,0.026519,0.054222,-0.107401,0.141024,-0.049494,0.119833,-0.031231,0.029901
-0.022042,-0.139640,0.177931,0.019912,-0.065223,0.174712,0.061779,0.268167,0.044148,0.110842
0.072424,-0.140068,-0.042472,0.187426,-0.147858,0.023058,-0.212402,0.195856,-0.049928,0.229203
-0.020863,-0.104554,-0.056066,0.124646,-0.199671,-0.011629,-0.075493,0.076202,-0.024536,0.250510
-0.036278,-0.207771,0.019371,0.028277,-0.323364,-0.039586,-0.156118,0.068181,-0.094387,0.281374
0.062196,-0.149097,0.072944,0.064941,-0.322400,-0.142074,-0.085822,-0.118992,-0.034842,0.281891
0.117203,-0.129208,-0.050720,-0.062304,-0.322356,-0.136506,-0.305770,0.030728,-0.052951,0.282192
0.126305,-0.208508,-0.066275,-0.047939,-0.320543,0.000123,-0.274361,0.066765,-0.077878,0.280814
0.122499,-0.235525,-0.133208,0.080635,-0.185603,-0.053028,-0.160107,0.091240,-0.029381,0.160957
0.016782,0.063495,-0.098463,0.016863,-0.196039,0.078711,-0.320893,0.100513,-0.046814,0.108733
0.122320,0.032871,-0.020073,-0.015485,-0.011643,-0.052028,-0.322259,0.100188,0.039765,-0.082392
0.025993,-0.105332,0.087621,0.030033,-0.019601,0.145658,-0.322481,-0.066020,0.061305,0.022727
-0.015322,-0.128863,0.062773,-0.113092,0.126071,0.011773,-0.321869,-0.053328,0.248710,-0.294498
-0.125686,-0.125724,-0.259576,-0.324275,0.055104,0.283025,-0.321416,0.117898,0.114602,-0.324317
-0.295466,-0.310894,-0.321172,-0.321973,0.031818,0.281898,-0.323941,-0.114574,0.122476,-0.323258
-0.321624,-0.323411,-0.323841,-0.320798,-0.097759,0.283599,-0.324744,-0.249581,-0.193369,-0.321214
-0.325768,-0.142522,-0.214887,0.048994,0.056970,0.280419,-0.083481,-0.266295,-0.133966,-0.326118
-0.219551,-0.103659,-0.198915,0.029331,-0.226489,0.250848,-0.148066,-0.025177,-0.019863,-0.156529
0.094038,0.066901,-0.124765,0.048851,-0.084167,0.017182,-0.101540,-0.092743,0.045132,-0.190619
-0.023173,-0.071313,-0.073385,-0.021006,-0.003598,0.111160,-0.036346,0.004244,-0.157651,-0.122390
0.032540,-0.000565,0.073229,-0.303772,0.039726,-0.309472,-0.080259,0.212254,-0.297626,-0.196208
-0.059540,0.037583,-0.059594,-0.068916,0.014782,-0.327390,-0.164551,0.148122,-0.199903,-0.322424
-0.328422,-0.082945,0.131391,0.287140,-0.004549,-0.320453,-0.119388,0.069413,-0.179804,-0.322679
-0.085877,-0.090487,-0.011829,0.114456,0.077030,-0.321337,-0.177634,0.251575,-0.039652,-0.321516
-0.214217,-0.182413,0.097048,0.046935,0.089241,-0.250333,-0.031728,0.079716,0.051084,-0.321939
-0.098988,-0.273613,-0.080549,0.069172,-0.046969,0.052755,0.027809,0.224626,0.201952,-0.247562
-0.095781,-0.322866,0.138117,-0.078862,-0.038520,0.131873,-0.016954,0.169959,0.062856,-0.120699
0.007231,-0.320754,0.103815,-0.160216,-0.048171,0.008654,-0.197554,0.178986,0.042632,-0.189002
0.068493,-0.249209,0.143660,0.032728,-0.121938,0.085306,-0.131102,0.061792,0.132564,-0.088798
0.024640,-0.059419,0.152546,-0.094797,-0.269051,0.118332,-0.074116,0.183496,0.009008,-0.191168
-0.105779,0.024953,0.202934,-0.052034,-0.300978,-0.006899,-0.075618,0.138818,0.023855,0.096047
0.084948,-0.082939,0.084121,-0.022724,-0.263354,-0.085100,-0.092638,0.029499,0.100549,0.236503
-0.051982,0.017782,0.005339,0.110539,-0.321314,-0.143621,-0.154777,0.030714,-0.115580,0.281323
0.065630,-0.102857,0.085872,0.020842,-0.321743,-0.222925,-0.154167,0.176282,-0.142952,0.265146
0.209299,0.016869,-0.089369,0.136268,-0.321118,-0.041130,-0.286749,0.043747,0.019356,0.121031
0.162320,-0.079118,0.020039,0.147660,-0.295068,0.004044,-0.287201,0.156304,-0.150087,-0.041296
0.124121,-0.053332,0.008195,0.049531,0.026983,-0.042458,-0.320591,0.079215,0.024124,-0.107524
0.036389,0.007615,-0.063640,0.046953,-0.088955,-0.020908,-0.322276,0.017930,0.034419,-0.271051
0.019979,-0.047554,-0.040209,0.127498,-0.079365,0.027607,-0.321702,0.142251,0.147238,-0.075332
-0.056320,-0.094620,-0.041925,-0.020225,-0.019965,0.096928,-0.325371,-0.088422,0.172849,-0.172523
0.080657,-0.124625,0.054358,0.043943,0.026677,0.281560,-0.321183,0.207577,0.070589,-0.238265
-0.013687,-0.322953,-0.251876,-0.322450,0.076602,0.283692,-0.321437,-0.141637,0.123106,-0.241238
-0.321429,-0.322045,-0.320870,-0.323721,-0.052413,0.282350,-0.327137,-0.215501,-0.080881,-0.322765
-0.322105,-0.322645,-0.330997,-0.320962,-0.156135,0.282587,-0.321731,-0.321359,-0.251356,-0.321684
-0.328184,-0.321014,-0.199556,-0.104526,-0.287710,0.283126,-0.212709,-0.198499,-0.163251,-0.174921
-0.159627,-0.240026,-0.176071,-0.114164,-0.063618,0.162040,-0.162283,-0.095067,0.156352,-0.021985
-0.033560,0.077921,0.030098,-0.075691,-0.166448,-0.049661,0.004259,0.124692,-0.101888,-0.119436
0.117430,-0.008600,-0.037444,-0.084960,-0.190681,-0.168712,-0.185055,0.127880,-0.053333,-0.333349
-0.166948,0.017275,-0.140381,-0.213721,-0.174392,-0.193964,-0.178173,0.119457,-0.324298,-0.320800
-0.139941,-0.080442,-0.187604,0.088426,-0.223793,-0.321605,-0.149588,0.239470,-0.158761,-0.216994
-0.185670,-0.320679,0.019731,0.186985,-0.207112,-0.322259,-0.146099,0.258398,-0.047387,-0.322074
-0.087836,-0.178061,0.282549,0.081988,-0.034068,-0.250494,-0.314125,0.032120,0.005434,-0.109355
0.048267,-0.003953,0.135174,0.035346,-0.093972,-0.048655,-0.057072,0.160111,0.216191,0.004889
-0.103452,-0.163163,0.117992,0.001459,-0.062829,0.018524,-0.085060,0.168409,0.176309,-0.146141
0.072865,-0.116162,0.079245,-0.094583,0.006329,0.076741,0.052905,0.008627,0.157635,-0.040354
-0.096287,-0.235783,0.009440,-0.188891,-0.003403,0.089864,-0.189892,0.023344,0.151502,-0.079382
0.010373,-0.075469,0.099162,-0.214050,-0.182237,0.093313,-0.111282,0.126767,0.119375,-0.114668
-0.101033,-0.190016,-0.044234,-0.324197,-0.065988,0.102554,-0.093059,0.141811,-0.030277,-0.202151
0.027885,-0.221747,-0.016687,-0.321341,-0.110776,0.099786,-0.186339,0.211112,0.015718,-0.108153
-0.016373,-0.074257,-0.012703,-0.080767,-0.253494,0.099212,-0.227853,0.110180,-0.031345,-0.022221
0.084650,0.250991,0.121117,0.043986,-0.323222,-0.148486,-0.102374,0.066502,-0.169771,0.057051
-0.010324,0.122529,0.060585,-0.014623,-0.322967,-0.223110,-0.137777,0.246282,-0.322109,0.099856
0.098510,0.179355,0.043359,0.140689,-0.135979,-0.321960,-0.280187,0.232347,-0.198772,-0.008879
0.175745,-0.019176,-0.095026,-0.040632,-0.153819,-0.169271,-0.321463,0.283302,-0.164784,-0.237619
0.267626,-0.104315,0.014903,0.012539,-0.146480,-0.146128,-0.322922,0.135514,-0.039073,-0.060257
0.165839,-0.199284,0.077545,0.083577,-0.032137,0.002485,-0.322743,0.097523,0.068160,-0.149456
-0.008851,-0.271313,-0.243925,0.077730,-0.055737,-0.048623,-0.305103,0.055589,-0.047850,-0.057599
0.069839,-0.152206,-0.077140,0.181109,-0.162928,0.047561,-0.297751,0.150457,0.061568,-0.104815
-0.079006,-0.259661,-0.029004,-0.015140,0.017650,0.281224,-0.275914,-0.098653,0.235413,-0.242548
0.197250,-0.321625,-0.146093,-0.304533,-0.026255,0.280624,-0.285112,0.095322,0.217292,-0.312332
-0.264349,-0.321966,-0.320699,-0.324231,-0.306451,0.285159,-0.323015,-0.293499,-0.151829,-0.323495
-0.323027,-0.321778,-0.320313,-0.321500,-0.293622,0.286820,-0.320846,-0.250152,-0.322762,-0.321720
-0.329337,-0.229890,-0.173758,-0.082854,-0.322415,0.283381,-0.329841,-0.279594,0.131295,-0.273452
-0.298956,-0.163355,-0.013527,0.021329,-0.175097,0.084275,-0.277954,-0.020031,-0.108715,-0.325601
-0.154504,-0.178836,0.005356,-0.007166,-0.117808,-0.018855,-0.127736,0.087404,-0.234102,-0.106642
-0.035209,0.014649,-0.252412,-0.287258,-0.104606,-0.080621,0.034344,0.004829,-0.057410,-0.144267
-0.078915,-0.139087,-0.120526,-0.135425,-0.157910,-0.323336,-0.153351,0.283383,-0.320983,-0.286551
-0.025880,-0.108640,-0.197314,0.106212,-0.320632,-0.321512,-0.309880,0.250147,-0.205846,-0.322076
-0.182535,-0.245438,-0.088415,0.125110,-0.039044,-0.118283,-0.102128,0.135735,-0.110222,-0.197667
0.059621,-0.167130,0.008031,0.029050,-0.065745,0.011854,-0.211245,0.114857,0.075470,-0.067665
-0.130142,-0.233371,0.052203,0.019042,-0.141664,0.027161,-0.134560,0.113795,0.156584,-0.026259
-0.059075,-0.122959,-0.136450,-0.028373,-0.041707,0.187404,-0.060078,-0.095520,0.082442,-0.027051
-0.072225,-0.224028,-0.223267,-0.320677,-0.015610,0.217810,0.061293,-0.068220,0.239430,0.015991
0.043630,-0.269034,-0.241458,-0.322013,0.057390,0.168957,-0.090593,-0.078624,0.056361,-0.006616
-0.031932,-0.131825,-0.138770,-0.322602,0.091682,0.248415,-0.031462,-0.001374,0.179951,0.109180
-0.068176,-0.122816,-0.275823,-0.323711,-0.000638,0.281336,-0.157440,-0.137929,0.218911,0.125606
-0.100822,0.011991,-0.256874,-0.323334,-0.008591,0.176708,-0.042738,0.055190,0.126926,0.018089
0.128918,0.074174,-0.306303,-0.059872,-0.127554,0.203799,0.007572,0.220943,-0.049105,-0.058677
-0.036447,0.282592,-0.322268,0.139489,-0.322825,-0.069727,-0.241479,0.165404,-0.191303,-0.207925
-0.105854,0.260053,-0.151513,0.228431,-0.145917,-0.056159,-0.166799,0.283074,-0.322053,-0.159396
0.071286,0.108884,-0.059655,0.077109,-0.105875,-0.190750,-0.321257,0.286867,-0.180747,-0.183836
0.100249,-0.028244,0.087908,0.077613,0.013765,-0.321733,-0.321592,0.191057,-0.090542,-0.033010
0.183443,-0.074792,0.050145,0.177048,-0.129679,-0.212001,-0.321061,0.218973,0.043266,-0.008980
0.119529,0.025117,0.032958,0.121344,0.092629,-0.270269,-0.288514,0.195942,0.075273,-0.063064
0.123511,-0.162827,0.042790,0.165613,-0.061236,-0.230056,-0.134959,0.060188,0.092535,-0.031950
0.114236,-0.142465,-0.180489,0.084741,-0.087295,-0.105105,-0.220901,0.097482,0.102134,0.091316
0.150029,-0.322469,-0.100348,0.066908,-0.041870,-0.303595,-0.141399,0.132766,0.186947,0.025413
0.089640,-0.320729,-0.059531,-0.311846,-0.322040,0.267924,-0.217263,-0.257625,0.146039,-0.192124
-0.128027,-0.322307,-0.322713,-0.321697,-0.325286,0.285464,-0.281973,-0.322663,-0.055616,-0.323908
-0.322465,-0.321954,-0.199983,-0.323129,-0.323393,0.282389,-0.325285,-0.218469,-0.195785,-0.201092
-0.322841,-0.286510,-0.145951,-0.222398,-0.323196,0.284777,-0.324394,-0.179876,-0.008191,-0.321388
-0.144368,-0.052115,-0.018947,-0.146963,-0.053837,0.274456,-0.118785,-0.202250,0.190065,-0.132444
-0.049560,0.075451,-0.083318,-0.008430,-0.092910,-0.032218,0.034230,-0.038059,0.039398,-0.243060
0.143310,0.066347,-0.155584,0.002384,-0.219168,-0.103353,-0.088170,0.282300,-0.314697,-0.228421
-0.186207,-0.137060,-0.045440,-0.180396,-0.325307,-0.206936,0.034150,0.288115,-0.252840,-0.321783
-0.294624,0.091346,-0.174166,0.276181,-0.279452,-0.323414,-0.324341,0.275848,-0.323330,-0.167745
-0.132654,-0.135135,-0.131278,0.011593,-0.162814,-0.162961,-0.296552,0.195073,-0.121612,-0.115927
-0.196818,-0.102535,-0.182202,-0.064248,-0.058086,0.010037,0.011548,-0.002731,0.063134,0.062535
-0.017310,-0.224396,-0.322069,-0.322178,-0.053127,0.092882,-0.034569,0.019312,0.220676,0.242351
-0.037837,-0.235924,-0.323717,-0.323141,-0.120935,0.143963,0.092396,-0.078761,0.283592,0.151608
-0.142813,-0.064260,-0.321032,-0.323280,-0.141994,0.103124,0.028694,0.052436,0.286080,0.163317
-0.092823,-0.196210,-0.322844,-0.275869,0.010698,0.231927,0.051622,0.043702,0.123300,0.150808
0.034267,-0.254663,-0.321968,-0.321219,0.132437,0.156866,0.010022,0.098539,0.084659,0.080404
-0.036739,-0.140650,-0.321429,-0.175712,0.278155,0.276785,0.055756,0.191740,0.046763,0.122590
0.017430,-0.115567,-0.322094,0.141460,0.281914,0.282031,-0.004628,0.101880,0.213380,-0.034332
-0.119844,0.263076,-0.323003,0.162959,-0.305849,0.281639,0.053476,0.154790,0.249600,-0.031437
-0.164289,0.283419,-0.322824,-0.042837,-0.323208,0.155266,-0.083643,-0.021097,-0.038748,-0.180882
-0.267176,0.283590,-0.284082,0.135166,-0.004782,-0.254159,-0.325024,0.240597,-0.161498,0.010295
-0.287582,0.165837,-0.049945,0.071076,0.162185,-0.095451,-0.199826,0.281386,-0.237549,-0.005395
-0.059989,-0.098379,-0.046265,0.054561,0.210339,-0.204872,-0.171920,0.234822,0.009160,0.077245
0.041909,-0.185718,-0.055033,0.141241,-0.049174,-0.280619,-0.116497,0.040643,-0.087194,0.036773
0.033816,0.033508,0.021993,0.048342,-0.147194,-0.320411,-0.170067,0.035621,0.075993,0.161591
0.124716,-0.223428,-0.096804,-0.017567,-0.120810,-0.323763,-0.091984,0.142264,0.105544,0.159261
0.063622,-0.284962,0.054223,-0.176255,0.003624,-0.322037,0.147759,0.157162,0.142182,0.217345
0.022266,-0.194711,-0.038832,-0.314183,-0.220297,-0.322248,0.065802,0.066192,0.191452,0.029399
0.265119,-0.179607,-0.120590,-0.326026,-0.287162,-0.324058,0.263499,-0.288089,0.281591,-0.198889
0.077236,-0.320265,-0.155972,-0.275965,-0.323478,-0.119641,0.248852,-0.321340,0.157650,-0.313111
-0.321273,-0.232936,0.054239,0.066859,-0.324464,0.285098,-0.230135,-0.324988,0.041056,-0.322901
-0.323811,-0.097656,0.139945,-0.055736,-0.264050,0.286266,-0.233167,-0.292362,0.003542,-0.282681
0.100863,-0.028130,-0.130547,-0.178568,-0.181475,-0.119473,0.015407,-0.052724,0.071555,-0.194471
-0.147294,-0.080838,0.138962,0.004235,0.109715,0.004182,-0.115908,-0.010536,-0.004852,-0.021228
0.047657,-0.073008,-0.154625,-0.108444,-0.185911,-0.178571,-0.049593,0.282842,-0.164485,-0.320881
-0.311546,-0.072223,-0.211630,-0.261922,-0.180872,-0.331558,-0.167769,0.286963,-0.243649,-0.321128
-0.317199,-0.105843,-0.320643,-0.167218,-0.130578,-0.308990,-0.322309,0.242054,-0.321635,-0.116087
-0.261597,-0.098179,-0.226282,-0.066205,-0.252640,-0.057958,-0.320753,0.196750,-0.145574,0.114106
-0.036828,-0.215811,-0.323917,-0.323155,-0.175261,0.044848,-0.097550,0.109190,0.117610,0.162767
0.129398,-0.101215,-0.324890,-0.294565,0.094116,0.194229,0.049488,-0.109640,0.255397,0.042441
0.028721,-0.142487,-0.321680,-0.324265,0.100472,0.182332,0.031464,0.069516,0.090324,0.281412
0.016554,-0.209838,-0.326135,-0.228737,0.247475,-0.033089,0.071951,-0.112997,-0.014238,0.100509
-0.008771,-0.077271,-0.323003,-0.322208,0.168455,0.005943,-0.052534,-0.157290,0.139467,0.226623
0.100036,-0.260709,-0.320852,-0.030559,0.282798,0.207051,0.133640,-0.070043,0.007481,0.098921
-0.083366,-0.266213,-0.323004,-0.104814,0.284205,0.234708,0.195214,-0.210656,-0.069781,0.126563
0.082518,-0.166722,-0.322661,-0.009778,0.283087,0.284045,0.141794,-0.198969,0.265601,0.040694
-0.191653,0.267078,-0.322979,0.166926,-0.010730,0.282490,0.136893,-0.323496,0.230418,0.033808
-0.323058,0.284864,-0.324660,0.110216,-0.233737,0.052301,-0.246609,-0.321169,0.015462,0.187131
-0.323482,0.285077,-0.327549,0.203778,0.107053,-0.194801,-0.076775,-0.102550,0.013536,0.238339
-0.322504,0.013700,-0.079175,0.192689,0.259637,-0.182166,-0.062929,0.140385,0.123475,0.167926
-0.202983,0.067972,-0.193768,0.206112,0.155313,-0.220356,-0.108188,0.141496,0.041938,0.142732
-0.001728,-0.044854,-0.044550,-0.008364,-0.002761,-0.218786,0.046892,0.099104,0.070423,0.129025
0.063660,0.038202,-0.144505,-0.028438,0.138981,-0.257752,-0.118853,-0.144657,0.176645,0.282175
0.105236,-0.104307,0.121813,-0.215362,-0.028600,-0.324432,0.164348,-0.096331,0.136810,0.149001
0.169278,-0.194497,-0.084465,-0.324416,0.133669,-0.322181,0.185512,0.081924,0.281055,0.282061
0.196240,-0.092809,-0.285444,-0.321505,-0.076887,-0.324545,0.283666,-0.137451,0.236223,0.243038
0.280558,-0.005816,-0.323285,-0.322415,-0.132635,-0.326675,0.281966,-0.213246,0.282426,0.139122
0.121460,-0.138736,-0.058398,-0.259995,-0.226723,-0.325115,0.158345,-0.322194,0.284364,-0.323626
-0.166509,-0.083242,0.210218,-0.003017,-0.225628,0.008074,0.096507,-0.061906,0.120554,-0.321327
-0.278711,-0.228883,0.214290,0.004159,-0.046534,0.245300,-0.321392,-0.089766,0.241708,-0.323846
-0.012407,-0.055651,0.074197,-0.037235,-0.073304,-0.098443,-0.010432,-0.047979,-0.186845,-0.097171
-0.121362,-0.063786,-0.217278,-0.060660,-0.032956,0.119778,-0.023553,-0.016125,0.095947,-0.137793
-0.038090,-0.072365,0.018185,-0.249479,-0.163856,-0.031124,-0.042964,0.195735,0.001748,-0.318330
-0.058445,-0.085067,-0.100657,-0.277955,-0.052136,-0.286315,-0.141601,0.224771,-0.200415,-0.323673
-0.321539,0.131114,-0.327796,0.048098,-0.155315,-0.125693,-0.192819,0.269085,-0.248480,-0.018164
-0.207529,0.099750,-0.324639,-0.261017,0.039640,-0.021899,-0.279222,0.080099,-0.278537,0.180048
-0.022094,-0.013865,-0.325377,-0.184851,0.181910,0.227496,0.065694,-0.071845,-0.238427,0.203274
0.045613,-0.217094,-0.322863,-0.169309,0.131053,-0.022111,0.143995,-0.000333,-0.098344,0.282348
0.179630,0.004720,-0.321326,-0.126764,0.283143,0.125201,-0.023794,0.095688,-0.232802,0.044259
0.020226,-0.001377,-0.320976,-0.159246,0.097849,0.023547,0.148215,-0.170833,-0.217728,0.014324
-0.046434,-0.320829,-0.321640,-0.069192,0.200749,0.101047,-0.093356,-0.092434,-0.062068,-0.002656
0.024438,-0.168651,-0.324388,-0.160370,0.280835,0.139608,0.109328,-0.168427,-0.202877,0.107521
0.115684,-0.322277,-0.100634,0.081201,0.283169,0.281606,0.176279,-0.321972,0.065711,0.062411
-0.030025,-0.025996,-0.144788,0.263998,0.287098,0.181979,0.235474,-0.322643,0.282164,0.100891
-0.275312,0.050897,-0.160328,0.111858,-0.115194,0.162273,-0.014834,-0.324592,0.183176,0.104822
-0.321784,0.282255,-0.324958,0.037220,0.058119,-0.126821,-0.079544,-0.323120,0.001710,0.073099
-0.322526,0.283128,-0.160309,-0.027783,0.076481,-0.237386,0.099283,-0.125315,-0.034445,0.243550
-0.321905,-0.060998,-0.185583,0.104901,0.088800,-0.165981,0.107241,-0.039298,0.175950,0.235783
-0.192611,-0.156042,-0.020324,-0.070260,0.084420,-0.189740,-0.171219,0.111732,-0.036996,0.201093
-0.024682,-0.216794,-0.153314,-0.131751,-0.004341,-0.160352,-0.001273,-0.070370,0.022392,0.220556
-0.135897,-0.164590,0.035106,-0.135132,0.061646,0.022944,0.010979,0.151980,-0.015718,0.241509
0.056780,-0.028011,-0.150352,-0.176242,0.157163,-0.077908,-0.063372,-0.014289,0.112137,0.248472
0.162286,0.069073,-0.219861,-0.322371,0.077553,-0.324409,0.003730,-0.088669,0.173270,0.233332
0.281055,-0.128628,-0.319820,-0.321449,0.034840,-0.323755,0.240846,0.065735,-0.058742,0.090955
0.178709,-0.083088,-0.311924,-0.322293,-0.110091,-0.324299,0.281829,-0.157484,-0.081396,-0.321879
0.071079,-0.235054,-0.099472,-0.191530,-0.253740,-0.323219,0.198298,-0.020627,0.051793,-0.321693
0.101339,-0.163196,0.285701,-0.130345,-0.149587,-0.320833,-0.045089,-0.047472,-0.027057,-0.325339
-0.236281,-0.261762,0.240600,-0.115034,-0.072498,0.071954,-0.320733,-0.247568,0.093713,-0.326151
-0.147983,0.037661,0.115492,-0.269163,-0.093271,-0.046726,0.024625,-0.134677,-0.034352,-0.058251
-0.125834,0.055740,-0.070579,-0.187433,-0.068016,-0.029418,0.010100,-0.102919,0.045938,-0.028662
-0.150183,0.024633,-0.111060,0.080290,-0.097993,-0.081116,-0.038976,0.154031,0.052206,-0.075580
-0.064543,0.098611,-0.098507,0.100019,-0.217040,-0.016732,0.128679,0.214198,-0.088649,-0.142545
-0.084474,0.036815,-0.276199,0.064296,-0.154082,-0.178680,-0.233910,0.120609,-0.281374,0.105157
0.004082,-0.120970,-0.321759,0.042576,0.054665,0.001845,-0.322544,-0.057089,-0.321455,0.176313
0.196113,-0.123159,-0.321621,-0.260859,0.208186,-0.087247,-0.081330,-0.003978,-0.323380,0.211744
0.238391,-0.031359,-0.322718,-0.302668,0.257502,-0.102885,0.092435,-0.131102,-0.322377,0.030107
0.131704,-0.172691,-0.255565,-0.181993,0.145213,-0.145098,0.010145,-0.207923,-0.322296,0.098617
0.084809,-0.087665,-0.198577,-0.109432,0.107856,-0.013039,0.098506,-0.099995,-0.283288,0.109699
0.119881,-0.169272,0.025064,-0.112672,0.281992,0.043440,0.109632,-0.181049,-0.322870,0.095813
0.027587,-0.298995,0.147390,-0.125107,0.281218,0.265866,0.128455,-0.297645,-0.017661,0.120668
0.106069,-0.116759,0.044338,0.011259,0.282082,0.096273,0.263939,-0.324165,0.130628,0.101192
-0.123972,-0.009583,0.025197,0.131148,0.158601,0.282162,0.118499,-0.322563,0.188506,0.036674
-0.256801,0.254496,-0.025052,0.046700,0.051170,0.032695,0.016427,-0.321857,0.207845,0.107745
-0.320647,0.282354,-0.052191,-0.081219,-0.167811,-0.063873,-0.132027,-0.322589,-0.016361,-0.069413
-0.321417,0.216285,-0.064541,0.068228,0.050881,-0.019803,-0.015036,-0.149489,0.054609,0.134485
-0.321039,0.136609,-0.053597,0.066067,0.282611,-0.216170,0.020638,-0.023392,-0.009920,0.178965
-0.202627,-0.187115,-0.265613,-0.120424,0.268076,-0.300427,-0.023637,0.087344,-0.211080,0.113022
-0.075926,-0.122104,-0.095294,-0.003476,0.084693,-0.036328,-0.191643,0.069302,-0.182439,-0.025693
0.018412,-0.070100,-0.146405,0.079264,0.045966,-0.110273,-0.102394,0.123293,-0.136765,-0.001257
-0.085374,-0.292541,-0.086921,-0.122016,0.138698,0.018640,0.139475,0.231317,-0.119703,0.030317
0.134720,-0.219748,-0.241543,-0.053049,0.038173,-0.153114,0.206876,0.192836,-0.283489,0.044273
0.131200,-0.031901,-0.322282,-0.167546,-0.024518,-0.282515,0.181528,0.233063,-0.322493,-0.306052
0.093288,0.015501,-0.228562,-0.131133,0.001515,-0.323329,0.196250,0.139834,-0.253775,-0.324540
0.207171,-0.256866,-0.105435,-0.251040,0.050677,-0.322777,0.193266,-0.061967,-0.294034,-0.323680
-0.030240,-0.272061,0.280418,-0.179406,0.061915,-0.243550,-0.020076,0.009258,0.037483,-0.321305
-0.129457,-0.164079,0.197989,-0.208473,-0.124692,-0.149259,-0.326240,-0.290123,-0.179070,-0.188274
0.043413,-0.093112,0.155361,-0.238662,-0.066961,-0.176900,-0.193785,0.156040,-0.095244,-0.070666
-0.209933,-0.093810,0.071473,-0.048763,-0.025864,0.192398,-0.186608,-0.068388,-0.025921,-0.200171
-0.160695,-0.131189,-0.123519,0.259177,-0.096488,-0.075607,0.093319,0.089380,-0.017489,0.056903
-0.302187,-0.088917,-0.018678,-0.022782,0.174507,-0.008846,-0.042047,0.263902,-0.076560,-0.301340
-0.324957,0.119680,0.079771,0.087673,0.045604,-0.275510,-0.245240,0.197001,-0.111179,0.001775
-0.091196,-0.031772,-0.008576,-0.015641,0.079535,-0.320685,-0.323123,0.129416,-0.321281,0.005011
0.205848,-0.298902,-0.099518,-0.211436,0.080807,-0.321115,-0.017791,-0.154847,-0.323140,0.129673
0.037856,-0.199169,-0.097924,-0.140352,0.104691,-0.323141,0.113105,-0.075786,-0.322450,-0.019083
0.219794,-0.076994,-0.078005,-0.184694,0.180860,-0.324785,0.099786,-0.106548,-0.323528,-0.059316
0.170431,-0.150622,0.064284,-0.197315,0.165672,0.046705,0.042355,-0.183713,-0.234396,0.022459
0.192083,-0.167399,-0.042786,-0.230953,0.188509,0.180302,0.111127,-0.263548,-0.295685,-0.099631
0.151734,-0.216539,-0.034049,-0.037305,0.014057,-0.036137,0.139199,-0.228482,-0.031606,0.049902
-0.073815,-0.141311,0.025030,0.118806,0.280513,0.261539,0.182662,-0.321411,0.094761,0.131574
-0.230799,-0.100410,0.195769,0.077916,0.065911,-0.014501,0.062559,-0.323059,0.283957,0.032792
-0.321490,0.281686,0.079203,0.133090,0.016071,-0.059171,-0.181521,-0.320950,0.066087,-0.065229
-0.320503,0.281996,-0.152255,-0.009315,0.070101,-0.282551,0.024539,-0.264187,-0.025708,-0.141741
-0.321487,0.126542,0.045711,-0.101109,0.231959,-0.220342,0.180351,0.016409,-0.004741,-0.010191
-0.208560,-0.133448,-0.032792,0.040142,0.283996,-0.285323,0.036741,0.013892,0.144753,0.170135
-0.180899,-0.321136,-0.059943,-0.043079,0.191821,-0.141733,-0.200362,0.128261,-0.120824,0.043295
-0.113632,-0.235022,-0.102261,0.085796,0.168252,-0.079500,-0.029140,0.173267,-0.248384,-0.029550
0.042402,-0.279487,-0.126480,0.058969,0.071148,-0.078116,0.015301,0.210490,-0.213806,-0.043597
0.090963,-0.321007,-0.132755,-0.007661,0.046243,0.011656,0.066318,0.252918,-0.322746,-0.169331
-0.052276,-0.108851,-0.028407,0.180759,0.017403,-0.221113,0.014014,0.061436,-0.321571,-0.160652
-0.010137,-0.031336,-0.212007,-0.017940,0.112289,-0.025889,0.192613,0.150171,-0.185729,-0.321192
-0.013798,-0.046325,-0.156108,0.069154,-0.153528,-0.324792,0.075522,0.112359,-0.252603,-0.289696
0.073023,-0.087496,0.156780,-0.163964,-0.145794,-0.186462,0.020892,-0.021420,-0.274228,-0.324437
-0.201782,-0.227250,0.282728,-0.315674,-0.193648,-0.088007,-0.022676,-0.212681,-0.031365,-0.326240
-0.225438,-0.202040,0.195254,-0.167677,-0.218273,-0.322696,-0.332139,-0.228025,-0.326265,-0.294185
-0.259788,-0.118982,0.148448,-0.247570,-0.266524,-0.090550,-0.332123,-0.217929,-0.254916,-0.088436
-0.121069,0.041923,-0.004542,-0.084981,-0.048536,-0.280226,-0.093349,-0.135052,-0.100589,-0.051863
-0.006026,0.138914,-0.202022,0.124670,0.073650,0.065103,-0.040858,-0.028310,0.012799,0.065056
-0.152901,-0.006663,-0.053042,0.269446,-0.145679,-0.152483,0.044911,0.053874,-0.226600,-0.217185
-0.221392,0.013795,0.006904,0.282118,-0.011621,0.061458,-0.328394,-0.022780,0.015297,-0.149903
0.045329,-0.111775,0.282453,0.266294,-0.073065,-0.275883,-0.320945,-0.078964,-0.322936,0.021433
0.109133,-0.118676,0.100427,-0.113996,0.042483,-0.323438,-0.238076,0.047045,-0.320954,-0.097538
0.083899,-0.207194,0.191355,-0.180030,0.083986,-0.322695,0.089620,-0.075799,-0.319921,-0.137639
0.058575,-0.299532,0.115046,-0.162190,0.159192,-0.322418,-0.001101,-0.032240,-0.239262,-0.059543
0.122289,-0.086945,-0.081002,-0.234747,0.083883,-0.321513,0.118983,-0.108790,-0.103231,-0.016536
0.029192,-0.140753,0.151998,-0.322784,0.113281,-0.249483,0.123029,-0.075308,-0.019830,0.076332
0.259142,-0.105164,0.006246,-0.213867,0.045101,-0.032636,0.226450,-0.240478,0.157542,-0.007403
0.100301,-0.148135,0.226373,-0.016503,0.012313,-0.004723,0.247774,-0.292085,-0.031711,0.218719
-0.321596,0.141160,0.182867,-0.149372,-0.074743,0.100292,0.021170,-0.300655,0.225373,-0.015450
-0.321282,0.159530,0.022683,-0.014603,0.055674,-0.249662,0.000703,-0.119085,0.096391,-0.111363
-0.322709,0.192398,-0.052255,-0.247326,0.282132,-0.191670,0.055940,-0.123921,0.018868,-0.115494
-0.321176,0.033568,0.121381,-0.212307,0.242585,-0.250780,-0.154551,0.059529,-0.103732,-0.002721
-0.322136,-0.208820,-0.041805,-0.182790,0.195842,-0.099716,-0.172984,-0.077503,-0.069296,0.123696
-0.078869,-0.278300,0.109987,-0.108176,0.226588,-0.097713,-0.044422,0.257359,-0.173502,0.066619
-0.004944,-0.291159,-0.206886,-0.067977,0.079553,0.009316,0.005151,0.167290,-0.307225,-0.057448
-0.018792,-0.320180,0.010222,0.141919,0.184262,-0.024095,0.005771,0.239776,-0.312672,-0.109460
0.143598,-0.288051,-0.205925,0.173666,0.048158,0.056568,0.116440,0.186747,-0.306586,-0.051077
-0.081206,-0.047111,0.109637,0.234071,0.088088,-0.134899,-0.024979,0.211033,-0.321832,-0.322255
0.149245,-0.163798,-0.029016,0.281451,-0.154779,0.059505,0.000856,0.090697,-0.320969,-0.296422
0.142583,-0.043858,0.121434,0.266997,-0.116804,-0.006612,-0.020061,-0.065128,-0.179986,-0.320926
-0.029007,-0.183638,0.233445,-0.136028,-0.189908,-0.053423,0.050813,-0.156057,-0.173349,-0.323210
-0.234533,-0.287526,0.281624,-0.324122,-0.293630,-0.141743,-0.184259,-0.323459,-0.096077,-0.320247
-0.231785,-0.243956,0.281695,-0.149703,-0.320743,-0.332376,-0.323092,-0.265845,-0.322087,-0.176459
0.016023,-0.124416,0.170553,-0.113964,0.057606,-0.117823,-0.111447,-0.247480,0.023445,-0.042745
-0.035816,0.060222,-0.078254,0.020342,0.140543,0.040744,-0.066289,-0.045279,-0.049009,-0.060531
0.024689,-0.068262,-0.084282,0.183597,-0.132816,-0.123332,-0.012319,-0.046957,-0.185811,-0.157556
-0.209355,-0.073006,-0.160086,0.106763,-0.135086,-0.084696,-0.036644,-0.159300,-0.007366,-0.256100
-0.325403,0.117062,0.258973,0.264635,-0.283700,0.031570,-0.327245,-0.155846,-0.039558,-0.081751
0.015114,-0.046471,0.275269,0.106987,-0.109110,0.006487,-0.324167,-0.099580,-0.321115,-0.131963
-0.005188,-0.275408,0.283460,0.143075,-0.225425,-0.061019,-0.194098,-0.204530,-0.170807,-0.157147
0.096775,-0.321768,0.288085,-0.095163,0.072900,-0.007575,-0.112388,-0.146724,-0.323653,-0.183312
0.026315,-0.177759,0.092696,-0.118005,0.098830,-0.242738,0.067666,-0.124492,0.096439,0.101400
0.283749,-0.116405,0.161942,-0.261059,0.282887,-0.323910,0.013076,-0.059016,0.062370,0.022079
0.284006,-0.061346,0.075344,-0.322613,0.059572,-0.322109,-0.059132,-0.214196,0.218718,0.133936
0.161729,0.110253,0.089505,-0.320987,0.003898,-0.293633,0.284251,-0.275469,0.097998,0.250689
-0.146587,-0.176629,0.014547,-0.322628,0.137576,-0.322168,0.109619,-0.141937,0.254347,0.072803
-0.322131,0.138912,0.236183,-0.321411,0.008503,-0.323531,0.181471,-0.028933,0.282286,0.115289
-0.321732,0.158399,0.146826,-0.322429,0.185591,-0.209543,-0.093990,0.077001,0.092968,-0.151608
-0.277506,0.221380,0.124869,-0.322395,0.228036,-0.285174,0.035222,0.049307,-0.112454,-0.189049
-0.294627,-0.056257,0.041797,-0.242310,0.282749,-0.097732,0.005051,0.102062,0.040932,0.054164
-0.111568,-0.219025,0.047035,0.040134,0.200610,-0.078475,-0.097002,-0.109488,-0.104354,-0.029983
0.036734,-0.212389,0.150897,0.169038,0.136091,-0.055914,-0.011551,-0.013828,-0.182208,-0.000606
0.000530,-0.314896,-0.043292,0.023007,0.143623,0.023686,0.020499,0.127944,-0.169695,-0.045610
-0.048092,-0.025180,-0.036039,0.159812,-0.144787,-0.090043,0.101409,-0.071268,-0.289859,-0.130167
0.027223,-0.058315,-0.062529,-0.058436,0.049823,-0.128194,0.102819,0.199863,-0.056106,-0.105407
-0.025137,-0.172320,-0.002301,0.135281,0.107663,0.075752,0.048499,-0.182070,-0.134678,-0.281296
0.095271,-0.040655,0.134765,0.180229,-0.121560,-0.127111,-0.036915,-0.118367,-0.144700,-0.078206
-0.031758,-0.139480,0.132386,0.281524,-0.026563,0.157283,-0.012218,-0.034612,0.068168,-0.320762
-0.012659,-0.176448,0.283091,-0.094471,-0.321258,0.193509,0.000102,-0.114883,-0.174762,-0.324635
-0.051347,-0.318125,0.282959,-0.321196,-0.320964,-0.321970,-0.323863,-0.130961,-0.322501,-0.274490
-0.199437,0.035336,0.221783,-0.322289,-0.162761,-0.322738,-0.321363,-0.092280,-0.311522,-0.311044
0.083340,-0.188908,0.287283,-0.100905,-0.131649,-0.116057,-0.183792,-0.051449,-0.041529,-0.260947
-0.052804,0.096505,-0.084994,-0.275811,-0.198775,-0.176659,-0.101144,0.121733,0.002203,0.077592
0.097790,-0.037596,0.048598,0.056655,0.151854,-0.156211,0.041749,-0.084956,-0.203374,-0.024780
-0.238367,-0.047432,-0.310023,0.183542,0.011995,-0.269438,-0.185222,-0.100395,-0.227556,-0.324978
-0.322924,-0.010977,-0.097001,0.280879,-0.100984,0.088011,-0.291436,-0.157628,-0.323887,-0.320357
0.038947,-0.155812,0.276419,0.287560,-0.059520,0.169764,-0.323027,-0.089078,-0.321113,-0.321202
-0.051185,-0.180742,0.231041,0.132836,-0.029942,0.010469,-0.325494,-0.230057,-0.303859,-0.214359
0.097939,-0.322124,0.175881,0.087007,-0.026949,0.177684,-0.246442,-0.249026,-0.112848,-0.126849
0.173577,-0.321002,0.106612,-0.055399,0.019524,-0.076833,0.001017,-0.168191,0.032869,-0.065053
-0.052066,-0.032751,0.248338,-0.114796,0.169438,-0.218200,0.126691,-0.108039,0.201098,0.183542
0.181246,-0.179911,0.267195,-0.320983,-0.089062,-0.322906,0.187084,-0.113776,0.190592,0.171295
0.166447,0.068235,0.108546,-0.323375,-0.135167,-0.322937,0.282852,-0.323020,0.239877,0.031507
0.157582,0.100458,0.202259,-0.322890,-0.083919,-0.323004,0.281821,-0.022518,0.229562,0.101200
-0.261272,0.119308,0.136828,-0.322116,0.156864,-0.245133,0.190975,0.077373,0.141377,-0.060504
-0.323056,0.055872,0.044858,-0.323351,0.169159,-0.003698,0.081899,0.102010,-0.159552,-0.142932
-0.322928,0.263842,0.102575,-0.322472,0.229741,-0.056641,-0.022628,-0.053570,-0.245754,-0.062074
-0.108564,-0.163159,0.185103,-0.051236,0.106675,-0.039912,0.130959,0.127140,-0.130528,0.089256
-0.020495,-0.237301,0.060257,0.203326,-0.059122,0.027928,0.052813,-0.165210,-0.012180,-0.109833
-0.135882,-0.233702,0.146722,0.195053,-0.037340,0.061285,0.076074,-0.079291,-0.105978,-0.182061
-0.168815,-0.163244,-0.107767,0.145272,-0.216357,0.032749,0.101022,0.006916,-0.053436,-0.025297
-0.187694,-0.090968,-0.063049,0.212190,-0.124176,0.007210,-0.066187,-0.048790,0.000684,-0.146087
0.026083,-0.130207,0.000335,0.047117,-0.111311,-0.047287,0.007018,-0.229932,-0.102101,-0.180846
-0.096697,-0.118015,0.111148,0.126117,-0.263547,-0.014979,-0.036328,-0.173907,-0.143188,-0.068521
0.041139,-0.121657,0.067858,0.181598,-0.149184,0.081017,0.061891,-0.243489,-0.104181,-0.201478
0.110572,-0.080862,0.279252,0.083404,-0.293148,0.048416,-0.149634,-0.254667,-0.094615,-0.321494
-0.151167,-0.322505,0.282795,-0.321652,-0.151200,0.151145,-0.014076,-0.261566,-0.156967,-0.322690
-0.165586,-0.268488,0.285954,-0.321455,-0.255284,-0.322475,-0.139870,-0.290497,-0.321348,-0.226050
-0.186890,0.080021,0.265684,-0.331516,-0.063175,-0.206175,-0.032902,-0.021131,-0.320703,-0.180021
-0.217646,-0.102671,0.065689,-0.038233,-0.083857,-0.133400,-0.058493,-0.046330,0.085880,-0.080507
-0.091433,-0.059424,-0.232247,0.139142,0.002511,-0.027262,-0.006418,-0.142913,-0.189577,-0.038386
0.099813,0.061740,-0.135505,-0.099355,-0.053656,-0.269175,-0.127727,0.159701,-0.090449,-0.264088
-0.095582,0.070223,-0.277410,0.170706,-0.018952,-0.272777,-0.217826,0.055831,-0.088096,-0.150818
-0.321271,-0.132422,-0.006442,0.285292,-0.117249,-0.078261,-0.262905,-0.024066,-0.324521,-0.322075
0.088919,-0.240539,0.075101,0.281240,-0.130996,0.133607,-0.325134,0.010228,-0.322759,-0.315887
0.008427,-0.322213,0.110719,0.127555,-0.086518,0.007154,-0.191077,-0.176453,-0.047251,-0.116951
0.047801,-0.182410,0.238090,0.150728,-0.207763,0.206711,-0.123309,-0.324366,-0.073247,-0.238150
-0.053349,-0.111454,0.284725,-0.075423,-0.322199,0.135157,-0.009119,-0.323691,-0.047709,-0.322818
0.185175,-0.004939,0.119721,-0.096782,-0.201676,0.163452,0.099201,-0.257959,0.224876,-0.112092
0.025501,-0.045346,0.095669,0.001170,-0.324030,0.010842,0.220079,-0.280643,0.131964,-0.298799
0.278443,0.028561,0.182722,-0.307590,-0.275066,-0.002777,0.096819,0.018431,0.120508,-0.226955
0.176800,0.023376,0.099566,-0.231081,-0.321426,-0.052243,0.258559,-0.038594,0.112729,-0.090025
-0.030842,0.136543,0.174690,-0.323732,-0.241694,-0.039343,0.239711,-0.009362,-0.028667,-0.072249
-0.077411,0.136693,0.098940,-0.292956,-0.077057,-0.033066,0.093142,0.042255,-0.184744,-0.122271
-0.091479,0.144593,0.106266,-0.294286,0.031920,-0.004273,0.030660,0.125425,-0.323487,-0.069919
-0.223099,0.009061,-0.004499,-0.074152,-0.073326,-0.031911,0.069060,-0.183625,-0.071516,-0.228800
0.067036,-0.168333,-0.006222,0.001147,-0.055919,-0.078841,0.180244,-0.188787,-0.239939,-0.045240
-0.068743,-0.074478,0.026420,0.038835,-0.219329,-0.023245,0.075584,-0.128083,-0.013145,-0.027901
-0.083557,0.054994,0.012944,0.117750,-0.267028,-0.155428,0.018011,-0.257916,-0.060062,-0.271037
-0.083108,-0.058850,-0.036220,0.049171,-0.225437,0.049070,-0.057831,-0.323608,-0.067347,-0.205303
0.011830,-0.179706,-0.014918,0.106164,-0.267279,0.093680,-0.069182,-0.325444,-0.150378,-0.091783
-0.009179,-0.245118,-0.139565,0.213873,-0.320672,-0.007769,0.142399,-0.267166,-0.035262,-0.154843
-0.109321,0.010556,0.217510,-0.068928,-0.322545,0.163818,-0.142781,-0.321096,0.081968,-0.251131
-0.032074,-0.320752,0.125620,-0.110452,-0.320851,0.284823,-0.102292,-0.322344,-0.100180,-0.294219
-0.028473,0.022903,0.282096,-0.321709,-0.322185,0.143774,-0.245145,-0.292654,-0.320763,-0.321712
-0.269346,-0.187064,0.283619,-0.321773,-0.320680,-0.322022,-0.320698,-0.112108,-0.322226,-0.049942
-0.222205,-0.057002,0.285403,-0.228669,-0.064805,-0.219016,-0.322565,-0.173287,-0.320818,-0.120970
-0.085718,-0.006748,0.049448,0.136101,-0.103442,-0.159611,-0.119779,-0.050657,-0.060556,0.129957
-0.130322,0.045593,-0.151142,0.008077,-0.091595,0.058999,0.046798,0.135191,0.130738,-0.033908
0.090573,-0.003265,-0.246643,-0.038045,-0.075284,-0.105221,-0.202560,0.102573,-0.121892,-0.133966
-0.199575,0.036680,-0.230990,0.207866,0.134876,-0.170650,0.047280,-0.062971,-0.238184,-0.313595
-0.201195,-0.141553,0.045959,0.283858,-0.179265,0.005593,-0.219932,-0.253617,-0.320891,-0.264828
-0.075517,-0.207370,0.283081,0.174474,-0.290193,-0.063427,-0.246202,-0.302643,-0.321537,-0.320745
0.020179,-0.292721,0.143390,0.143764,-0.172427,0.072506,-0.227856,-0.321527,-0.082095,-0.244358
-0.025773,0.014184,0.141273,0.024432,-0.279003,0.003832,-0.264877,-0.320764,-0.135787,-0.255941
-0.031535,-0.146037,0.085254,0.179619,-0.322362,0.141760,-0.076734,-0.304819,0.107405,-0.322925
-0.015806,0.051570,0.133257,0.099744,-0.321187,0.150676,-0.226286,-0.235662,-0.118903,-0.265428
0.171954,-0.087616,0.179108,0.023323,-0.307612,0.267925,0.069076,-0.018401,0.029447,-0.321418
0.283627,-0.133760,0.183017,-0.012471,-0.321161,0.171621,0.230997,-0.262419,-0.028380,-0.321358
0.220262,0.036771,0.131081,-0.074364,-0.248364,0.284292,0.235831,0.026414,-0.119812,-0.321572
0.027189,0.044147,-0.051603,-0.202563,-0.269567,0.221212,0.064399,-0.032851,-0.102903,-0.246524
-0.135228,-0.050242,-0.040671,-0.062157,-0.322794,-0.106195,0.282944,0.053849,-0.118465,-0.141400
-0.022832,-0.068937,-0.100798,-0.062814,-0.125382,-0.015350,0.181359,-0.176018,-0.208009,-0.107880
-0.109026,0.030101,-0.037510,-0.053371,-0.120426,-0.121084,0.155212,-0.126104,-0.121299,-0.211834
-0.141839,0.059178,-0.075180,0.146568,-0.113101,0.008000,0.060427,-0.123628,-0.142385,-0.171839
-0.043786,0.098615,-0.088001,0.038309,-0.089909,0.007711,0.170501,-0.322009,-0.166862,-0.074151
-0.113992,-0.101451,0.045673,0.147015,-0.015200,0.016824,0.166657,-0.223162,-0.054892,-0.078083
-0.195368,-0.070348,0.085412,-0.005798,-0.234575,0.053932,0.099597,-0.320380,-0.150461,-0.157624
-0.127708,-0.102881,0.003007,-0.031315,-0.256858,0.032675,-0.070831,-0.323182,-0.028287,0.028146
0.036435,-0.320482,0.120640,0.091930,-0.069824,0.168065,-0.170019,-0.322347,-0.150288,-0.123521
-0.097380,-0.278708,0.119794,-0.132969,-0.189635,0.282639,-0.005999,-0.320989,0.054827,-0.125098
-0.041542,-0.162502,0.102705,-0.155560,-0.229494,0.209989,-0.217301,-0.325638,-0.072268,-0.051742
-0.020381,-0.206723,0.281294,-0.324896,-0.168166,0.094852,-0.203915,-0.093808,-0.322209,-0.262190
-0.266951,-0.291383,0.285842,-0.321639,-0.165260,-0.115579,-0.177204,-0.019433,-0.323027,0.144751
-0.188168,0.047872,0.039872,-0.122361,0.028743,-0.077516,-0.037459,-0.022235,-0.337340,-0.199666
0.009542,-0.093695,-0.170880,-0.130931,-0.031802,-0.035534,0.046989,-0.080225,-0.042640,0.074134
-0.001945,-0.072702,-0.108486,0.034088,-0.064521,-0.069400,-0.088809,-0.053222,0.132823,0.081306
-0.082672,0.064191,-0.165554,0.065126,-0.156968,0.049415,-0.043560,-0.082349,-0.130857,-0.056339
-0.135282,-0.179349,-0.102182,0.267635,-0.097444,-0.178613,-0.154067,-0.243172,-0.215830,-0.205212
-0.087697,-0.110014,0.041697,0.239812,-0.157253,-0.086755,-0.078328,-0.300035,-0.321237,-0.107618
-0.150019,-0.085753,-0.079287,0.281765,-0.301699,0.010703,-0.288439,-0.188941,-0.322867,-0.063359
-0.126048,0.142068,-0.031922,0.282150,-0.221624,-0.001170,-0.298824,-0.221796,0.046651,-0.254286
0.083036,0.037239,0.026663,0.183500,-0.323606,0.043561,-0.245686,-0.251816,0.065539,-0.321440
0.016106,-0.033509,0.072071,0.072227,-0.320778,-0.023554,-0.173973,-0.079607,-0.005512,-0.322218
-0.026366,-0.017200,0.100770,-0.020766,-0.305366,0.203647,-0.126816,-0.121323,0.012217,-0.321315
-0.019314,0.074251,0.084501,-0.022321,-0.300665,-0.017477,-0.044936,-0.159116,-0.163660,-0.245924
0.158019,-0.027980,0.104769,0.008392,-0.182563,-0.014022,0.056992,-0.085201,-0.093528,-0.180431
0.172552,-0.052477,-0.015672,-0.021802,-0.133161,0.103722,0.155508,-0.012089,-0.047825,-0.231903
0.168787,-0.217884,-0.069035,0.040017,-0.098058,0.007268,0.282769,-0.110860,-0.053760,-0.323105
0.075373,0.002642,0.032440,-0.093410,-0.201720,-0.049249,0.254358,0.035958,0.082521,-0.216625
-0.164585,-0.172658,-0.125035,-0.108146,-0.227921,-0.094455,0.239870,-0.067416,-0.026629,-0.267335
-0.045394,-0.080368,0.010121,-0.032438,-0.115477,-0.024438,0.078301,-0.145540,-0.099120,-0.246031
-0.118696,-0.004337,0.043185,0.000981,-0.021288,0.095092,0.062940,-0.186163,-0.075654,-0.102626
-0.058895,0.055509,-0.022954,-0.000549,-0.091262,-0.085335,0.104527,-0.170994,-0.144847,-0.321713
-0.071245,0.124789,0.074953,0.099220,-0.157653,0.008416,0.032842,-0.152279,-0.090067,-0.198240
-0.128838,-0.108635,0.064289,0.142272,-0.015995,0.151691,-0.068877,-0.321531,0.094754,-0.098378
0.004476,-0.057842,0.084070,0.023421,-0.110084,0.016005,0.145764,-0.313963,0.055737,-0.108731
0.098868,-0.118521,0.006638,-0.167901,0.002634,0.188672,-0.177048,-0.322641,0.039152,0.005926
-0.238007,-0.238183,0.281872,-0.061113,-0.047345,0.284175,-0.296334,-0.320788,0.142227,0.005675
-0.131410,-0.322173,0.281189,-0.238760,-0.104404,0.140725,-0.254471,-0.324523,-0.173153,0.124070
-0.189373,-0.006597,0.177031,-0.325850,-0.223380,-0.204099,-0.197151,-0.119553,-0.324757,0.131071
-0.224315,-0.174182,0.190380,-0.320503,-0.147794,-0.072926,-0.184050,0.004356,-0.292493,0.050845
0.045049,-0.132193,-0.020640,-0.029848,-0.186551,-0.160711,-0.005645,-0.198701,-0.320553,-0.250495
-0.047401,-0.124143,0.003470,-0.003679,0.145148,-0.050473,-0.061681,-0.044581,-0.206035,0.106165
0.071830,0.150551,0.090261,0.008826,0.107857,-0.094359,-0.032561,-0.098660,-0.103912,-0.012442
-0.144234,0.041262,-0.033026,-0.054494,-0.093683,-0.106813,-0.143295,0.105967,-0.068452,0.061233
-0.003575,-0.148035,-0.179155,0.132991,0.117287,-0.322200,-0.045109,-0.287322,-0.275718,-0.302788
-0.321273,-0.117040,0.076948,0.248672,-0.197829,-0.040174,-0.126517,-0.323594,-0.198813,-0.065691
-0.095943,-0.108581,0.169018,0.129887,-0.320940,0.209639,-0.322998,-0.248694,-0.197340,-0.037246
0.080397,0.283702,0.127818,0.161695,-0.255839,-0.072762,-0.321732,-0.163109,-0.266732,-0.320514
0.016808,0.259635,0.102447,-0.005874,-0.182008,-0.111935,-0.320771,-0.097111,-0.014355,-0.321494
0.082059,-0.143201,0.205177,0.014995,-0.287219,-0.075870,-0.233823,0.047310,-0.124016,-0.322567
0.001245,-0.002513,0.147560,0.049164,-0.028236,-0.029756,-0.105041,-0.096754,-0.041039,-0.102774
0.155745,-0.088785,0.169101,0.098643,-0.002147,0.167919,-0.119784,-0.127229,-0.152642,-0.104333
0.131945,0.000316,-0.066740,-0.008842,-0.097138,-0.017882,-0.189329,-0.054843,0.017622,-0.206619
0.050217,-0.198090,0.115592,0.035071,0.020053,0.171013,-0.109246,0.017951,0.091759,-0.136304
0.185032,-0.191585,-0.052608,-0.052047,-0.192244,0.155232,-0.165180,-0.080416,0.147575,-0.143664
0.080078,-0.168332,-0.156455,0.069130,-0.056856,-0.012154,0.087139,-0.170397,0.151230,-0.206627
0.011952,-0.043629,-0.092795,-0.137396,-0.094310,0.067483,-0.071437,-0.144361,0.084197,-0.165003
0.040576,0.001735,-0.178597,0.066825,-0.006755,-0.095501,0.098238,-0.099396,0.058821,-0.235013
-0.079203,0.203555,0.011146,-0.018738,-0.183651,0.102786,0.034812,-0.163295,0.065795,-0.255112
-0.104342,0.189730,0.026573,0.124154,0.062912,0.116108,0.078516,-0.172873,0.054829,-0.256724
-0.017419,0.198260,0.059705,0.031340,0.104372,-0.099450,-0.070818,-0.322284,-0.037571,-0.087703
-0.111528,-0.080687,0.183401,0.128194,0.090315,0.202586,0.032618,-0.152561,0.081440,-0.067661
-0.027770,-0.092650,0.248339,0.071245,0.082422,0.179095,-0.049872,-0.321254,0.060507,-0.099128
-0.038187,-0.294363,0.157158,-0.093371,0.061290,0.091364,-0.250645,-0.309071,0.039078,0.095703
0.075603,-0.111870,0.149134,-0.144526,-0.057680,0.019152,-0.175029,-0.322035,0.033256,0.190695
-0.035211,-0.083531,0.223372,-0.208522,-0.241317,0.197102,-0.183751,-0.321389,-0.101066,0.129813
-0.142684,-0.147008,0.236849,-0.322788,0.028136,-0.142280,-0.333698,-0.130224,-0.321912,-0.010764
0.029223,0.122550,0.090983,-0.180202,-0.222955,0.071778,-0.121038,-0.136793,-0.296906,-0.105369
0.003530,0.180446,-0.105478,-0.141986,0.223293,-0.133549,-0.014307,-0.093210,-0.095395,-0.217284
0.044865,-0.141916,-0.146723,-0.004976,0.056698,-0.062807,0.136381,0.038606,-0.112510,0.045481
-0.039416,0.092730,-0.055032,-0.123737,0.003891,0.044828,-0.042592,-0.120540,-0.018531,0.115072
-0.080109,0.067133,0.086411,-0.172896,-0.012145,0.057232,-0.048761,0.103743,-0.048738,0.072280
0.110489,-0.070242,-0.174568,0.069928,-0.269616,-0.195904,0.053727,-0.050755,0.004468,-0.321411
-0.271426,-0.320535,-0.029481,0.200959,-0.211683,-0.133394,-0.044693,-0.326063,-0.285206,-0.164667
-0.324786,-0.030101,0.076944,0.228672,-0.179050,0.281354,-0.270048,0.176256,-0.285279,-0.080433
-0.036715,0.285822,-0.070629,0.284122,-0.279279,0.038932,-0.110059,0.051722,-0.323023,-0.195767
-0.066419,0.149970,-0.062194,0.284879,-0.151538,-0.027788,-0.245339,0.243763,-0.250706,-0.133852
0.027195,0.063723,-0.116516,0.097872,-0.067666,0.061572,-0.154182,0.079172,-0.191243,-0.082560
0.041266,0.080791,-0.066816,0.205462,-0.140498,0.053398,-0.321205,0.015663,0.048879,-0.108748
0.162028,-0.136379,-0.074692,-0.011824,-0.049832,0.028455,-0.243355,-0.002681,-0.083692,-0.152406
-0.037963,-0.019081,-0.127053,-0.004712,-0.143146,-0.043832,-0.289455,-0.079064,0.004945,-0.044515
0.192793,-0.024194,-0.193909,0.084405,-0.169565,0.147852,-0.133375,-0.129299,0.018993,-0.131659
0.161968,-0.163530,-0.047515,0.047055,-0.120014,0.059145,-0.193269,-0.120856,0.164331,0.033166
0.077470,-0.147000,-0.185118,0.031640,-0.113729,0.081956,-0.254290,-0.004961,0.248274,-0.232047
0.035799,-0.103955,-0.191959,-0.104625,-0.189711,0.015801,-0.191672,0.011500,0.160974,-0.159069
0.135663,0.037283,-0.108641,-0.152626,0.065122,0.012720,-0.149700,0.029266,0.208636,-0.193784
-0.061809,0.176972,-0.199607,-0.044356,0.014236,0.031937,-0.212194,-0.067891,0.088518,-0.093180
-0.074635,0.282218,-0.009380,0.065279,-0.018377,-0.010635,-0.238585,-0.126387,0.188657,-0.260827
0.017578,0.129362,0.103686,0.102640,0.073792,-0.053918,-0.286967,-0.235518,0.062142,-0.138755
-0.197921,0.099774,0.113282,0.215401,0.139342,0.024306,-0.136751,-0.155579,0.130406,-0.015034
-0.091486,-0.217130,0.067525,0.089607,0.143478,0.066434,-0.170908,-0.196849,0.189614,0.102016
-0.280640,-0.322457,0.283158,-0.253228,0.089725,0.028008,-0.321233,-0.312954,0.102861,0.012825
-0.098658,-0.266503,0.116233,-0.231521,-0.033553,0.011075,-0.149834,-0.172007,-0.048577,0.282841
-0.218593,-0.323311,0.117148,-0.321279,0.021941,0.168959,-0.296012,-0.320124,0.059953,0.284924
-0.217151,0.026742,0.194888,-0.175660,-0.217048,0.074287,-0.320591,-0.160427,-0.207852,0.096080
-0.075075,0.063590,0.103369,-0.220715,-0.024505,-0.118065,-0.211668,-0.053880,-0.145613,-0.033275
0.060441,0.175277,-0.294751,0.003748,0.167948,-0.065182,0.125104,-0.168310,-0.068292,-0.056116
-0.148789,-0.009149,0.035537,-0.062808,-0.163774,-0.044967,-0.107632,-0.047145,0.115604,-0.006201
0.060573,0.006976,0.023939,-0.190707,0.031278,-0.053352,0.156772,-0.040838,0.006691,0.086014
0.064828,0.075418,-0.003819,0.064119,0.026796,0.005700,0.117084,-0.183295,0.161285,-0.042779
-0.208467,-0.132082,-0.166635,0.090529,-0.082809,-0.098937,-0.011849,-0.162509,-0.044890,0.036570
-0.078707,-0.201164,-0.302817,0.205511,0.034429,0.042678,0.001983,-0.055126,-0.155012,-0.202278
-0.048088,-0.146114,-0.232374,0.281087,-0.201378,-0.171012,-0.043433,0.284444,-0.321802,0.050877
-0.208260,0.046456,-0.297826,0.242502,-0.011471,0.031758,-0.055535,0.287611,-0.323296,0.063479
-0.058006,0.072290,-0.321460,0.284826,-0.082004,0.048189,-0.111597,0.242910,-0.255695,0.096004
-0.040546,0.105696,-0.292440,0.284402,0.013554,0.054934,-0.056495,0.239084,-0.213771,-0.010474
-0.127332,-0.099814,-0.193689,0.228138,-0.175182,-0.016676,-0.130332,-0.028667,-0.067159,0.177034
-0.054437,-0.150162,-0.309249,0.179032,0.023804,0.133932,-0.187694,0.033176,-0.036255,-0.013080
-0.187169,-0.124790,-0.181843,0.029329,-0.095829,0.106279,-0.254960,0.000905,-0.030694,0.015545
0.051645,-0.267014,-0.178679,0.162932,-0.087488,0.040109,-0.320599,-0.028288,0.021138,-0.150125
0.019921,-0.149790,-0.026826,0.009933,-0.194235,-0.029843,-0.280442,0.003667,-0.011288,-0.135558
-0.090622,-0.254535,-0.089570,0.040598,-0.201824,0.126435,-0.295912,0.039389,-0.020267,-0.114441
-0.032263,-0.286435,-0.046824,0.140680,-0.028359,0.104158,-0.320814,0.106023,0.059988,-0.080621
-0.224947,-0.147137,-0.252536,-0.044446,-0.245699,-0.089276,-0.321774,-0.035973,0.040983,-0.117999
-0.117094,-0.260881,-0.134186,0.047927,-0.038704,-0.051435,-0.320902,-0.110025,0.115106,-0.075551
-0.108066,-0.124666,-0.102307,0.043536,-0.151278,0.067581,-0.321555,0.087078,0.051077,0.184502
-0.237622,-0.039507,0.069486,-0.062152,-0.067970,-0.048960,-0.320640,-0.164691,0.183504,0.140000
-0.321905,0.089874,-0.248949,-0.256579,-0.065213,0.050125,-0.228593,-0.140558,0.284247,0.109859
-0.310240,-0.226901,-0.021178,-0.297250,-0.056921,-0.005859,-0.261973,-0.131658,0.187485,0.256617
-0.233561,-0.179831,0.033570,-0.256584,0.036589,-0.010457,-0.261984,-0.185986,0.079783,0.281280
-0.320998,-0.089452,-0.145875,-0.064857,-0.167197,0.146495,-0.180678,-0.156251,0.261764,0.282459
-0.326891,-0.121507,0.127789,-0.180476,-0.103713,0.109162,-0.065785,-0.325537,-0.012039,0.282731
-0.031214,-0.018238,0.118784,-0.135878,-0.261898,-0.043087,0.069009,-0.209542,-0.325869,-0.053163
-0.150953,0.082531,0.182888,0.073788,0.027606,-0.132801,0.069748,-0.111519,-0.323054,-0.052248
-0.132316,0.201298,0.059039,0.163375,-0.129867,-0.150816,0.114975,-0.184707,-0.110755,0.074474
0.027537,-0.093317,-0.016109,-0.017916,-0.042345,-0.022748,0.089887,0.088818,-0.119445,-0.009294
0.101643,-0.118669,0.110149,-0.062730,-0.049119,-0.108508,0.010083,0.041838,0.060797,-0.066262
-0.169982,0.132941,0.016325,-0.152551,0.119719,-0.097211,-0.056054,-0.010129,0.033722,-0.045423
0.020046,-0.096124,0.042461,-0.061222,-0.096661,-0.000898,0.152406,-0.135987,-0.053668,0.013888
-0.020408,-0.307329,-0.185202,-0.168413,-0.054392,0.086365,-0.020475,0.220878,-0.323856,-0.110736
-0.087654,-0.312071,-0.240481,0.022971,-0.179267,-0.022034,0.005540,0.281020,-0.320711,0.200637
-0.287210,-0.328476,-0.324725,-0.150907,-0.248084,-0.244305,-0.107346,0.062302,-0.323222,0.146647
-0.320931,-0.324959,-0.321980,0.060484,-0.073875,-0.169898,0.001156,0.281619,-0.324815,0.280621
-0.320429,-0.322876,-0.325434,0.241439,-0.322363,0.112066,-0.260848,0.126477,-0.295720,0.096077
-0.325280,-0.321929,-0.322221,0.261944,-0.324441,-0.167779,-0.049467,0.142692,-0.324810,-0.015768
-0.323057,-0.321168,-0.326708,0.130121,-0.295751,0.070524,-0.303382,0.212645,-0.323513,0.016108
-0.321513,-0.321433,-0.326140,0.196930,-0.282095,-0.061317,-0.153277,0.109725,-0.322686,0.027260
-0.321726,-0.327245,-0.323754,0.219793,-0.313492,0.036265,-0.068812,0.138886,-0.320672,0.037231
-0.322510,-0.320996,-0.324734,0.166423,-0.321907,0.116306,-0.094144,0.228820,-0.321832,0.039415
-0.321256,-0.320823,-0.322012,-0.007899,-0.322427,0.224127,-0.193591,0.015019,-0.281160,0.068754
-0.321067,-0.321994,-0.321476,0.163339,-0.321147,0.049408,-0.277667,0.142487,-0.247353,0.112978
-0.322778,-0.312672,-0.322509,-0.096847,-0.321994,0.061605,-0.106696,0.282443,-0.134825,0.061964
-0.327947,-0.321427,-0.288541,-0.196550,-0.321978,-0.008811,-0.119031,0.174383,-0.123526,0.182649
-0.320223,-0.321694,-0.322085,-0.255457,-0.323403,0.104755,-0.308445,0.099311,-0.097409,0.281441
-0.322538,-0.321508,-0.324826,-0.243518,-0.324517,0.023570,-0.082924,0.169669,-0.074787,0.280422
-0.325614,-0.325334,-0.322665,-0.076473,-0.322894,-0.101297,-0.168576,0.064433,-0.016042,0.280914
-0.326540,-0.189149,-0.310624,-0.279773,-0.322386,-0.177834,-0.093977,-0.183592,-0.146014,0.282109
-0.328271,0.002214,-0.246045,-0.320895,-0.307295,0.096908,-0.086836,-0.026816,-0.282369,0.281283
-0.286130,-0.025232,-0.320943,0.085688,-0.322216,0.088246,-0.092295,-0.093716,-0.321774,0.280618
-0.262602,0.122828,-0.288616,-0.094326,-0.066977,0.240477,-0.147317,-0.254581,-0.127507,0.109992
-0.060119,-0.061649,-0.332975,-0.095809,-0.175172,0.156908,-0.177981,-0.093759,0.085671,-0.091342
-0.167042,-0.136063,0.108044,0.055510,-0.229841,-0.011042,0.146458,0.107127,-0.160332,0.059965
-0.104127,-0.089223,0.115252,-0.008547,0.032320,-0.024242,0.117876,0.049360,-0.140675,0.170871
-0.040513,0.139639,-0.000038,0.003160,0.123449,0.002459,0.190638,0.002600,0.031822,-0.032683
0.134718,0.164544,0.165236,-0.064575,0.056927,-0.114796,0.113880,0.128525,-0.071771,0.065023
-0.067666,0.078933,0.014663,0.118840,-0.041079,0.007504,0.058352,-0.107373,0.128459,-0.029476
0.070684,0.120723,-0.009294,0.097987,-0.091763,-0.048316,0.131501,-0.037786,-0.134678,-0.021451
0.048968,-0.010889,0.151151,0.056723,-0.150838,-0.007977,0.107814,-0.123190,-0.122441,-0.170676
-0.110988,-0.137434,-0.169585,-0.165322,-0.258785,-0.072723,-0.017483,-0.105844,-0.289266,0.126554
-0.189333,-0.288738,-0.157199,-0.105315,-0.266014,-0.320320,-0.010385,0.030402,-0.236095,0.283326
-0.283739,-0.087742,-0.321013,-0.160537,-0.309183,-0.335932,0.089636,-0.077834,-0.322496,0.047003
-0.320565,-0.215303,-0.327958,-0.112802,-0.321201,-0.321876,0.082389,-0.006091,-0.323131,-0.058848
-0.325423,-0.171469,-0.320336,-0.312712,-0.323235,-0.322924,-0.109774,-0.069583,-0.322191,-0.125181
-0.320700,-0.245460,-0.322704,-0.275807,-0.323919,-0.310981,-0.227430,0.071029,-0.321657,-0.012458
-0.321548,-0.322212,-0.322182,-0.321585,-0.322811,-0.166646,0.045961,-0.028158,-0.323079,-0.042372
-0.322285,-0.276093,-0.320944,-0.321215,-0.321772,-0.019745,-0.100608,-0.125003,-0.322350,-0.136975
-0.321710,-0.323109,-0.321710,-0.322055,-0.323104,-0.212035,-0.032742,0.039401,-0.322132,0.215777
-0.320157,-0.285093,-0.322120,-0.321668,-0.322851,-0.216465,-0.189595,-0.019236,-0.322204,-0.010919
-0.320367,-0.275744,-0.323060,-0.322973,-0.325302,-0.309002,-0.166626,0.081382,-0.322076,0.269883
-0.320537,-0.228261,-0.322115,-0.321812,-0.323954,-0.209200,-0.121372,0.135089,-0.324745,0.030159
-0.320556,-0.293316,-0.295088,-0.320850,-0.322277,-0.163177,-0.071546,0.120955,-0.321253,0.123267
-0.321659,-0.217290,-0.276629,-0.300223,-0.321729,-0.174627,-0.002755,0.189519,-0.321975,0.100725
-0.228922,-0.150654,-0.320795,-0.322167,-0.323768,-0.320675,-0.162862,0.114309,-0.324345,0.092239
-0.274239,-0.099055,-0.252766,-0.037699,-0.321719,-0.155858,-0.214601,0.171797,-0.325121,0.283843
-0.295019,-0.057481,-0.271052,-0.042651,-0.321793,-0.100512,0.055473,-0.102417,-0.322780,0.244643
-0.323257,-0.098365,-0.222989,-0.070721,-0.322964,0.016399,-0.211079,-0.013668,-0.332442,0.282791
-0.219149,0.067793,-0.128812,0.091360,-0.313446,-0.003485,-0.160245,0.171738,-0.323181,0.177865
-0.191390,0.142391,0.034862,-0.060513,-0.208830,-0.189495,0.009400,0.098223,-0.177049,-0.062990
-0.002291,-0.000320,-0.065021,-0.135656,-0.134008,-0.083276,-0.072922,0.018982,-0.000319,0.032395
0.038288,0.037189,0.004988,0.053339,0.039097,-0.070804,0.134448,-0.020318,-0.071654,-0.115852
-0.002791,0.042817,0.095598,0.173374,0.041545,0.034288,-0.038789,0.038511,-0.015421,0.031125
-0.078873,-0.042970,0.032437,-0.109304,-0.034779,-0.180448,-0.002345,0.066384,0.042107,-0.123983
-0.028093,-0.011665,-0.053702,0.081277,-0.044870,0.005099,0.075863,-0.069260,0.154959,-0.003742
0.088394,-0.092254,-0.072923,-0.191822,-0.127738,-0.126133,0.031939,-0.169241,-0.166699,0.020153
-0.096503,-0.101135,0.044507,0.031641,-0.178941,0.077408,0.002984,0.141329,-0.059870,0.093382
0.027090,0.117417,-0.027140,0.028727,0.074389,0.185583,-0.005584,0.077000,-0.041029,0.078719
0.034598,0.022081,0.053845,0.131530,0.011251,-0.052609,0.037712,-0.059649,0.007715,-0.162031
-0.126048,-0.197514,0.024642,-0.010820,0.030631,-0.013842,0.052325,-0.023890,0.045244,-0.147342
-0.178263,0.014486,-0.082577,-0.181688,-0.054025,-0.023509,-0.126381,-0.193615,-0.247829,0.005306
-0.128603,-0.064406,0.057968,-0.217439,-0.034084,-0.317791,-0.017472,0.048791,-0.163063,0.048085
-0.319734,0.016409,-0.128946,0.029387,-0.222790,-0.105053,-0.073888,0.067623,-0.319354,-0.095484
-0.323181,0.006977,-0.174068,-0.106319,-0.184199,-0.132546,0.007709,-0.137850,-0.322836,-0.038530
-0.322102,-0.058975,-0.218193,-0.165279,-0.326092,0.029060,-0.060065,0.131706,-0.320881,-0.076637
-0.221820,-0.238462,-0.319566,-0.242084,-0.322069,-0.109364,0.016871,0.005549,-0.321792,-0.015213
-0.193723,-0.067715,-0.286835,-0.268948,-0.299395,0.014144,-0.048512,0.179059,-0.331041,-0.074605
-0.205683,-0.180365,-0.252859,-0.237769,-0.322369,-0.289129,0.025500,0.145044,-0.296976,-0.321913
-0.209613,-0.105642,-0.275529,-0.321267,-0.322479,-0.322449,-0.016693,0.134894,-0.321339,-0.084592
-0.291919,0.044835,-0.243285,-0.323757,-0.321126,-0.266503,0.017838,0.115001,-0.325652,-0.322994
-0.095667,-0.170813,-0.099483,-0.326616,-0.322476,-0.322352,-0.087168,0.281451,-0.302127,-0.169915
-0.105885,-0.119159,-0.019805,-0.273050,-0.323895,-0.316045,0.019584,0.164220,-0.320721,-0.290197
-0.224897,-0.238741,-0.039887,-0.167809,-0.325787,-0.278317,0.032673,0.290102,-0.095362,-0.103960
0.005968,-0.120250,0.022729,-0.134076,-0.236087,-0.298595,-0.071871,0.271967,-0.326319,-0.179863
-0.083968,0.163666,-0.013599,-0.043096,-0.320124,-0.098787,0.101882,0.232853,-0.233089,0.130825
-0.252571,0.105279,-0.020074,-0.155541,-0.078231,-0.077521,-0.007937,0.227508,-0.256436,0.085265
-0.159235,0.164103,-0.205948,0.002719,-0.152883,0.030155,-0.078032,0.283764,-0.079245,0.093042
0.032251,-0.018471,-0.117486,-0.008541,-0.067043,-0.069933,-0.165622,0.284980,0.012490,-0.053948
0.000898,0.055287,-0.099154,-0.136690,-0.125823,0.128433,0.083848,0.022118,-0.032219,-0.025195
0.061476,-0.131697,-0.004979,-0.034659,0.014044,0.085536,0.003609,-0.159338,0.085202,0.028339
-0.005138,0.049207,0.049093,0.075942,-0.068301,0.102375,0.042550,-0.154099,0.088170,-0.032128
-0.125637,-0.120183,0.014205,-0.025922,0.023921,-0.076477,-0.126565,0.141910,0.049470,-0.058008
